digraph Tree {
node [shape=box] ;
0 [label="X[13] <= 0.5\ngini = 0.39\nsamples = 5634\nvalue = [4138, 1496]"] ;
1 [label="X[16] <= 68.625\ngini = 0.489\nsamples = 3083\nvalue = [1768, 1315]"] ;
0 -> 1 [labeldistance=2.5, labelangle=45, headlabel="True"] ;
2 [label="X[4] <= 3.5\ngini = 0.419\nsamples = 1304\nvalue = [915, 389]"] ;
1 -> 2 ;
3 [label="X[7] <= 1.5\ngini = 0.497\nsamples = 456\nvalue = [246, 210]"] ;
2 -> 3 ;
4 [label="X[9] <= 0.5\ngini = 0.494\nsamples = 286\nvalue = [128, 158]"] ;
3 -> 4 ;
5 [label="X[16] <= 46.075\ngini = 0.499\nsamples = 260\nvalue = [123, 137]"] ;
4 -> 5 ;
6 [label="X[12] <= 0.5\ngini = 0.477\nsamples = 150\nvalue = [59, 91]"] ;
5 -> 6 ;
7 [label="X[16] <= 45.625\ngini = 0.488\nsamples = 137\nvalue = [58, 79]"] ;
6 -> 7 ;
8 [label="X[14] <= 0.5\ngini = 0.496\nsamples = 121\nvalue = [55, 66]"] ;
7 -> 8 ;
9 [label="X[15] <= 2.5\ngini = 0.496\nsamples = 66\nvalue = [36, 30]"] ;
8 -> 9 ;
10 [label="X[16] <= 42.0\ngini = 0.497\nsamples = 41\nvalue = [19, 22]"] ;
9 -> 10 ;
11 [label="X[17] <= 89.25\ngini = 0.42\nsamples = 20\nvalue = [6, 14]"] ;
10 -> 11 ;
12 [label="X[16] <= 25.275\ngini = 0.346\nsamples = 18\nvalue = [4, 14]"] ;
11 -> 12 ;
13 [label="X[17] <= 25.15\ngini = 0.463\nsamples = 11\nvalue = [4, 7]"] ;
12 -> 13 ;
14 [label="gini = 0.0\nsamples = 3\nvalue = [0, 3]"] ;
13 -> 14 ;
15 [label="X[1] <= 0.5\ngini = 0.5\nsamples = 8\nvalue = [4, 4]"] ;
13 -> 15 ;
16 [label="X[17] <= 61.625\ngini = 0.444\nsamples = 6\nvalue = [4, 2]"] ;
15 -> 16 ;
17 [label="gini = 0.0\nsamples = 3\nvalue = [3, 0]"] ;
16 -> 17 ;
18 [label="X[0] <= 0.5\ngini = 0.444\nsamples = 3\nvalue = [1, 2]"] ;
16 -> 18 ;
19 [label="gini = 0.0\nsamples = 1\nvalue = [0, 1]"] ;
18 -> 19 ;
20 [label="X[17] <= 74.775\ngini = 0.5\nsamples = 2\nvalue = [1, 1]"] ;
18 -> 20 ;
21 [label="gini = 0.0\nsamples = 1\nvalue = [0, 1]"] ;
20 -> 21 ;
22 [label="gini = 0.0\nsamples = 1\nvalue = [1, 0]"] ;
20 -> 22 ;
23 [label="gini = 0.0\nsamples = 2\nvalue = [0, 2]"] ;
15 -> 23 ;
24 [label="gini = 0.0\nsamples = 7\nvalue = [0, 7]"] ;
12 -> 24 ;
25 [label="gini = 0.0\nsamples = 2\nvalue = [2, 0]"] ;
11 -> 25 ;
26 [label="X[16] <= 44.65\ngini = 0.472\nsamples = 21\nvalue = [13, 8]"] ;
10 -> 26 ;
27 [label="X[17] <= 88.3\ngini = 0.165\nsamples = 11\nvalue = [10, 1]"] ;
26 -> 27 ;
28 [label="gini = 0.0\nsamples = 8\nvalue = [8, 0]"] ;
27 -> 28 ;
29 [label="X[16] <= 44.4\ngini = 0.444\nsamples = 3\nvalue = [2, 1]"] ;
27 -> 29 ;
30 [label="gini = 0.0\nsamples = 1\nvalue = [0, 1]"] ;
29 -> 30 ;
31 [label="gini = 0.0\nsamples = 2\nvalue = [2, 0]"] ;
29 -> 31 ;
32 [label="X[15] <= 0.5\ngini = 0.42\nsamples = 10\nvalue = [3, 7]"] ;
26 -> 32 ;
33 [label="gini = 0.0\nsamples = 2\nvalue = [2, 0]"] ;
32 -> 33 ;
34 [label="X[1] <= 0.5\ngini = 0.219\nsamples = 8\nvalue = [1, 7]"] ;
32 -> 34 ;
35 [label="gini = 0.0\nsamples = 5\nvalue = [0, 5]"] ;
34 -> 35 ;
36 [label="X[16] <= 45.15\ngini = 0.444\nsamples = 3\nvalue = [1, 2]"] ;
34 -> 36 ;
37 [label="gini = 0.0\nsamples = 2\nvalue = [0, 2]"] ;
36 -> 37 ;
38 [label="gini = 0.0\nsamples = 1\nvalue = [1, 0]"] ;
36 -> 38 ;
39 [label="X[16] <= 39.525\ngini = 0.435\nsamples = 25\nvalue = [17, 8]"] ;
9 -> 39 ;
40 [label="X[8] <= 0.5\ngini = 0.165\nsamples = 11\nvalue = [10, 1]"] ;
39 -> 40 ;
41 [label="gini = 0.0\nsamples = 8\nvalue = [8, 0]"] ;
40 -> 41 ;
42 [label="X[16] <= 29.8\ngini = 0.444\nsamples = 3\nvalue = [2, 1]"] ;
40 -> 42 ;
43 [label="gini = 0.0\nsamples = 1\nvalue = [0, 1]"] ;
42 -> 43 ;
44 [label="gini = 0.0\nsamples = 2\nvalue = [2, 0]"] ;
42 -> 44 ;
45 [label="X[16] <= 44.425\ngini = 0.5\nsamples = 14\nvalue = [7, 7]"] ;
39 -> 45 ;
46 [label="gini = 0.0\nsamples = 4\nvalue = [0, 4]"] ;
45 -> 46 ;
47 [label="X[1] <= 0.5\ngini = 0.42\nsamples = 10\nvalue = [7, 3]"] ;
45 -> 47 ;
48 [label="X[17] <= 44.9\ngini = 0.346\nsamples = 9\nvalue = [7, 2]"] ;
47 -> 48 ;
49 [label="gini = 0.0\nsamples = 3\nvalue = [3, 0]"] ;
48 -> 49 ;
50 [label="X[16] <= 45.2\ngini = 0.444\nsamples = 6\nvalue = [4, 2]"] ;
48 -> 50 ;
51 [label="X[4] <= 2.5\ngini = 0.444\nsamples = 3\nvalue = [1, 2]"] ;
50 -> 51 ;
52 [label="gini = 0.0\nsamples = 2\nvalue = [0, 2]"] ;
51 -> 52 ;
53 [label="gini = 0.0\nsamples = 1\nvalue = [1, 0]"] ;
51 -> 53 ;
54 [label="gini = 0.0\nsamples = 3\nvalue = [3, 0]"] ;
50 -> 54 ;
55 [label="gini = 0.0\nsamples = 1\nvalue = [0, 1]"] ;
47 -> 55 ;
56 [label="X[17] <= 105.375\ngini = 0.452\nsamples = 55\nvalue = [19, 36]"] ;
8 -> 56 ;
57 [label="X[17] <= 89.55\ngini = 0.471\nsamples = 50\nvalue = [19, 31]"] ;
56 -> 57 ;
58 [label="X[1] <= 0.5\ngini = 0.427\nsamples = 42\nvalue = [13, 29]"] ;
57 -> 58 ;
59 [label="X[16] <= 45.025\ngini = 0.463\nsamples = 33\nvalue = [12, 21]"] ;
58 -> 59 ;
60 [label="X[16] <= 24.325\ngini = 0.485\nsamples = 29\nvalue = [12, 17]"] ;
59 -> 60 ;
61 [label="gini = 0.0\nsamples = 2\nvalue = [0, 2]"] ;
60 -> 61 ;
62 [label="X[17] <= 24.425\ngini = 0.494\nsamples = 27\nvalue = [12, 15]"] ;
60 -> 62 ;
63 [label="gini = 0.0\nsamples = 1\nvalue = [1, 0]"] ;
62 -> 63 ;
64 [label="X[16] <= 29.725\ngini = 0.488\nsamples = 26\nvalue = [11, 15]"] ;
62 -> 64 ;
65 [label="X[17] <= 25.225\ngini = 0.375\nsamples = 8\nvalue = [2, 6]"] ;
64 -> 65 ;
66 [label="X[16] <= 24.575\ngini = 0.48\nsamples = 5\nvalue = [2, 3]"] ;
65 -> 66 ;
67 [label="gini = 0.0\nsamples = 1\nvalue = [0, 1]"] ;
66 -> 67 ;
68 [label="X[17] <= 24.9\ngini = 0.5\nsamples = 4\nvalue = [2, 2]"] ;
66 -> 68 ;
69 [label="gini = 0.0\nsamples = 1\nvalue = [1, 0]"] ;
68 -> 69 ;
70 [label="X[17] <= 25.125\ngini = 0.444\nsamples = 3\nvalue = [1, 2]"] ;
68 -> 70 ;
71 [label="gini = 0.0\nsamples = 1\nvalue = [0, 1]"] ;
70 -> 71 ;
72 [label="X[0] <= 0.5\ngini = 0.5\nsamples = 2\nvalue = [1, 1]"] ;
70 -> 72 ;
73 [label="gini = 0.0\nsamples = 1\nvalue = [1, 0]"] ;
72 -> 73 ;
74 [label="gini = 0.0\nsamples = 1\nvalue = [0, 1]"] ;
72 -> 74 ;
75 [label="gini = 0.0\nsamples = 3\nvalue = [0, 3]"] ;
65 -> 75 ;
76 [label="X[0] <= 0.5\ngini = 0.5\nsamples = 18\nvalue = [9, 9]"] ;
64 -> 76 ;
77 [label="X[16] <= 30.575\ngini = 0.42\nsamples = 10\nvalue = [3, 7]"] ;
76 -> 77 ;
78 [label="gini = 0.0\nsamples = 2\nvalue = [2, 0]"] ;
77 -> 78 ;
79 [label="X[17] <= 44.05\ngini = 0.219\nsamples = 8\nvalue = [1, 7]"] ;
77 -> 79 ;
80 [label="X[15] <= 2.5\ngini = 0.5\nsamples = 2\nvalue = [1, 1]"] ;
79 -> 80 ;
81 [label="gini = 0.0\nsamples = 1\nvalue = [0, 1]"] ;
80 -> 81 ;
82 [label="gini = 0.0\nsamples = 1\nvalue = [1, 0]"] ;
80 -> 82 ;
83 [label="gini = 0.0\nsamples = 6\nvalue = [0, 6]"] ;
79 -> 83 ;
84 [label="X[16] <= 43.375\ngini = 0.375\nsamples = 8\nvalue = [6, 2]"] ;
76 -> 84 ;
85 [label="gini = 0.0\nsamples = 1\nvalue = [0, 1]"] ;
84 -> 85 ;
86 [label="X[16] <= 44.225\ngini = 0.245\nsamples = 7\nvalue = [6, 1]"] ;
84 -> 86 ;
87 [label="X[17] <= 44.1\ngini = 0.444\nsamples = 3\nvalue = [2, 1]"] ;
86 -> 87 ;
88 [label="gini = 0.0\nsamples = 2\nvalue = [2, 0]"] ;
87 -> 88 ;
89 [label="gini = 0.0\nsamples = 1\nvalue = [0, 1]"] ;
87 -> 89 ;
90 [label="gini = 0.0\nsamples = 4\nvalue = [4, 0]"] ;
86 -> 90 ;
91 [label="gini = 0.0\nsamples = 4\nvalue = [0, 4]"] ;
59 -> 91 ;
92 [label="X[17] <= 88.45\ngini = 0.198\nsamples = 9\nvalue = [1, 8]"] ;
58 -> 92 ;
93 [label="gini = 0.0\nsamples = 7\nvalue = [0, 7]"] ;
92 -> 93 ;
94 [label="X[16] <= 44.5\ngini = 0.5\nsamples = 2\nvalue = [1, 1]"] ;
92 -> 94 ;
95 [label="gini = 0.0\nsamples = 1\nvalue = [1, 0]"] ;
94 -> 95 ;
96 [label="gini = 0.0\nsamples = 1\nvalue = [0, 1]"] ;
94 -> 96 ;
97 [label="X[17] <= 90.15\ngini = 0.375\nsamples = 8\nvalue = [6, 2]"] ;
57 -> 97 ;
98 [label="gini = 0.0\nsamples = 2\nvalue = [2, 0]"] ;
97 -> 98 ;
99 [label="X[10] <= 0.5\ngini = 0.444\nsamples = 6\nvalue = [4, 2]"] ;
97 -> 99 ;
100 [label="X[17] <= 90.4\ngini = 0.32\nsamples = 5\nvalue = [4, 1]"] ;
99 -> 100 ;
101 [label="gini = 0.0\nsamples = 1\nvalue = [0, 1]"] ;
100 -> 101 ;
102 [label="gini = 0.0\nsamples = 4\nvalue = [4, 0]"] ;
100 -> 102 ;
103 [label="gini = 0.0\nsamples = 1\nvalue = [0, 1]"] ;
99 -> 103 ;
104 [label="gini = 0.0\nsamples = 5\nvalue = [0, 5]"] ;
56 -> 104 ;
105 [label="X[14] <= 0.5\ngini = 0.305\nsamples = 16\nvalue = [3, 13]"] ;
7 -> 105 ;
106 [label="gini = 0.0\nsamples = 7\nvalue = [0, 7]"] ;
105 -> 106 ;
107 [label="X[16] <= 45.75\ngini = 0.444\nsamples = 9\nvalue = [3, 6]"] ;
105 -> 107 ;
108 [label="gini = 0.0\nsamples = 4\nvalue = [0, 4]"] ;
107 -> 108 ;
109 [label="X[4] <= 1.5\ngini = 0.48\nsamples = 5\nvalue = [3, 2]"] ;
107 -> 109 ;
110 [label="X[17] <= 45.825\ngini = 0.5\nsamples = 4\nvalue = [2, 2]"] ;
109 -> 110 ;
111 [label="gini = 0.0\nsamples = 1\nvalue = [1, 0]"] ;
110 -> 111 ;
112 [label="X[1] <= 0.5\ngini = 0.444\nsamples = 3\nvalue = [1, 2]"] ;
110 -> 112 ;
113 [label="gini = 0.0\nsamples = 2\nvalue = [0, 2]"] ;
112 -> 113 ;
114 [label="gini = 0.0\nsamples = 1\nvalue = [1, 0]"] ;
112 -> 114 ;
115 [label="gini = 0.0\nsamples = 1\nvalue = [1, 0]"] ;
109 -> 115 ;
116 [label="X[17] <= 113.175\ngini = 0.142\nsamples = 13\nvalue = [1, 12]"] ;
6 -> 116 ;
117 [label="gini = 0.0\nsamples = 12\nvalue = [0, 12]"] ;
116 -> 117 ;
118 [label="gini = 0.0\nsamples = 1\nvalue = [1, 0]"] ;
116 -> 118 ;
119 [label="X[17] <= 50.3\ngini = 0.487\nsamples = 110\nvalue = [64, 46]"] ;
5 -> 119 ;
120 [label="X[1] <= 0.5\ngini = 0.355\nsamples = 26\nvalue = [20, 6]"] ;
119 -> 120 ;
121 [label="X[16] <= 47.075\ngini = 0.287\nsamples = 23\nvalue = [19, 4]"] ;
120 -> 121 ;
122 [label="gini = 0.0\nsamples = 1\nvalue = [0, 1]"] ;
121 -> 122 ;
123 [label="X[6] <= 0.5\ngini = 0.236\nsamples = 22\nvalue = [19, 3]"] ;
121 -> 123 ;
124 [label="X[10] <= 0.5\ngini = 0.111\nsamples = 17\nvalue = [16, 1]"] ;
123 -> 124 ;
125 [label="gini = 0.0\nsamples = 12\nvalue = [12, 0]"] ;
124 -> 125 ;
126 [label="X[16] <= 49.6\ngini = 0.32\nsamples = 5\nvalue = [4, 1]"] ;
124 -> 126 ;
127 [label="gini = 0.0\nsamples = 3\nvalue = [3, 0]"] ;
126 -> 127 ;
128 [label="X[0] <= 0.5\ngini = 0.5\nsamples = 2\nvalue = [1, 1]"] ;
126 -> 128 ;
129 [label="gini = 0.0\nsamples = 1\nvalue = [1, 0]"] ;
128 -> 129 ;
130 [label="gini = 0.0\nsamples = 1\nvalue = [0, 1]"] ;
128 -> 130 ;
131 [label="X[0] <= 0.5\ngini = 0.48\nsamples = 5\nvalue = [3, 2]"] ;
123 -> 131 ;
132 [label="X[16] <= 50.025\ngini = 0.444\nsamples = 3\nvalue = [1, 2]"] ;
131 -> 132 ;
133 [label="gini = 0.0\nsamples = 1\nvalue = [0, 1]"] ;
132 -> 133 ;
134 [label="X[15] <= 2.5\ngini = 0.5\nsamples = 2\nvalue = [1, 1]"] ;
132 -> 134 ;
135 [label="gini = 0.0\nsamples = 1\nvalue = [1, 0]"] ;
134 -> 135 ;
136 [label="gini = 0.0\nsamples = 1\nvalue = [0, 1]"] ;
134 -> 136 ;
137 [label="gini = 0.0\nsamples = 2\nvalue = [2, 0]"] ;
131 -> 137 ;
138 [label="X[17] <= 47.775\ngini = 0.444\nsamples = 3\nvalue = [1, 2]"] ;
120 -> 138 ;
139 [label="gini = 0.0\nsamples = 1\nvalue = [1, 0]"] ;
138 -> 139 ;
140 [label="gini = 0.0\nsamples = 2\nvalue = [0, 2]"] ;
138 -> 140 ;
141 [label="X[17] <= 55.225\ngini = 0.499\nsamples = 84\nvalue = [44, 40]"] ;
119 -> 141 ;
142 [label="X[8] <= 0.5\ngini = 0.444\nsamples = 24\nvalue = [8, 16]"] ;
141 -> 142 ;
143 [label="X[6] <= 0.5\ngini = 0.291\nsamples = 17\nvalue = [3, 14]"] ;
142 -> 143 ;
144 [label="X[11] <= 0.5\ngini = 0.142\nsamples = 13\nvalue = [1, 12]"] ;
143 -> 144 ;
145 [label="gini = 0.0\nsamples = 8\nvalue = [0, 8]"] ;
144 -> 145 ;
146 [label="X[15] <= 2.5\ngini = 0.32\nsamples = 5\nvalue = [1, 4]"] ;
144 -> 146 ;
147 [label="X[17] <= 54.825\ngini = 0.5\nsamples = 2\nvalue = [1, 1]"] ;
146 -> 147 ;
148 [label="gini = 0.0\nsamples = 1\nvalue = [1, 0]"] ;
147 -> 148 ;
149 [label="gini = 0.0\nsamples = 1\nvalue = [0, 1]"] ;
147 -> 149 ;
150 [label="gini = 0.0\nsamples = 3\nvalue = [0, 3]"] ;
146 -> 150 ;
151 [label="X[17] <= 50.65\ngini = 0.5\nsamples = 4\nvalue = [2, 2]"] ;
143 -> 151 ;
152 [label="gini = 0.0\nsamples = 2\nvalue = [0, 2]"] ;
151 -> 152 ;
153 [label="gini = 0.0\nsamples = 2\nvalue = [2, 0]"] ;
151 -> 153 ;
154 [label="X[17] <= 50.65\ngini = 0.408\nsamples = 7\nvalue = [5, 2]"] ;
142 -> 154 ;
155 [label="gini = 0.0\nsamples = 1\nvalue = [0, 1]"] ;
154 -> 155 ;
156 [label="X[15] <= 2.5\ngini = 0.278\nsamples = 6\nvalue = [5, 1]"] ;
154 -> 156 ;
157 [label="X[14] <= 0.5\ngini = 0.5\nsamples = 2\nvalue = [1, 1]"] ;
156 -> 157 ;
158 [label="gini = 0.0\nsamples = 1\nvalue = [1, 0]"] ;
157 -> 158 ;
159 [label="gini = 0.0\nsamples = 1\nvalue = [0, 1]"] ;
157 -> 159 ;
160 [label="gini = 0.0\nsamples = 4\nvalue = [4, 0]"] ;
156 -> 160 ;
161 [label="X[7] <= 0.5\ngini = 0.48\nsamples = 60\nvalue = [36, 24]"] ;
141 -> 161 ;
162 [label="X[16] <= 60.2\ngini = 0.471\nsamples = 58\nvalue = [36, 22]"] ;
161 -> 162 ;
163 [label="X[17] <= 55.625\ngini = 0.496\nsamples = 44\nvalue = [24, 20]"] ;
162 -> 163 ;
164 [label="gini = 0.0\nsamples = 4\nvalue = [4, 0]"] ;
163 -> 164 ;
165 [label="X[16] <= 54.675\ngini = 0.5\nsamples = 40\nvalue = [20, 20]"] ;
163 -> 165 ;
166 [label="X[1] <= 0.5\ngini = 0.473\nsamples = 26\nvalue = [16, 10]"] ;
165 -> 166 ;
167 [label="X[14] <= 0.5\ngini = 0.444\nsamples = 24\nvalue = [16, 8]"] ;
166 -> 167 ;
168 [label="X[17] <= 155.7\ngini = 0.198\nsamples = 9\nvalue = [8, 1]"] ;
167 -> 168 ;
169 [label="gini = 0.0\nsamples = 7\nvalue = [7, 0]"] ;
168 -> 169 ;
170 [label="X[15] <= 2.0\ngini = 0.5\nsamples = 2\nvalue = [1, 1]"] ;
168 -> 170 ;
171 [label="gini = 0.0\nsamples = 1\nvalue = [0, 1]"] ;
170 -> 171 ;
172 [label="gini = 0.0\nsamples = 1\nvalue = [1, 0]"] ;
170 -> 172 ;
173 [label="X[10] <= 0.5\ngini = 0.498\nsamples = 15\nvalue = [8, 7]"] ;
167 -> 173 ;
174 [label="X[16] <= 47.825\ngini = 0.486\nsamples = 12\nvalue = [5, 7]"] ;
173 -> 174 ;
175 [label="gini = 0.0\nsamples = 2\nvalue = [2, 0]"] ;
174 -> 175 ;
176 [label="X[16] <= 50.025\ngini = 0.42\nsamples = 10\nvalue = [3, 7]"] ;
174 -> 176 ;
177 [label="gini = 0.0\nsamples = 4\nvalue = [0, 4]"] ;
176 -> 177 ;
178 [label="X[16] <= 50.45\ngini = 0.5\nsamples = 6\nvalue = [3, 3]"] ;
176 -> 178 ;
179 [label="gini = 0.0\nsamples = 2\nvalue = [2, 0]"] ;
178 -> 179 ;
180 [label="X[17] <= 157.2\ngini = 0.375\nsamples = 4\nvalue = [1, 3]"] ;
178 -> 180 ;
181 [label="gini = 0.0\nsamples = 3\nvalue = [0, 3]"] ;
180 -> 181 ;
182 [label="gini = 0.0\nsamples = 1\nvalue = [1, 0]"] ;
180 -> 182 ;
183 [label="gini = 0.0\nsamples = 3\nvalue = [3, 0]"] ;
173 -> 183 ;
184 [label="gini = 0.0\nsamples = 2\nvalue = [0, 2]"] ;
166 -> 184 ;
185 [label="X[16] <= 56.4\ngini = 0.408\nsamples = 14\nvalue = [4, 10]"] ;
165 -> 185 ;
186 [label="X[12] <= 0.5\ngini = 0.198\nsamples = 9\nvalue = [1, 8]"] ;
185 -> 186 ;
187 [label="gini = 0.0\nsamples = 6\nvalue = [0, 6]"] ;
186 -> 187 ;
188 [label="X[17] <= 83.425\ngini = 0.444\nsamples = 3\nvalue = [1, 2]"] ;
186 -> 188 ;
189 [label="gini = 0.0\nsamples = 2\nvalue = [0, 2]"] ;
188 -> 189 ;
190 [label="gini = 0.0\nsamples = 1\nvalue = [1, 0]"] ;
188 -> 190 ;
191 [label="X[16] <= 59.825\ngini = 0.48\nsamples = 5\nvalue = [3, 2]"] ;
185 -> 191 ;
192 [label="gini = 0.0\nsamples = 3\nvalue = [3, 0]"] ;
191 -> 192 ;
193 [label="gini = 0.0\nsamples = 2\nvalue = [0, 2]"] ;
191 -> 193 ;
194 [label="X[6] <= 0.5\ngini = 0.245\nsamples = 14\nvalue = [12, 2]"] ;
162 -> 194 ;
195 [label="gini = 0.0\nsamples = 7\nvalue = [7, 0]"] ;
194 -> 195 ;
196 [label="X[12] <= 0.5\ngini = 0.408\nsamples = 7\nvalue = [5, 2]"] ;
194 -> 196 ;
197 [label="X[0] <= 0.5\ngini = 0.278\nsamples = 6\nvalue = [5, 1]"] ;
196 -> 197 ;
198 [label="X[10] <= 0.5\ngini = 0.444\nsamples = 3\nvalue = [2, 1]"] ;
197 -> 198 ;
199 [label="gini = 0.0\nsamples = 1\nvalue = [1, 0]"] ;
198 -> 199 ;
200 [label="X[16] <= 64.1\ngini = 0.5\nsamples = 2\nvalue = [1, 1]"] ;
198 -> 200 ;
201 [label="gini = 0.0\nsamples = 1\nvalue = [0, 1]"] ;
200 -> 201 ;
202 [label="gini = 0.0\nsamples = 1\nvalue = [1, 0]"] ;
200 -> 202 ;
203 [label="gini = 0.0\nsamples = 3\nvalue = [3, 0]"] ;
197 -> 203 ;
204 [label="gini = 0.0\nsamples = 1\nvalue = [0, 1]"] ;
196 -> 204 ;
205 [label="gini = 0.0\nsamples = 2\nvalue = [0, 2]"] ;
161 -> 205 ;
206 [label="X[14] <= 0.5\ngini = 0.311\nsamples = 26\nvalue = [5, 21]"] ;
4 -> 206 ;
207 [label="X[16] <= 45.15\ngini = 0.486\nsamples = 12\nvalue = [5, 7]"] ;
206 -> 207 ;
208 [label="gini = 0.0\nsamples = 2\nvalue = [2, 0]"] ;
207 -> 208 ;
209 [label="X[17] <= 55.025\ngini = 0.42\nsamples = 10\nvalue = [3, 7]"] ;
207 -> 209 ;
210 [label="gini = 0.0\nsamples = 4\nvalue = [0, 4]"] ;
209 -> 210 ;
211 [label="X[16] <= 57.45\ngini = 0.5\nsamples = 6\nvalue = [3, 3]"] ;
209 -> 211 ;
212 [label="gini = 0.0\nsamples = 2\nvalue = [2, 0]"] ;
211 -> 212 ;
213 [label="X[4] <= 1.5\ngini = 0.375\nsamples = 4\nvalue = [1, 3]"] ;
211 -> 213 ;
214 [label="gini = 0.0\nsamples = 2\nvalue = [0, 2]"] ;
213 -> 214 ;
215 [label="X[17] <= 127.25\ngini = 0.5\nsamples = 2\nvalue = [1, 1]"] ;
213 -> 215 ;
216 [label="gini = 0.0\nsamples = 1\nvalue = [1, 0]"] ;
215 -> 216 ;
217 [label="gini = 0.0\nsamples = 1\nvalue = [0, 1]"] ;
215 -> 217 ;
218 [label="gini = 0.0\nsamples = 14\nvalue = [0, 14]"] ;
206 -> 218 ;
219 [label="X[17] <= 24.525\ngini = 0.425\nsamples = 170\nvalue = [118, 52]"] ;
3 -> 219 ;
220 [label="X[17] <= 19.875\ngini = 0.473\nsamples = 117\nvalue = [72, 45]"] ;
219 -> 220 ;
221 [label="X[15] <= 1.5\ngini = 0.403\nsamples = 50\nvalue = [36, 14]"] ;
220 -> 221 ;
222 [label="gini = 0.0\nsamples = 8\nvalue = [8, 0]"] ;
221 -> 222 ;
223 [label="X[0] <= 0.5\ngini = 0.444\nsamples = 42\nvalue = [28, 14]"] ;
221 -> 223 ;
224 [label="X[16] <= 19.625\ngini = 0.363\nsamples = 21\nvalue = [16, 5]"] ;
223 -> 224 ;
225 [label="X[17] <= 19.575\ngini = 0.43\nsamples = 16\nvalue = [11, 5]"] ;
224 -> 225 ;
226 [label="X[16] <= 19.525\ngini = 0.391\nsamples = 15\nvalue = [11, 4]"] ;
225 -> 226 ;
227 [label="X[16] <= 19.425\ngini = 0.444\nsamples = 12\nvalue = [8, 4]"] ;
226 -> 227 ;
228 [label="X[17] <= 19.05\ngini = 0.346\nsamples = 9\nvalue = [7, 2]"] ;
227 -> 228 ;
229 [label="gini = 0.0\nsamples = 2\nvalue = [2, 0]"] ;
228 -> 229 ;
230 [label="X[16] <= 19.35\ngini = 0.408\nsamples = 7\nvalue = [5, 2]"] ;
228 -> 230 ;
231 [label="X[17] <= 19.275\ngini = 0.48\nsamples = 5\nvalue = [3, 2]"] ;
230 -> 231 ;
232 [label="X[14] <= 0.5\ngini = 0.375\nsamples = 4\nvalue = [3, 1]"] ;
231 -> 232 ;
233 [label="gini = 0.0\nsamples = 3\nvalue = [3, 0]"] ;
232 -> 233 ;
234 [label="gini = 0.0\nsamples = 1\nvalue = [0, 1]"] ;
232 -> 234 ;
235 [label="gini = 0.0\nsamples = 1\nvalue = [0, 1]"] ;
231 -> 235 ;
236 [label="gini = 0.0\nsamples = 2\nvalue = [2, 0]"] ;
230 -> 236 ;
237 [label="X[14] <= 0.5\ngini = 0.444\nsamples = 3\nvalue = [1, 2]"] ;
227 -> 237 ;
238 [label="gini = 0.0\nsamples = 2\nvalue = [0, 2]"] ;
237 -> 238 ;
239 [label="gini = 0.0\nsamples = 1\nvalue = [1, 0]"] ;
237 -> 239 ;
240 [label="gini = 0.0\nsamples = 3\nvalue = [3, 0]"] ;
226 -> 240 ;
241 [label="gini = 0.0\nsamples = 1\nvalue = [0, 1]"] ;
225 -> 241 ;
242 [label="gini = 0.0\nsamples = 5\nvalue = [5, 0]"] ;
224 -> 242 ;
243 [label="X[16] <= 19.225\ngini = 0.49\nsamples = 21\nvalue = [12, 9]"] ;
223 -> 243 ;
244 [label="X[17] <= 18.95\ngini = 0.278\nsamples = 6\nvalue = [5, 1]"] ;
243 -> 244 ;
245 [label="gini = 0.0\nsamples = 1\nvalue = [0, 1]"] ;
244 -> 245 ;
246 [label="gini = 0.0\nsamples = 5\nvalue = [5, 0]"] ;
244 -> 246 ;
247 [label="X[15] <= 2.5\ngini = 0.498\nsamples = 15\nvalue = [7, 8]"] ;
243 -> 247 ;
248 [label="gini = 0.0\nsamples = 1\nvalue = [1, 0]"] ;
247 -> 248 ;
249 [label="X[17] <= 19.275\ngini = 0.49\nsamples = 14\nvalue = [6, 8]"] ;
247 -> 249 ;
250 [label="gini = 0.0\nsamples = 1\nvalue = [0, 1]"] ;
249 -> 250 ;
251 [label="X[16] <= 19.575\ngini = 0.497\nsamples = 13\nvalue = [6, 7]"] ;
249 -> 251 ;
252 [label="X[17] <= 19.5\ngini = 0.48\nsamples = 5\nvalue = [3, 2]"] ;
251 -> 252 ;
253 [label="X[16] <= 19.375\ngini = 0.444\nsamples = 3\nvalue = [1, 2]"] ;
252 -> 253 ;
254 [label="gini = 0.5\nsamples = 2\nvalue = [1, 1]"] ;
253 -> 254 ;
255 [label="gini = 0.0\nsamples = 1\nvalue = [0, 1]"] ;
253 -> 255 ;
256 [label="gini = 0.0\nsamples = 2\nvalue = [2, 0]"] ;
252 -> 256 ;
257 [label="X[16] <= 19.675\ngini = 0.469\nsamples = 8\nvalue = [3, 5]"] ;
251 -> 257 ;
258 [label="gini = 0.0\nsamples = 2\nvalue = [0, 2]"] ;
257 -> 258 ;
259 [label="X[14] <= 0.5\ngini = 0.5\nsamples = 6\nvalue = [3, 3]"] ;
257 -> 259 ;
260 [label="X[17] <= 19.725\ngini = 0.48\nsamples = 5\nvalue = [2, 3]"] ;
259 -> 260 ;
261 [label="gini = 0.5\nsamples = 2\nvalue = [1, 1]"] ;
260 -> 261 ;
262 [label="gini = 0.444\nsamples = 3\nvalue = [1, 2]"] ;
260 -> 262 ;
263 [label="gini = 0.0\nsamples = 1\nvalue = [1, 0]"] ;
259 -> 263 ;
264 [label="X[17] <= 20.225\ngini = 0.497\nsamples = 67\nvalue = [36, 31]"] ;
220 -> 264 ;
265 [label="X[16] <= 20.075\ngini = 0.485\nsamples = 29\nvalue = [12, 17]"] ;
264 -> 265 ;
266 [label="X[15] <= 2.5\ngini = 0.5\nsamples = 14\nvalue = [7, 7]"] ;
265 -> 266 ;
267 [label="X[17] <= 19.925\ngini = 0.32\nsamples = 5\nvalue = [1, 4]"] ;
266 -> 267 ;
268 [label="X[15] <= 1.0\ngini = 0.5\nsamples = 2\nvalue = [1, 1]"] ;
267 -> 268 ;
269 [label="gini = 0.0\nsamples = 1\nvalue = [1, 0]"] ;
268 -> 269 ;
270 [label="gini = 0.0\nsamples = 1\nvalue = [0, 1]"] ;
268 -> 270 ;
271 [label="gini = 0.0\nsamples = 3\nvalue = [0, 3]"] ;
267 -> 271 ;
272 [label="X[1] <= 0.5\ngini = 0.444\nsamples = 9\nvalue = [6, 3]"] ;
266 -> 272 ;
273 [label="X[16] <= 19.975\ngini = 0.375\nsamples = 8\nvalue = [6, 2]"] ;
272 -> 273 ;
274 [label="X[14] <= 0.5\ngini = 0.5\nsamples = 4\nvalue = [2, 2]"] ;
273 -> 274 ;
275 [label="X[0] <= 0.5\ngini = 0.444\nsamples = 3\nvalue = [1, 2]"] ;
274 -> 275 ;
276 [label="gini = 0.5\nsamples = 2\nvalue = [1, 1]"] ;
275 -> 276 ;
277 [label="gini = 0.0\nsamples = 1\nvalue = [0, 1]"] ;
275 -> 277 ;
278 [label="gini = 0.0\nsamples = 1\nvalue = [1, 0]"] ;
274 -> 278 ;
279 [label="gini = 0.0\nsamples = 4\nvalue = [4, 0]"] ;
273 -> 279 ;
280 [label="gini = 0.0\nsamples = 1\nvalue = [0, 1]"] ;
272 -> 280 ;
281 [label="X[14] <= 0.5\ngini = 0.444\nsamples = 15\nvalue = [5, 10]"] ;
265 -> 281 ;
282 [label="X[16] <= 20.175\ngini = 0.5\nsamples = 8\nvalue = [4, 4]"] ;
281 -> 282 ;
283 [label="X[0] <= 0.5\ngini = 0.375\nsamples = 4\nvalue = [1, 3]"] ;
282 -> 283 ;
284 [label="gini = 0.0\nsamples = 1\nvalue = [1, 0]"] ;
283 -> 284 ;
285 [label="gini = 0.0\nsamples = 3\nvalue = [0, 3]"] ;
283 -> 285 ;
286 [label="X[15] <= 1.5\ngini = 0.375\nsamples = 4\nvalue = [3, 1]"] ;
282 -> 286 ;
287 [label="gini = 0.0\nsamples = 1\nvalue = [1, 0]"] ;
286 -> 287 ;
288 [label="gini = 0.444\nsamples = 3\nvalue = [2, 1]"] ;
286 -> 288 ;
289 [label="X[16] <= 20.175\ngini = 0.245\nsamples = 7\nvalue = [1, 6]"] ;
281 -> 289 ;
290 [label="X[16] <= 20.125\ngini = 0.5\nsamples = 2\nvalue = [1, 1]"] ;
289 -> 290 ;
291 [label="gini = 0.0\nsamples = 1\nvalue = [0, 1]"] ;
290 -> 291 ;
292 [label="gini = 0.0\nsamples = 1\nvalue = [1, 0]"] ;
290 -> 292 ;
293 [label="gini = 0.0\nsamples = 5\nvalue = [0, 5]"] ;
289 -> 293 ;
294 [label="X[0] <= 0.5\ngini = 0.465\nsamples = 38\nvalue = [24, 14]"] ;
264 -> 294 ;
295 [label="X[15] <= 1.5\ngini = 0.499\nsamples = 19\nvalue = [9, 10]"] ;
294 -> 295 ;
296 [label="gini = 0.0\nsamples = 2\nvalue = [2, 0]"] ;
295 -> 296 ;
297 [label="X[16] <= 22.5\ngini = 0.484\nsamples = 17\nvalue = [7, 10]"] ;
295 -> 297 ;
298 [label="X[17] <= 20.775\ngini = 0.469\nsamples = 16\nvalue = [6, 10]"] ;
297 -> 298 ;
299 [label="X[17] <= 20.6\ngini = 0.5\nsamples = 10\nvalue = [5, 5]"] ;
298 -> 299 ;
300 [label="X[16] <= 20.525\ngini = 0.469\nsamples = 8\nvalue = [3, 5]"] ;
299 -> 300 ;
301 [label="X[14] <= 0.5\ngini = 0.49\nsamples = 7\nvalue = [3, 4]"] ;
300 -> 301 ;
302 [label="X[16] <= 20.45\ngini = 0.444\nsamples = 3\nvalue = [2, 1]"] ;
301 -> 302 ;
303 [label="gini = 0.0\nsamples = 1\nvalue = [1, 0]"] ;
302 -> 303 ;
304 [label="gini = 0.5\nsamples = 2\nvalue = [1, 1]"] ;
302 -> 304 ;
305 [label="X[16] <= 20.275\ngini = 0.375\nsamples = 4\nvalue = [1, 3]"] ;
301 -> 305 ;
306 [label="gini = 0.5\nsamples = 2\nvalue = [1, 1]"] ;
305 -> 306 ;
307 [label="gini = 0.0\nsamples = 2\nvalue = [0, 2]"] ;
305 -> 307 ;
308 [label="gini = 0.0\nsamples = 1\nvalue = [0, 1]"] ;
300 -> 308 ;
309 [label="gini = 0.0\nsamples = 2\nvalue = [2, 0]"] ;
299 -> 309 ;
310 [label="X[14] <= 0.5\ngini = 0.278\nsamples = 6\nvalue = [1, 5]"] ;
298 -> 310 ;
311 [label="X[16] <= 20.925\ngini = 0.375\nsamples = 4\nvalue = [1, 3]"] ;
310 -> 311 ;
312 [label="gini = 0.444\nsamples = 3\nvalue = [1, 2]"] ;
311 -> 312 ;
313 [label="gini = 0.0\nsamples = 1\nvalue = [0, 1]"] ;
311 -> 313 ;
314 [label="gini = 0.0\nsamples = 2\nvalue = [0, 2]"] ;
310 -> 314 ;
315 [label="gini = 0.0\nsamples = 1\nvalue = [1, 0]"] ;
297 -> 315 ;
316 [label="X[17] <= 22.55\ngini = 0.332\nsamples = 19\nvalue = [15, 4]"] ;
294 -> 316 ;
317 [label="X[17] <= 20.575\ngini = 0.278\nsamples = 18\nvalue = [15, 3]"] ;
316 -> 317 ;
318 [label="X[17] <= 20.475\ngini = 0.355\nsamples = 13\nvalue = [10, 3]"] ;
317 -> 318 ;
319 [label="X[16] <= 20.275\ngini = 0.18\nsamples = 10\nvalue = [9, 1]"] ;
318 -> 319 ;
320 [label="X[14] <= 0.5\ngini = 0.444\nsamples = 3\nvalue = [2, 1]"] ;
319 -> 320 ;
321 [label="gini = 0.5\nsamples = 2\nvalue = [1, 1]"] ;
320 -> 321 ;
322 [label="gini = 0.0\nsamples = 1\nvalue = [1, 0]"] ;
320 -> 322 ;
323 [label="gini = 0.0\nsamples = 7\nvalue = [7, 0]"] ;
319 -> 323 ;
324 [label="X[15] <= 1.5\ngini = 0.444\nsamples = 3\nvalue = [1, 2]"] ;
318 -> 324 ;
325 [label="gini = 0.0\nsamples = 1\nvalue = [1, 0]"] ;
324 -> 325 ;
326 [label="gini = 0.0\nsamples = 2\nvalue = [0, 2]"] ;
324 -> 326 ;
327 [label="gini = 0.0\nsamples = 5\nvalue = [5, 0]"] ;
317 -> 327 ;
328 [label="gini = 0.0\nsamples = 1\nvalue = [0, 1]"] ;
316 -> 328 ;
329 [label="X[17] <= 58.725\ngini = 0.229\nsamples = 53\nvalue = [46, 7]"] ;
219 -> 329 ;
330 [label="X[15] <= 2.5\ngini = 0.061\nsamples = 32\nvalue = [31, 1]"] ;
329 -> 330 ;
331 [label="X[16] <= 19.625\ngini = 0.219\nsamples = 8\nvalue = [7, 1]"] ;
330 -> 331 ;
332 [label="X[16] <= 19.575\ngini = 0.444\nsamples = 3\nvalue = [2, 1]"] ;
331 -> 332 ;
333 [label="gini = 0.0\nsamples = 2\nvalue = [2, 0]"] ;
332 -> 333 ;
334 [label="gini = 0.0\nsamples = 1\nvalue = [0, 1]"] ;
332 -> 334 ;
335 [label="gini = 0.0\nsamples = 5\nvalue = [5, 0]"] ;
331 -> 335 ;
336 [label="gini = 0.0\nsamples = 24\nvalue = [24, 0]"] ;
330 -> 336 ;
337 [label="X[16] <= 19.9\ngini = 0.408\nsamples = 21\nvalue = [15, 6]"] ;
329 -> 337 ;
338 [label="X[16] <= 19.7\ngini = 0.494\nsamples = 9\nvalue = [4, 5]"] ;
337 -> 338 ;
339 [label="X[16] <= 19.625\ngini = 0.375\nsamples = 4\nvalue = [3, 1]"] ;
338 -> 339 ;
340 [label="gini = 0.5\nsamples = 2\nvalue = [1, 1]"] ;
339 -> 340 ;
341 [label="gini = 0.0\nsamples = 2\nvalue = [2, 0]"] ;
339 -> 341 ;
342 [label="X[0] <= 0.5\ngini = 0.32\nsamples = 5\nvalue = [1, 4]"] ;
338 -> 342 ;
343 [label="X[17] <= 59.4\ngini = 0.444\nsamples = 3\nvalue = [1, 2]"] ;
342 -> 343 ;
344 [label="gini = 0.0\nsamples = 1\nvalue = [0, 1]"] ;
343 -> 344 ;
345 [label="gini = 0.5\nsamples = 2\nvalue = [1, 1]"] ;
343 -> 345 ;
346 [label="gini = 0.0\nsamples = 2\nvalue = [0, 2]"] ;
342 -> 346 ;
347 [label="X[15] <= 1.5\ngini = 0.153\nsamples = 12\nvalue = [11, 1]"] ;
337 -> 347 ;
348 [label="X[15] <= 0.5\ngini = 0.444\nsamples = 3\nvalue = [2, 1]"] ;
347 -> 348 ;
349 [label="gini = 0.0\nsamples = 1\nvalue = [1, 0]"] ;
348 -> 349 ;
350 [label="X[17] <= 61.95\ngini = 0.5\nsamples = 2\nvalue = [1, 1]"] ;
348 -> 350 ;
351 [label="gini = 0.0\nsamples = 1\nvalue = [0, 1]"] ;
350 -> 351 ;
352 [label="gini = 0.0\nsamples = 1\nvalue = [1, 0]"] ;
350 -> 352 ;
353 [label="gini = 0.0\nsamples = 9\nvalue = [9, 0]"] ;
347 -> 353 ;
354 [label="X[7] <= 1.5\ngini = 0.333\nsamples = 848\nvalue = [669, 179]"] ;
2 -> 354 ;
355 [label="X[17] <= 312.425\ngini = 0.375\nsamples = 603\nvalue = [452, 151]"] ;
354 -> 355 ;
356 [label="X[16] <= 50.925\ngini = 0.481\nsamples = 112\nvalue = [67, 45]"] ;
355 -> 356 ;
357 [label="X[17] <= 181.8\ngini = 0.498\nsamples = 87\nvalue = [46, 41]"] ;
356 -> 357 ;
358 [label="X[17] <= 108.5\ngini = 0.34\nsamples = 23\nvalue = [18, 5]"] ;
357 -> 358 ;
359 [label="X[16] <= 24.8\ngini = 0.375\nsamples = 4\nvalue = [1, 3]"] ;
358 -> 359 ;
360 [label="gini = 0.0\nsamples = 2\nvalue = [0, 2]"] ;
359 -> 360 ;
361 [label="X[1] <= 0.5\ngini = 0.5\nsamples = 2\nvalue = [1, 1]"] ;
359 -> 361 ;
362 [label="gini = 0.0\nsamples = 1\nvalue = [1, 0]"] ;
361 -> 362 ;
363 [label="gini = 0.0\nsamples = 1\nvalue = [0, 1]"] ;
361 -> 363 ;
364 [label="X[17] <= 147.375\ngini = 0.188\nsamples = 19\nvalue = [17, 2]"] ;
358 -> 364 ;
365 [label="X[17] <= 132.125\ngini = 0.408\nsamples = 7\nvalue = [5, 2]"] ;
364 -> 365 ;
366 [label="X[9] <= 0.5\ngini = 0.278\nsamples = 6\nvalue = [5, 1]"] ;
365 -> 366 ;
367 [label="gini = 0.0\nsamples = 4\nvalue = [4, 0]"] ;
366 -> 367 ;
368 [label="X[17] <= 119.1\ngini = 0.5\nsamples = 2\nvalue = [1, 1]"] ;
366 -> 368 ;
369 [label="gini = 0.0\nsamples = 1\nvalue = [0, 1]"] ;
368 -> 369 ;
370 [label="gini = 0.0\nsamples = 1\nvalue = [1, 0]"] ;
368 -> 370 ;
371 [label="gini = 0.0\nsamples = 1\nvalue = [0, 1]"] ;
365 -> 371 ;
372 [label="gini = 0.0\nsamples = 12\nvalue = [12, 0]"] ;
364 -> 372 ;
373 [label="X[8] <= 0.5\ngini = 0.492\nsamples = 64\nvalue = [28, 36]"] ;
357 -> 373 ;
374 [label="X[4] <= 8.5\ngini = 0.465\nsamples = 49\nvalue = [18, 31]"] ;
373 -> 374 ;
375 [label="X[16] <= 45.575\ngini = 0.483\nsamples = 44\nvalue = [18, 26]"] ;
374 -> 375 ;
376 [label="X[16] <= 42.0\ngini = 0.484\nsamples = 17\nvalue = [10, 7]"] ;
375 -> 376 ;
377 [label="X[16] <= 29.325\ngini = 0.408\nsamples = 7\nvalue = [2, 5]"] ;
376 -> 377 ;
378 [label="X[14] <= 0.5\ngini = 0.444\nsamples = 3\nvalue = [2, 1]"] ;
377 -> 378 ;
379 [label="gini = 0.0\nsamples = 1\nvalue = [0, 1]"] ;
378 -> 379 ;
380 [label="gini = 0.0\nsamples = 2\nvalue = [2, 0]"] ;
378 -> 380 ;
381 [label="gini = 0.0\nsamples = 4\nvalue = [0, 4]"] ;
377 -> 381 ;
382 [label="X[15] <= 0.5\ngini = 0.32\nsamples = 10\nvalue = [8, 2]"] ;
376 -> 382 ;
383 [label="gini = 0.0\nsamples = 1\nvalue = [0, 1]"] ;
382 -> 383 ;
384 [label="X[17] <= 268.35\ngini = 0.198\nsamples = 9\nvalue = [8, 1]"] ;
382 -> 384 ;
385 [label="gini = 0.0\nsamples = 5\nvalue = [5, 0]"] ;
384 -> 385 ;
386 [label="X[17] <= 270.75\ngini = 0.375\nsamples = 4\nvalue = [3, 1]"] ;
384 -> 386 ;
387 [label="gini = 0.0\nsamples = 1\nvalue = [0, 1]"] ;
386 -> 387 ;
388 [label="gini = 0.0\nsamples = 3\nvalue = [3, 0]"] ;
386 -> 388 ;
389 [label="X[0] <= 0.5\ngini = 0.417\nsamples = 27\nvalue = [8, 19]"] ;
375 -> 389 ;
390 [label="X[6] <= 0.5\ngini = 0.245\nsamples = 14\nvalue = [2, 12]"] ;
389 -> 390 ;
391 [label="gini = 0.0\nsamples = 10\nvalue = [0, 10]"] ;
390 -> 391 ;
392 [label="X[15] <= 2.5\ngini = 0.5\nsamples = 4\nvalue = [2, 2]"] ;
390 -> 392 ;
393 [label="gini = 0.0\nsamples = 2\nvalue = [2, 0]"] ;
392 -> 393 ;
394 [label="gini = 0.0\nsamples = 2\nvalue = [0, 2]"] ;
392 -> 394 ;
395 [label="X[6] <= 0.5\ngini = 0.497\nsamples = 13\nvalue = [6, 7]"] ;
389 -> 395 ;
396 [label="X[15] <= 1.5\ngini = 0.48\nsamples = 10\nvalue = [6, 4]"] ;
395 -> 396 ;
397 [label="gini = 0.0\nsamples = 2\nvalue = [2, 0]"] ;
396 -> 397 ;
398 [label="X[15] <= 2.5\ngini = 0.5\nsamples = 8\nvalue = [4, 4]"] ;
396 -> 398 ;
399 [label="X[17] <= 188.9\ngini = 0.375\nsamples = 4\nvalue = [1, 3]"] ;
398 -> 399 ;
400 [label="gini = 0.0\nsamples = 1\nvalue = [1, 0]"] ;
399 -> 400 ;
401 [label="gini = 0.0\nsamples = 3\nvalue = [0, 3]"] ;
399 -> 401 ;
402 [label="X[17] <= 201.7\ngini = 0.375\nsamples = 4\nvalue = [3, 1]"] ;
398 -> 402 ;
403 [label="X[17] <= 198.6\ngini = 0.5\nsamples = 2\nvalue = [1, 1]"] ;
402 -> 403 ;
404 [label="gini = 0.0\nsamples = 1\nvalue = [1, 0]"] ;
403 -> 404 ;
405 [label="gini = 0.0\nsamples = 1\nvalue = [0, 1]"] ;
403 -> 405 ;
406 [label="gini = 0.0\nsamples = 2\nvalue = [2, 0]"] ;
402 -> 406 ;
407 [label="gini = 0.0\nsamples = 3\nvalue = [0, 3]"] ;
395 -> 407 ;
408 [label="gini = 0.0\nsamples = 5\nvalue = [0, 5]"] ;
374 -> 408 ;
409 [label="X[0] <= 0.5\ngini = 0.444\nsamples = 15\nvalue = [10, 5]"] ;
373 -> 409 ;
410 [label="gini = 0.0\nsamples = 7\nvalue = [7, 0]"] ;
409 -> 410 ;
411 [label="X[4] <= 5.5\ngini = 0.469\nsamples = 8\nvalue = [3, 5]"] ;
409 -> 411 ;
412 [label="gini = 0.0\nsamples = 4\nvalue = [0, 4]"] ;
411 -> 412 ;
413 [label="X[10] <= 0.5\ngini = 0.375\nsamples = 4\nvalue = [3, 1]"] ;
411 -> 413 ;
414 [label="gini = 0.0\nsamples = 3\nvalue = [3, 0]"] ;
413 -> 414 ;
415 [label="gini = 0.0\nsamples = 1\nvalue = [0, 1]"] ;
413 -> 415 ;
416 [label="X[17] <= 255.875\ngini = 0.269\nsamples = 25\nvalue = [21, 4]"] ;
356 -> 416 ;
417 [label="X[17] <= 225.8\ngini = 0.408\nsamples = 14\nvalue = [10, 4]"] ;
416 -> 417 ;
418 [label="gini = 0.0\nsamples = 5\nvalue = [5, 0]"] ;
417 -> 418 ;
419 [label="X[14] <= 0.5\ngini = 0.494\nsamples = 9\nvalue = [5, 4]"] ;
417 -> 419 ;
420 [label="gini = 0.0\nsamples = 2\nvalue = [0, 2]"] ;
419 -> 420 ;
421 [label="X[15] <= 2.5\ngini = 0.408\nsamples = 7\nvalue = [5, 2]"] ;
419 -> 421 ;
422 [label="gini = 0.0\nsamples = 2\nvalue = [2, 0]"] ;
421 -> 422 ;
423 [label="X[17] <= 237.8\ngini = 0.48\nsamples = 5\nvalue = [3, 2]"] ;
421 -> 423 ;
424 [label="gini = 0.0\nsamples = 2\nvalue = [2, 0]"] ;
423 -> 424 ;
425 [label="X[17] <= 248.3\ngini = 0.444\nsamples = 3\nvalue = [1, 2]"] ;
423 -> 425 ;
426 [label="gini = 0.0\nsamples = 1\nvalue = [0, 1]"] ;
425 -> 426 ;
427 [label="X[12] <= 0.5\ngini = 0.5\nsamples = 2\nvalue = [1, 1]"] ;
425 -> 427 ;
428 [label="gini = 0.0\nsamples = 1\nvalue = [1, 0]"] ;
427 -> 428 ;
429 [label="gini = 0.0\nsamples = 1\nvalue = [0, 1]"] ;
427 -> 429 ;
430 [label="gini = 0.0\nsamples = 11\nvalue = [11, 0]"] ;
416 -> 430 ;
431 [label="X[16] <= 49.175\ngini = 0.339\nsamples = 491\nvalue = [385, 106]"] ;
355 -> 431 ;
432 [label="X[1] <= 0.5\ngini = 0.408\nsamples = 182\nvalue = [130, 52]"] ;
431 -> 432 ;
433 [label="X[4] <= 13.5\ngini = 0.372\nsamples = 150\nvalue = [113, 37]"] ;
432 -> 433 ;
434 [label="X[14] <= 0.5\ngini = 0.462\nsamples = 47\nvalue = [30, 17]"] ;
433 -> 434 ;
435 [label="X[16] <= 47.275\ngini = 0.34\nsamples = 23\nvalue = [18, 5]"] ;
434 -> 435 ;
436 [label="X[11] <= 0.5\ngini = 0.255\nsamples = 20\nvalue = [17, 3]"] ;
435 -> 436 ;
437 [label="X[16] <= 29.675\ngini = 0.188\nsamples = 19\nvalue = [17, 2]"] ;
436 -> 437 ;
438 [label="X[17] <= 364.675\ngini = 0.5\nsamples = 2\nvalue = [1, 1]"] ;
437 -> 438 ;
439 [label="gini = 0.0\nsamples = 1\nvalue = [0, 1]"] ;
438 -> 439 ;
440 [label="gini = 0.0\nsamples = 1\nvalue = [1, 0]"] ;
438 -> 440 ;
441 [label="X[16] <= 44.875\ngini = 0.111\nsamples = 17\nvalue = [16, 1]"] ;
437 -> 441 ;
442 [label="gini = 0.0\nsamples = 13\nvalue = [13, 0]"] ;
441 -> 442 ;
443 [label="X[16] <= 45.1\ngini = 0.375\nsamples = 4\nvalue = [3, 1]"] ;
441 -> 443 ;
444 [label="gini = 0.0\nsamples = 1\nvalue = [0, 1]"] ;
443 -> 444 ;
445 [label="gini = 0.0\nsamples = 3\nvalue = [3, 0]"] ;
443 -> 445 ;
446 [label="gini = 0.0\nsamples = 1\nvalue = [0, 1]"] ;
436 -> 446 ;
447 [label="X[12] <= 0.5\ngini = 0.444\nsamples = 3\nvalue = [1, 2]"] ;
435 -> 447 ;
448 [label="gini = 0.0\nsamples = 2\nvalue = [0, 2]"] ;
447 -> 448 ;
449 [label="gini = 0.0\nsamples = 1\nvalue = [1, 0]"] ;
447 -> 449 ;
450 [label="X[12] <= 0.5\ngini = 0.5\nsamples = 24\nvalue = [12, 12]"] ;
434 -> 450 ;
451 [label="X[17] <= 402.35\ngini = 0.48\nsamples = 20\nvalue = [12, 8]"] ;
450 -> 451 ;
452 [label="X[16] <= 43.975\ngini = 0.32\nsamples = 10\nvalue = [8, 2]"] ;
451 -> 452 ;
453 [label="gini = 0.0\nsamples = 5\nvalue = [5, 0]"] ;
452 -> 453 ;
454 [label="X[16] <= 44.3\ngini = 0.48\nsamples = 5\nvalue = [3, 2]"] ;
452 -> 454 ;
455 [label="gini = 0.0\nsamples = 1\nvalue = [0, 1]"] ;
454 -> 455 ;
456 [label="X[15] <= 2.5\ngini = 0.375\nsamples = 4\nvalue = [3, 1]"] ;
454 -> 456 ;
457 [label="gini = 0.0\nsamples = 2\nvalue = [2, 0]"] ;
456 -> 457 ;
458 [label="X[16] <= 44.775\ngini = 0.5\nsamples = 2\nvalue = [1, 1]"] ;
456 -> 458 ;
459 [label="gini = 0.0\nsamples = 1\nvalue = [1, 0]"] ;
458 -> 459 ;
460 [label="gini = 0.0\nsamples = 1\nvalue = [0, 1]"] ;
458 -> 460 ;
461 [label="X[16] <= 45.675\ngini = 0.48\nsamples = 10\nvalue = [4, 6]"] ;
451 -> 461 ;
462 [label="X[15] <= 2.5\ngini = 0.375\nsamples = 8\nvalue = [2, 6]"] ;
461 -> 462 ;
463 [label="X[15] <= 0.5\ngini = 0.245\nsamples = 7\nvalue = [1, 6]"] ;
462 -> 463 ;
464 [label="X[16] <= 45.2\ngini = 0.5\nsamples = 2\nvalue = [1, 1]"] ;
463 -> 464 ;
465 [label="gini = 0.0\nsamples = 1\nvalue = [1, 0]"] ;
464 -> 465 ;
466 [label="gini = 0.0\nsamples = 1\nvalue = [0, 1]"] ;
464 -> 466 ;
467 [label="gini = 0.0\nsamples = 5\nvalue = [0, 5]"] ;
463 -> 467 ;
468 [label="gini = 0.0\nsamples = 1\nvalue = [1, 0]"] ;
462 -> 468 ;
469 [label="gini = 0.0\nsamples = 2\nvalue = [2, 0]"] ;
461 -> 469 ;
470 [label="gini = 0.0\nsamples = 4\nvalue = [0, 4]"] ;
450 -> 470 ;
471 [label="X[15] <= 2.5\ngini = 0.313\nsamples = 103\nvalue = [83, 20]"] ;
433 -> 471 ;
472 [label="X[16] <= 49.025\ngini = 0.36\nsamples = 85\nvalue = [65, 20]"] ;
471 -> 472 ;
473 [label="X[16] <= 39.675\ngini = 0.343\nsamples = 82\nvalue = [64, 18]"] ;
472 -> 473 ;
474 [label="X[11] <= 0.5\ngini = 0.422\nsamples = 43\nvalue = [30, 13]"] ;
473 -> 474 ;
475 [label="X[0] <= 0.5\ngini = 0.375\nsamples = 36\nvalue = [27, 9]"] ;
474 -> 475 ;
476 [label="X[16] <= 35.025\ngini = 0.48\nsamples = 15\nvalue = [9, 6]"] ;
475 -> 476 ;
477 [label="X[17] <= 1294.95\ngini = 0.496\nsamples = 11\nvalue = [5, 6]"] ;
476 -> 477 ;
478 [label="X[16] <= 24.3\ngini = 0.444\nsamples = 9\nvalue = [3, 6]"] ;
477 -> 478 ;
479 [label="gini = 0.0\nsamples = 1\nvalue = [1, 0]"] ;
478 -> 479 ;
480 [label="X[4] <= 33.0\ngini = 0.375\nsamples = 8\nvalue = [2, 6]"] ;
478 -> 480 ;
481 [label="X[14] <= 0.5\ngini = 0.444\nsamples = 6\nvalue = [2, 4]"] ;
480 -> 481 ;
482 [label="gini = 0.0\nsamples = 1\nvalue = [1, 0]"] ;
481 -> 482 ;
483 [label="X[17] <= 896.1\ngini = 0.32\nsamples = 5\nvalue = [1, 4]"] ;
481 -> 483 ;
484 [label="gini = 0.0\nsamples = 4\nvalue = [0, 4]"] ;
483 -> 484 ;
485 [label="gini = 0.0\nsamples = 1\nvalue = [1, 0]"] ;
483 -> 485 ;
486 [label="gini = 0.0\nsamples = 2\nvalue = [0, 2]"] ;
480 -> 486 ;
487 [label="gini = 0.0\nsamples = 2\nvalue = [2, 0]"] ;
477 -> 487 ;
488 [label="gini = 0.0\nsamples = 4\nvalue = [4, 0]"] ;
476 -> 488 ;
489 [label="X[16] <= 30.25\ngini = 0.245\nsamples = 21\nvalue = [18, 3]"] ;
475 -> 489 ;
490 [label="gini = 0.0\nsamples = 14\nvalue = [14, 0]"] ;
489 -> 490 ;
491 [label="X[15] <= 1.5\ngini = 0.49\nsamples = 7\nvalue = [4, 3]"] ;
489 -> 491 ;
492 [label="gini = 0.0\nsamples = 3\nvalue = [0, 3]"] ;
491 -> 492 ;
493 [label="gini = 0.0\nsamples = 4\nvalue = [4, 0]"] ;
491 -> 493 ;
494 [label="X[8] <= 0.5\ngini = 0.49\nsamples = 7\nvalue = [3, 4]"] ;
474 -> 494 ;
495 [label="X[14] <= 0.5\ngini = 0.32\nsamples = 5\nvalue = [1, 4]"] ;
494 -> 495 ;
496 [label="gini = 0.0\nsamples = 1\nvalue = [1, 0]"] ;
495 -> 496 ;
497 [label="gini = 0.0\nsamples = 4\nvalue = [0, 4]"] ;
495 -> 497 ;
498 [label="gini = 0.0\nsamples = 2\nvalue = [2, 0]"] ;
494 -> 498 ;
499 [label="X[8] <= 0.5\ngini = 0.224\nsamples = 39\nvalue = [34, 5]"] ;
473 -> 499 ;
500 [label="X[17] <= 2304.175\ngini = 0.074\nsamples = 26\nvalue = [25, 1]"] ;
499 -> 500 ;
501 [label="gini = 0.0\nsamples = 22\nvalue = [22, 0]"] ;
500 -> 501 ;
502 [label="X[17] <= 2517.825\ngini = 0.375\nsamples = 4\nvalue = [3, 1]"] ;
500 -> 502 ;
503 [label="gini = 0.0\nsamples = 1\nvalue = [0, 1]"] ;
502 -> 503 ;
504 [label="gini = 0.0\nsamples = 3\nvalue = [3, 0]"] ;
502 -> 504 ;
505 [label="X[16] <= 47.55\ngini = 0.426\nsamples = 13\nvalue = [9, 4]"] ;
499 -> 505 ;
506 [label="X[9] <= 0.5\ngini = 0.298\nsamples = 11\nvalue = [9, 2]"] ;
505 -> 506 ;
507 [label="gini = 0.0\nsamples = 8\nvalue = [8, 0]"] ;
506 -> 507 ;
508 [label="X[15] <= 1.0\ngini = 0.444\nsamples = 3\nvalue = [1, 2]"] ;
506 -> 508 ;
509 [label="gini = 0.0\nsamples = 2\nvalue = [0, 2]"] ;
508 -> 509 ;
510 [label="gini = 0.0\nsamples = 1\nvalue = [1, 0]"] ;
508 -> 510 ;
511 [label="gini = 0.0\nsamples = 2\nvalue = [0, 2]"] ;
505 -> 511 ;
512 [label="X[14] <= 0.5\ngini = 0.444\nsamples = 3\nvalue = [1, 2]"] ;
472 -> 512 ;
513 [label="gini = 0.0\nsamples = 1\nvalue = [1, 0]"] ;
512 -> 513 ;
514 [label="gini = 0.0\nsamples = 2\nvalue = [0, 2]"] ;
512 -> 514 ;
515 [label="gini = 0.0\nsamples = 18\nvalue = [18, 0]"] ;
471 -> 515 ;
516 [label="X[12] <= 0.5\ngini = 0.498\nsamples = 32\nvalue = [17, 15]"] ;
432 -> 516 ;
517 [label="X[11] <= 0.5\ngini = 0.444\nsamples = 21\nvalue = [14, 7]"] ;
516 -> 517 ;
518 [label="X[17] <= 708.775\ngini = 0.337\nsamples = 14\nvalue = [11, 3]"] ;
517 -> 518 ;
519 [label="gini = 0.0\nsamples = 5\nvalue = [5, 0]"] ;
518 -> 519 ;
520 [label="X[17] <= 1341.35\ngini = 0.444\nsamples = 9\nvalue = [6, 3]"] ;
518 -> 520 ;
521 [label="X[16] <= 27.6\ngini = 0.48\nsamples = 5\nvalue = [2, 3]"] ;
520 -> 521 ;
522 [label="gini = 0.0\nsamples = 1\nvalue = [1, 0]"] ;
521 -> 522 ;
523 [label="X[10] <= 0.5\ngini = 0.375\nsamples = 4\nvalue = [1, 3]"] ;
521 -> 523 ;
524 [label="gini = 0.0\nsamples = 3\nvalue = [0, 3]"] ;
523 -> 524 ;
525 [label="gini = 0.0\nsamples = 1\nvalue = [1, 0]"] ;
523 -> 525 ;
526 [label="gini = 0.0\nsamples = 4\nvalue = [4, 0]"] ;
520 -> 526 ;
527 [label="X[17] <= 2019.375\ngini = 0.49\nsamples = 7\nvalue = [3, 4]"] ;
517 -> 527 ;
528 [label="X[16] <= 37.45\ngini = 0.32\nsamples = 5\nvalue = [1, 4]"] ;
527 -> 528 ;
529 [label="gini = 0.0\nsamples = 1\nvalue = [1, 0]"] ;
528 -> 529 ;
530 [label="gini = 0.0\nsamples = 4\nvalue = [0, 4]"] ;
528 -> 530 ;
531 [label="gini = 0.0\nsamples = 2\nvalue = [2, 0]"] ;
527 -> 531 ;
532 [label="X[17] <= 839.025\ngini = 0.397\nsamples = 11\nvalue = [3, 8]"] ;
516 -> 532 ;
533 [label="X[17] <= 556.35\ngini = 0.48\nsamples = 5\nvalue = [3, 2]"] ;
532 -> 533 ;
534 [label="X[4] <= 9.0\ngini = 0.444\nsamples = 3\nvalue = [1, 2]"] ;
533 -> 534 ;
535 [label="gini = 0.0\nsamples = 1\nvalue = [1, 0]"] ;
534 -> 535 ;
536 [label="gini = 0.0\nsamples = 2\nvalue = [0, 2]"] ;
534 -> 536 ;
537 [label="gini = 0.0\nsamples = 2\nvalue = [2, 0]"] ;
533 -> 537 ;
538 [label="gini = 0.0\nsamples = 6\nvalue = [0, 6]"] ;
532 -> 538 ;
539 [label="X[15] <= 0.5\ngini = 0.288\nsamples = 309\nvalue = [255, 54]"] ;
431 -> 539 ;
540 [label="X[4] <= 11.5\ngini = 0.136\nsamples = 68\nvalue = [63, 5]"] ;
539 -> 540 ;
541 [label="gini = 0.0\nsamples = 18\nvalue = [18, 0]"] ;
540 -> 541 ;
542 [label="X[17] <= 607.2\ngini = 0.18\nsamples = 50\nvalue = [45, 5]"] ;
540 -> 542 ;
543 [label="gini = 0.0\nsamples = 1\nvalue = [0, 1]"] ;
542 -> 543 ;
544 [label="X[17] <= 1349.775\ngini = 0.15\nsamples = 49\nvalue = [45, 4]"] ;
542 -> 544 ;
545 [label="X[6] <= 0.5\ngini = 0.305\nsamples = 16\nvalue = [13, 3]"] ;
544 -> 545 ;
546 [label="gini = 0.0\nsamples = 9\nvalue = [9, 0]"] ;
545 -> 546 ;
547 [label="X[10] <= 0.5\ngini = 0.49\nsamples = 7\nvalue = [4, 3]"] ;
545 -> 547 ;
548 [label="X[4] <= 15.5\ngini = 0.48\nsamples = 5\nvalue = [2, 3]"] ;
547 -> 548 ;
549 [label="gini = 0.0\nsamples = 2\nvalue = [0, 2]"] ;
548 -> 549 ;
550 [label="X[12] <= 0.5\ngini = 0.444\nsamples = 3\nvalue = [2, 1]"] ;
548 -> 550 ;
551 [label="gini = 0.0\nsamples = 1\nvalue = [0, 1]"] ;
550 -> 551 ;
552 [label="gini = 0.0\nsamples = 2\nvalue = [2, 0]"] ;
550 -> 552 ;
553 [label="gini = 0.0\nsamples = 2\nvalue = [2, 0]"] ;
547 -> 553 ;
554 [label="X[4] <= 53.5\ngini = 0.059\nsamples = 33\nvalue = [32, 1]"] ;
544 -> 554 ;
555 [label="gini = 0.0\nsamples = 28\nvalue = [28, 0]"] ;
554 -> 555 ;
556 [label="X[16] <= 56.65\ngini = 0.32\nsamples = 5\nvalue = [4, 1]"] ;
554 -> 556 ;
557 [label="gini = 0.0\nsamples = 1\nvalue = [0, 1]"] ;
556 -> 557 ;
558 [label="gini = 0.0\nsamples = 4\nvalue = [4, 0]"] ;
556 -> 558 ;
559 [label="X[11] <= 0.5\ngini = 0.324\nsamples = 241\nvalue = [192, 49]"] ;
539 -> 559 ;
560 [label="X[7] <= 0.5\ngini = 0.284\nsamples = 175\nvalue = [145, 30]"] ;
559 -> 560 ;
561 [label="X[4] <= 22.5\ngini = 0.278\nsamples = 174\nvalue = [145, 29]"] ;
560 -> 561 ;
562 [label="X[17] <= 728.925\ngini = 0.332\nsamples = 100\nvalue = [79, 21]"] ;
561 -> 562 ;
563 [label="X[17] <= 409.4\ngini = 0.19\nsamples = 47\nvalue = [42, 5]"] ;
562 -> 563 ;
564 [label="X[17] <= 397.0\ngini = 0.42\nsamples = 10\nvalue = [7, 3]"] ;
563 -> 564 ;
565 [label="X[15] <= 1.5\ngini = 0.219\nsamples = 8\nvalue = [7, 1]"] ;
564 -> 565 ;
566 [label="gini = 0.0\nsamples = 1\nvalue = [0, 1]"] ;
565 -> 566 ;
567 [label="gini = 0.0\nsamples = 7\nvalue = [7, 0]"] ;
565 -> 567 ;
568 [label="gini = 0.0\nsamples = 2\nvalue = [0, 2]"] ;
564 -> 568 ;
569 [label="X[10] <= 0.5\ngini = 0.102\nsamples = 37\nvalue = [35, 2]"] ;
563 -> 569 ;
570 [label="gini = 0.0\nsamples = 24\nvalue = [24, 0]"] ;
569 -> 570 ;
571 [label="X[16] <= 55.075\ngini = 0.26\nsamples = 13\nvalue = [11, 2]"] ;
569 -> 571 ;
572 [label="gini = 0.0\nsamples = 7\nvalue = [7, 0]"] ;
571 -> 572 ;
573 [label="X[12] <= 0.5\ngini = 0.444\nsamples = 6\nvalue = [4, 2]"] ;
571 -> 573 ;
574 [label="gini = 0.0\nsamples = 2\nvalue = [0, 2]"] ;
573 -> 574 ;
575 [label="gini = 0.0\nsamples = 4\nvalue = [4, 0]"] ;
573 -> 575 ;
576 [label="X[17] <= 894.6\ngini = 0.422\nsamples = 53\nvalue = [37, 16]"] ;
562 -> 576 ;
577 [label="X[17] <= 887.0\ngini = 0.498\nsamples = 17\nvalue = [8, 9]"] ;
576 -> 577 ;
578 [label="X[17] <= 753.15\ngini = 0.49\nsamples = 14\nvalue = [8, 6]"] ;
577 -> 578 ;
579 [label="gini = 0.0\nsamples = 2\nvalue = [0, 2]"] ;
578 -> 579 ;
580 [label="X[8] <= 0.5\ngini = 0.444\nsamples = 12\nvalue = [8, 4]"] ;
578 -> 580 ;
581 [label="X[16] <= 51.3\ngini = 0.49\nsamples = 7\nvalue = [3, 4]"] ;
580 -> 581 ;
582 [label="gini = 0.0\nsamples = 2\nvalue = [2, 0]"] ;
581 -> 582 ;
583 [label="X[17] <= 881.9\ngini = 0.32\nsamples = 5\nvalue = [1, 4]"] ;
581 -> 583 ;
584 [label="gini = 0.0\nsamples = 4\nvalue = [0, 4]"] ;
583 -> 584 ;
585 [label="gini = 0.0\nsamples = 1\nvalue = [1, 0]"] ;
583 -> 585 ;
586 [label="gini = 0.0\nsamples = 5\nvalue = [5, 0]"] ;
580 -> 586 ;
587 [label="gini = 0.0\nsamples = 3\nvalue = [0, 3]"] ;
577 -> 587 ;
588 [label="X[4] <= 21.5\ngini = 0.313\nsamples = 36\nvalue = [29, 7]"] ;
576 -> 588 ;
589 [label="X[4] <= 16.5\ngini = 0.153\nsamples = 24\nvalue = [22, 2]"] ;
588 -> 589 ;
590 [label="gini = 0.0\nsamples = 1\nvalue = [0, 1]"] ;
589 -> 590 ;
591 [label="X[12] <= 0.5\ngini = 0.083\nsamples = 23\nvalue = [22, 1]"] ;
589 -> 591 ;
592 [label="gini = 0.0\nsamples = 18\nvalue = [18, 0]"] ;
591 -> 592 ;
593 [label="X[4] <= 18.5\ngini = 0.32\nsamples = 5\nvalue = [4, 1]"] ;
591 -> 593 ;
594 [label="gini = 0.0\nsamples = 1\nvalue = [0, 1]"] ;
593 -> 594 ;
595 [label="gini = 0.0\nsamples = 4\nvalue = [4, 0]"] ;
593 -> 595 ;
596 [label="X[15] <= 2.5\ngini = 0.486\nsamples = 12\nvalue = [7, 5]"] ;
588 -> 596 ;
597 [label="X[16] <= 52.65\ngini = 0.32\nsamples = 5\nvalue = [1, 4]"] ;
596 -> 597 ;
598 [label="gini = 0.0\nsamples = 1\nvalue = [1, 0]"] ;
597 -> 598 ;
599 [label="gini = 0.0\nsamples = 4\nvalue = [0, 4]"] ;
597 -> 599 ;
600 [label="X[9] <= 0.5\ngini = 0.245\nsamples = 7\nvalue = [6, 1]"] ;
596 -> 600 ;
601 [label="gini = 0.0\nsamples = 4\nvalue = [4, 0]"] ;
600 -> 601 ;
602 [label="X[0] <= 0.5\ngini = 0.444\nsamples = 3\nvalue = [2, 1]"] ;
600 -> 602 ;
603 [label="X[8] <= 0.5\ngini = 0.5\nsamples = 2\nvalue = [1, 1]"] ;
602 -> 603 ;
604 [label="gini = 0.0\nsamples = 1\nvalue = [1, 0]"] ;
603 -> 604 ;
605 [label="gini = 0.0\nsamples = 1\nvalue = [0, 1]"] ;
603 -> 605 ;
606 [label="gini = 0.0\nsamples = 1\nvalue = [1, 0]"] ;
602 -> 606 ;
607 [label="X[17] <= 2098.25\ngini = 0.193\nsamples = 74\nvalue = [66, 8]"] ;
561 -> 607 ;
608 [label="X[4] <= 26.5\ngini = 0.085\nsamples = 45\nvalue = [43, 2]"] ;
607 -> 608 ;
609 [label="X[6] <= 0.5\ngini = 0.219\nsamples = 16\nvalue = [14, 2]"] ;
608 -> 609 ;
610 [label="gini = 0.0\nsamples = 11\nvalue = [11, 0]"] ;
609 -> 610 ;
611 [label="X[9] <= 0.5\ngini = 0.48\nsamples = 5\nvalue = [3, 2]"] ;
609 -> 611 ;
612 [label="X[16] <= 54.425\ngini = 0.444\nsamples = 3\nvalue = [1, 2]"] ;
611 -> 612 ;
613 [label="gini = 0.0\nsamples = 1\nvalue = [1, 0]"] ;
612 -> 613 ;
614 [label="gini = 0.0\nsamples = 2\nvalue = [0, 2]"] ;
612 -> 614 ;
615 [label="gini = 0.0\nsamples = 2\nvalue = [2, 0]"] ;
611 -> 615 ;
616 [label="gini = 0.0\nsamples = 29\nvalue = [29, 0]"] ;
608 -> 616 ;
617 [label="X[17] <= 2132.55\ngini = 0.328\nsamples = 29\nvalue = [23, 6]"] ;
607 -> 617 ;
618 [label="gini = 0.0\nsamples = 2\nvalue = [0, 2]"] ;
617 -> 618 ;
619 [label="X[14] <= 0.5\ngini = 0.252\nsamples = 27\nvalue = [23, 4]"] ;
617 -> 619 ;
620 [label="gini = 0.0\nsamples = 14\nvalue = [14, 0]"] ;
619 -> 620 ;
621 [label="X[4] <= 41.0\ngini = 0.426\nsamples = 13\nvalue = [9, 4]"] ;
619 -> 621 ;
622 [label="gini = 0.0\nsamples = 2\nvalue = [0, 2]"] ;
621 -> 622 ;
623 [label="X[17] <= 2858.275\ngini = 0.298\nsamples = 11\nvalue = [9, 2]"] ;
621 -> 623 ;
624 [label="gini = 0.0\nsamples = 7\nvalue = [7, 0]"] ;
623 -> 624 ;
625 [label="X[17] <= 3030.7\ngini = 0.5\nsamples = 4\nvalue = [2, 2]"] ;
623 -> 625 ;
626 [label="gini = 0.0\nsamples = 2\nvalue = [0, 2]"] ;
625 -> 626 ;
627 [label="gini = 0.0\nsamples = 2\nvalue = [2, 0]"] ;
625 -> 627 ;
628 [label="gini = 0.0\nsamples = 1\nvalue = [0, 1]"] ;
560 -> 628 ;
629 [label="X[4] <= 8.5\ngini = 0.41\nsamples = 66\nvalue = [47, 19]"] ;
559 -> 629 ;
630 [label="gini = 0.0\nsamples = 13\nvalue = [13, 0]"] ;
629 -> 630 ;
631 [label="X[14] <= 0.5\ngini = 0.46\nsamples = 53\nvalue = [34, 19]"] ;
629 -> 631 ;
632 [label="X[16] <= 52.8\ngini = 0.444\nsamples = 12\nvalue = [4, 8]"] ;
631 -> 632 ;
633 [label="gini = 0.0\nsamples = 3\nvalue = [3, 0]"] ;
632 -> 633 ;
634 [label="X[6] <= 0.5\ngini = 0.198\nsamples = 9\nvalue = [1, 8]"] ;
632 -> 634 ;
635 [label="gini = 0.0\nsamples = 8\nvalue = [0, 8]"] ;
634 -> 635 ;
636 [label="gini = 0.0\nsamples = 1\nvalue = [1, 0]"] ;
634 -> 636 ;
637 [label="X[12] <= 0.5\ngini = 0.393\nsamples = 41\nvalue = [30, 11]"] ;
631 -> 637 ;
638 [label="X[16] <= 65.35\ngini = 0.117\nsamples = 16\nvalue = [15, 1]"] ;
637 -> 638 ;
639 [label="gini = 0.0\nsamples = 12\nvalue = [12, 0]"] ;
638 -> 639 ;
640 [label="X[16] <= 65.925\ngini = 0.375\nsamples = 4\nvalue = [3, 1]"] ;
638 -> 640 ;
641 [label="gini = 0.0\nsamples = 1\nvalue = [0, 1]"] ;
640 -> 641 ;
642 [label="gini = 0.0\nsamples = 3\nvalue = [3, 0]"] ;
640 -> 642 ;
643 [label="X[16] <= 54.05\ngini = 0.48\nsamples = 25\nvalue = [15, 10]"] ;
637 -> 643 ;
644 [label="X[17] <= 956.2\ngini = 0.337\nsamples = 14\nvalue = [11, 3]"] ;
643 -> 644 ;
645 [label="gini = 0.0\nsamples = 1\nvalue = [0, 1]"] ;
644 -> 645 ;
646 [label="X[16] <= 50.7\ngini = 0.26\nsamples = 13\nvalue = [11, 2]"] ;
644 -> 646 ;
647 [label="gini = 0.0\nsamples = 6\nvalue = [6, 0]"] ;
646 -> 647 ;
648 [label="X[16] <= 50.825\ngini = 0.408\nsamples = 7\nvalue = [5, 2]"] ;
646 -> 648 ;
649 [label="gini = 0.0\nsamples = 2\nvalue = [0, 2]"] ;
648 -> 649 ;
650 [label="gini = 0.0\nsamples = 5\nvalue = [5, 0]"] ;
648 -> 650 ;
651 [label="X[9] <= 0.5\ngini = 0.463\nsamples = 11\nvalue = [4, 7]"] ;
643 -> 651 ;
652 [label="gini = 0.0\nsamples = 4\nvalue = [0, 4]"] ;
651 -> 652 ;
653 [label="X[16] <= 54.525\ngini = 0.49\nsamples = 7\nvalue = [4, 3]"] ;
651 -> 653 ;
654 [label="gini = 0.0\nsamples = 2\nvalue = [0, 2]"] ;
653 -> 654 ;
655 [label="X[8] <= 0.5\ngini = 0.32\nsamples = 5\nvalue = [4, 1]"] ;
653 -> 655 ;
656 [label="gini = 0.0\nsamples = 4\nvalue = [4, 0]"] ;
655 -> 656 ;
657 [label="gini = 0.0\nsamples = 1\nvalue = [0, 1]"] ;
655 -> 657 ;
658 [label="X[4] <= 54.0\ngini = 0.202\nsamples = 245\nvalue = [217, 28]"] ;
354 -> 658 ;
659 [label="X[4] <= 17.5\ngini = 0.197\nsamples = 244\nvalue = [217, 27]"] ;
658 -> 659 ;
660 [label="X[17] <= 379.875\ngini = 0.245\nsamples = 168\nvalue = [144, 24]"] ;
659 -> 660 ;
661 [label="X[15] <= 0.5\ngini = 0.231\nsamples = 165\nvalue = [143, 22]"] ;
660 -> 661 ;
662 [label="X[17] <= 264.825\ngini = 0.423\nsamples = 23\nvalue = [16, 7]"] ;
661 -> 662 ;
663 [label="X[17] <= 140.875\ngini = 0.363\nsamples = 21\nvalue = [16, 5]"] ;
662 -> 663 ;
664 [label="X[16] <= 20.8\ngini = 0.494\nsamples = 9\nvalue = [5, 4]"] ;
663 -> 664 ;
665 [label="X[16] <= 20.025\ngini = 0.408\nsamples = 7\nvalue = [5, 2]"] ;
664 -> 665 ;
666 [label="X[1] <= 0.5\ngini = 0.444\nsamples = 3\nvalue = [1, 2]"] ;
665 -> 666 ;
667 [label="gini = 0.0\nsamples = 2\nvalue = [0, 2]"] ;
666 -> 667 ;
668 [label="gini = 0.0\nsamples = 1\nvalue = [1, 0]"] ;
666 -> 668 ;
669 [label="gini = 0.0\nsamples = 4\nvalue = [4, 0]"] ;
665 -> 669 ;
670 [label="gini = 0.0\nsamples = 2\nvalue = [0, 2]"] ;
664 -> 670 ;
671 [label="X[16] <= 20.05\ngini = 0.153\nsamples = 12\nvalue = [11, 1]"] ;
663 -> 671 ;
672 [label="gini = 0.0\nsamples = 7\nvalue = [7, 0]"] ;
671 -> 672 ;
673 [label="X[17] <= 168.275\ngini = 0.32\nsamples = 5\nvalue = [4, 1]"] ;
671 -> 673 ;
674 [label="X[16] <= 20.2\ngini = 0.5\nsamples = 2\nvalue = [1, 1]"] ;
673 -> 674 ;
675 [label="gini = 0.0\nsamples = 1\nvalue = [0, 1]"] ;
674 -> 675 ;
676 [label="gini = 0.0\nsamples = 1\nvalue = [1, 0]"] ;
674 -> 676 ;
677 [label="gini = 0.0\nsamples = 3\nvalue = [3, 0]"] ;
673 -> 677 ;
678 [label="gini = 0.0\nsamples = 2\nvalue = [0, 2]"] ;
662 -> 678 ;
679 [label="X[1] <= 0.5\ngini = 0.189\nsamples = 142\nvalue = [127, 15]"] ;
661 -> 679 ;
680 [label="X[16] <= 19.375\ngini = 0.171\nsamples = 138\nvalue = [125, 13]"] ;
679 -> 680 ;
681 [label="X[4] <= 4.5\ngini = 0.401\nsamples = 18\nvalue = [13, 5]"] ;
680 -> 681 ;
682 [label="gini = 0.0\nsamples = 3\nvalue = [3, 0]"] ;
681 -> 682 ;
683 [label="X[4] <= 5.5\ngini = 0.444\nsamples = 15\nvalue = [10, 5]"] ;
681 -> 683 ;
684 [label="gini = 0.0\nsamples = 1\nvalue = [0, 1]"] ;
683 -> 684 ;
685 [label="X[16] <= 19.275\ngini = 0.408\nsamples = 14\nvalue = [10, 4]"] ;
683 -> 685 ;
686 [label="X[16] <= 19.225\ngini = 0.48\nsamples = 10\nvalue = [6, 4]"] ;
685 -> 686 ;
687 [label="X[4] <= 8.5\ngini = 0.375\nsamples = 8\nvalue = [6, 2]"] ;
686 -> 687 ;
688 [label="gini = 0.0\nsamples = 3\nvalue = [3, 0]"] ;
687 -> 688 ;
689 [label="X[16] <= 19.025\ngini = 0.48\nsamples = 5\nvalue = [3, 2]"] ;
687 -> 689 ;
690 [label="X[16] <= 18.9\ngini = 0.444\nsamples = 3\nvalue = [1, 2]"] ;
689 -> 690 ;
691 [label="gini = 0.0\nsamples = 1\nvalue = [1, 0]"] ;
690 -> 691 ;
692 [label="gini = 0.0\nsamples = 2\nvalue = [0, 2]"] ;
690 -> 692 ;
693 [label="gini = 0.0\nsamples = 2\nvalue = [2, 0]"] ;
689 -> 693 ;
694 [label="gini = 0.0\nsamples = 2\nvalue = [0, 2]"] ;
686 -> 694 ;
695 [label="gini = 0.0\nsamples = 4\nvalue = [4, 0]"] ;
685 -> 695 ;
696 [label="X[4] <= 5.5\ngini = 0.124\nsamples = 120\nvalue = [112, 8]"] ;
680 -> 696 ;
697 [label="X[17] <= 104.0\ngini = 0.219\nsamples = 32\nvalue = [28, 4]"] ;
696 -> 697 ;
698 [label="X[0] <= 0.5\ngini = 0.175\nsamples = 31\nvalue = [28, 3]"] ;
697 -> 698 ;
699 [label="X[17] <= 81.0\ngini = 0.305\nsamples = 16\nvalue = [13, 3]"] ;
698 -> 699 ;
700 [label="gini = 0.0\nsamples = 6\nvalue = [6, 0]"] ;
699 -> 700 ;
701 [label="X[17] <= 81.6\ngini = 0.42\nsamples = 10\nvalue = [7, 3]"] ;
699 -> 701 ;
702 [label="gini = 0.0\nsamples = 2\nvalue = [0, 2]"] ;
701 -> 702 ;
703 [label="X[16] <= 19.9\ngini = 0.219\nsamples = 8\nvalue = [7, 1]"] ;
701 -> 703 ;
704 [label="gini = 0.0\nsamples = 1\nvalue = [0, 1]"] ;
703 -> 704 ;
705 [label="gini = 0.0\nsamples = 7\nvalue = [7, 0]"] ;
703 -> 705 ;
706 [label="gini = 0.0\nsamples = 15\nvalue = [15, 0]"] ;
698 -> 706 ;
707 [label="gini = 0.0\nsamples = 1\nvalue = [0, 1]"] ;
697 -> 707 ;
708 [label="X[17] <= 254.225\ngini = 0.087\nsamples = 88\nvalue = [84, 4]"] ;
696 -> 708 ;
709 [label="X[16] <= 20.275\ngini = 0.033\nsamples = 60\nvalue = [59, 1]"] ;
708 -> 709 ;
710 [label="X[16] <= 20.225\ngini = 0.062\nsamples = 31\nvalue = [30, 1]"] ;
709 -> 710 ;
711 [label="gini = 0.0\nsamples = 27\nvalue = [27, 0]"] ;
710 -> 711 ;
712 [label="X[4] <= 8.5\ngini = 0.375\nsamples = 4\nvalue = [3, 1]"] ;
710 -> 712 ;
713 [label="gini = 0.0\nsamples = 1\nvalue = [1, 0]"] ;
712 -> 713 ;
714 [label="X[0] <= 0.5\ngini = 0.444\nsamples = 3\nvalue = [2, 1]"] ;
712 -> 714 ;
715 [label="gini = 0.0\nsamples = 1\nvalue = [1, 0]"] ;
714 -> 715 ;
716 [label="X[17] <= 202.5\ngini = 0.5\nsamples = 2\nvalue = [1, 1]"] ;
714 -> 716 ;
717 [label="gini = 0.0\nsamples = 1\nvalue = [0, 1]"] ;
716 -> 717 ;
718 [label="gini = 0.0\nsamples = 1\nvalue = [1, 0]"] ;
716 -> 718 ;
719 [label="gini = 0.0\nsamples = 29\nvalue = [29, 0]"] ;
709 -> 719 ;
720 [label="X[17] <= 256.35\ngini = 0.191\nsamples = 28\nvalue = [25, 3]"] ;
708 -> 720 ;
721 [label="gini = 0.0\nsamples = 1\nvalue = [0, 1]"] ;
720 -> 721 ;
722 [label="X[14] <= 0.5\ngini = 0.137\nsamples = 27\nvalue = [25, 2]"] ;
720 -> 722 ;
723 [label="gini = 0.0\nsamples = 16\nvalue = [16, 0]"] ;
722 -> 723 ;
724 [label="X[16] <= 19.75\ngini = 0.298\nsamples = 11\nvalue = [9, 2]"] ;
722 -> 724 ;
725 [label="gini = 0.0\nsamples = 1\nvalue = [0, 1]"] ;
724 -> 725 ;
726 [label="X[16] <= 20.025\ngini = 0.18\nsamples = 10\nvalue = [9, 1]"] ;
724 -> 726 ;
727 [label="X[15] <= 2.5\ngini = 0.444\nsamples = 3\nvalue = [2, 1]"] ;
726 -> 727 ;
728 [label="gini = 0.0\nsamples = 1\nvalue = [0, 1]"] ;
727 -> 728 ;
729 [label="gini = 0.0\nsamples = 2\nvalue = [2, 0]"] ;
727 -> 729 ;
730 [label="gini = 0.0\nsamples = 7\nvalue = [7, 0]"] ;
726 -> 730 ;
731 [label="X[16] <= 20.0\ngini = 0.5\nsamples = 4\nvalue = [2, 2]"] ;
679 -> 731 ;
732 [label="gini = 0.0\nsamples = 2\nvalue = [0, 2]"] ;
731 -> 732 ;
733 [label="gini = 0.0\nsamples = 2\nvalue = [2, 0]"] ;
731 -> 733 ;
734 [label="X[17] <= 415.65\ngini = 0.444\nsamples = 3\nvalue = [1, 2]"] ;
660 -> 734 ;
735 [label="gini = 0.0\nsamples = 2\nvalue = [0, 2]"] ;
734 -> 735 ;
736 [label="gini = 0.0\nsamples = 1\nvalue = [1, 0]"] ;
734 -> 736 ;
737 [label="X[16] <= 19.675\ngini = 0.076\nsamples = 76\nvalue = [73, 3]"] ;
659 -> 737 ;
738 [label="X[16] <= 19.625\ngini = 0.204\nsamples = 26\nvalue = [23, 3]"] ;
737 -> 738 ;
739 [label="X[14] <= 0.5\ngini = 0.153\nsamples = 24\nvalue = [22, 2]"] ;
738 -> 739 ;
740 [label="gini = 0.0\nsamples = 13\nvalue = [13, 0]"] ;
739 -> 740 ;
741 [label="X[15] <= 1.5\ngini = 0.298\nsamples = 11\nvalue = [9, 2]"] ;
739 -> 741 ;
742 [label="gini = 0.0\nsamples = 5\nvalue = [5, 0]"] ;
741 -> 742 ;
743 [label="X[4] <= 29.0\ngini = 0.444\nsamples = 6\nvalue = [4, 2]"] ;
741 -> 743 ;
744 [label="X[17] <= 418.25\ngini = 0.32\nsamples = 5\nvalue = [4, 1]"] ;
743 -> 744 ;
745 [label="X[4] <= 19.0\ngini = 0.5\nsamples = 2\nvalue = [1, 1]"] ;
744 -> 745 ;
746 [label="gini = 0.0\nsamples = 1\nvalue = [1, 0]"] ;
745 -> 746 ;
747 [label="gini = 0.0\nsamples = 1\nvalue = [0, 1]"] ;
745 -> 747 ;
748 [label="gini = 0.0\nsamples = 3\nvalue = [3, 0]"] ;
744 -> 748 ;
749 [label="gini = 0.0\nsamples = 1\nvalue = [0, 1]"] ;
743 -> 749 ;
750 [label="X[15] <= 1.5\ngini = 0.5\nsamples = 2\nvalue = [1, 1]"] ;
738 -> 750 ;
751 [label="gini = 0.0\nsamples = 1\nvalue = [0, 1]"] ;
750 -> 751 ;
752 [label="gini = 0.0\nsamples = 1\nvalue = [1, 0]"] ;
750 -> 752 ;
753 [label="gini = 0.0\nsamples = 50\nvalue = [50, 0]"] ;
737 -> 753 ;
754 [label="gini = 0.0\nsamples = 1\nvalue = [0, 1]"] ;
658 -> 754 ;
755 [label="X[4] <= 13.5\ngini = 0.499\nsamples = 1779\nvalue = [853, 926]"] ;
1 -> 755 ;
756 [label="X[17] <= 138.25\ngini = 0.432\nsamples = 789\nvalue = [249, 540]"] ;
755 -> 756 ;
757 [label="X[7] <= 0.5\ngini = 0.253\nsamples = 182\nvalue = [27, 155]"] ;
756 -> 757 ;
758 [label="gini = 0.0\nsamples = 2\nvalue = [2, 0]"] ;
757 -> 758 ;
759 [label="X[16] <= 69.875\ngini = 0.239\nsamples = 180\nvalue = [25, 155]"] ;
757 -> 759 ;
760 [label="gini = 0.0\nsamples = 29\nvalue = [0, 29]"] ;
759 -> 760 ;
761 [label="X[16] <= 74.375\ngini = 0.276\nsamples = 151\nvalue = [25, 126]"] ;
759 -> 761 ;
762 [label="X[10] <= 0.5\ngini = 0.397\nsamples = 55\nvalue = [15, 40]"] ;
761 -> 762 ;
763 [label="X[1] <= 0.5\ngini = 0.384\nsamples = 54\nvalue = [14, 40]"] ;
762 -> 763 ;
764 [label="X[6] <= 0.5\ngini = 0.332\nsamples = 38\nvalue = [8, 30]"] ;
763 -> 764 ;
765 [label="X[17] <= 74.325\ngini = 0.346\nsamples = 36\nvalue = [8, 28]"] ;
764 -> 765 ;
766 [label="X[17] <= 72.3\ngini = 0.327\nsamples = 34\nvalue = [7, 27]"] ;
765 -> 766 ;
767 [label="X[15] <= 1.5\ngini = 0.35\nsamples = 31\nvalue = [7, 24]"] ;
766 -> 767 ;
768 [label="gini = 0.0\nsamples = 1\nvalue = [1, 0]"] ;
767 -> 768 ;
769 [label="X[17] <= 71.05\ngini = 0.32\nsamples = 30\nvalue = [6, 24]"] ;
767 -> 769 ;
770 [label="X[17] <= 70.725\ngini = 0.285\nsamples = 29\nvalue = [5, 24]"] ;
769 -> 770 ;
771 [label="X[17] <= 70.675\ngini = 0.33\nsamples = 24\nvalue = [5, 19]"] ;
770 -> 771 ;
772 [label="X[16] <= 70.325\ngini = 0.287\nsamples = 23\nvalue = [4, 19]"] ;
771 -> 772 ;
773 [label="X[14] <= 0.5\ngini = 0.231\nsamples = 15\nvalue = [2, 13]"] ;
772 -> 773 ;
774 [label="X[0] <= 0.5\ngini = 0.444\nsamples = 3\nvalue = [1, 2]"] ;
773 -> 774 ;
775 [label="gini = 0.0\nsamples = 1\nvalue = [1, 0]"] ;
774 -> 775 ;
776 [label="gini = 0.0\nsamples = 2\nvalue = [0, 2]"] ;
774 -> 776 ;
777 [label="X[16] <= 69.925\ngini = 0.153\nsamples = 12\nvalue = [1, 11]"] ;
773 -> 777 ;
778 [label="X[15] <= 2.5\ngini = 0.375\nsamples = 4\nvalue = [1, 3]"] ;
777 -> 778 ;
779 [label="gini = 0.444\nsamples = 3\nvalue = [1, 2]"] ;
778 -> 779 ;
780 [label="gini = 0.0\nsamples = 1\nvalue = [0, 1]"] ;
778 -> 780 ;
781 [label="gini = 0.0\nsamples = 8\nvalue = [0, 8]"] ;
777 -> 781 ;
782 [label="X[16] <= 70.375\ngini = 0.375\nsamples = 8\nvalue = [2, 6]"] ;
772 -> 782 ;
783 [label="gini = 0.0\nsamples = 1\nvalue = [1, 0]"] ;
782 -> 783 ;
784 [label="X[15] <= 2.5\ngini = 0.245\nsamples = 7\nvalue = [1, 6]"] ;
782 -> 784 ;
785 [label="gini = 0.0\nsamples = 3\nvalue = [0, 3]"] ;
784 -> 785 ;
786 [label="X[16] <= 70.525\ngini = 0.375\nsamples = 4\nvalue = [1, 3]"] ;
784 -> 786 ;
787 [label="gini = 0.0\nsamples = 1\nvalue = [0, 1]"] ;
786 -> 787 ;
788 [label="X[17] <= 70.625\ngini = 0.444\nsamples = 3\nvalue = [1, 2]"] ;
786 -> 788 ;
789 [label="X[14] <= 0.5\ngini = 0.5\nsamples = 2\nvalue = [1, 1]"] ;
788 -> 789 ;
790 [label="gini = 0.0\nsamples = 1\nvalue = [0, 1]"] ;
789 -> 790 ;
791 [label="gini = 0.0\nsamples = 1\nvalue = [1, 0]"] ;
789 -> 791 ;
792 [label="gini = 0.0\nsamples = 1\nvalue = [0, 1]"] ;
788 -> 792 ;
793 [label="gini = 0.0\nsamples = 1\nvalue = [1, 0]"] ;
771 -> 793 ;
794 [label="gini = 0.0\nsamples = 5\nvalue = [0, 5]"] ;
770 -> 794 ;
795 [label="gini = 0.0\nsamples = 1\nvalue = [1, 0]"] ;
769 -> 795 ;
796 [label="gini = 0.0\nsamples = 3\nvalue = [0, 3]"] ;
766 -> 796 ;
797 [label="X[0] <= 0.5\ngini = 0.5\nsamples = 2\nvalue = [1, 1]"] ;
765 -> 797 ;
798 [label="gini = 0.0\nsamples = 1\nvalue = [1, 0]"] ;
797 -> 798 ;
799 [label="gini = 0.0\nsamples = 1\nvalue = [0, 1]"] ;
797 -> 799 ;
800 [label="gini = 0.0\nsamples = 2\nvalue = [0, 2]"] ;
764 -> 800 ;
801 [label="X[16] <= 74.25\ngini = 0.469\nsamples = 16\nvalue = [6, 10]"] ;
763 -> 801 ;
802 [label="X[16] <= 72.825\ngini = 0.444\nsamples = 15\nvalue = [5, 10]"] ;
801 -> 802 ;
803 [label="X[16] <= 71.2\ngini = 0.473\nsamples = 13\nvalue = [5, 8]"] ;
802 -> 803 ;
804 [label="X[16] <= 70.25\ngini = 0.397\nsamples = 11\nvalue = [3, 8]"] ;
803 -> 804 ;
805 [label="X[16] <= 70.0\ngini = 0.5\nsamples = 4\nvalue = [2, 2]"] ;
804 -> 805 ;
806 [label="gini = 0.0\nsamples = 1\nvalue = [0, 1]"] ;
805 -> 806 ;
807 [label="X[16] <= 70.1\ngini = 0.444\nsamples = 3\nvalue = [2, 1]"] ;
805 -> 807 ;
808 [label="gini = 0.0\nsamples = 1\nvalue = [1, 0]"] ;
807 -> 808 ;
809 [label="X[16] <= 70.175\ngini = 0.5\nsamples = 2\nvalue = [1, 1]"] ;
807 -> 809 ;
810 [label="gini = 0.0\nsamples = 1\nvalue = [0, 1]"] ;
809 -> 810 ;
811 [label="gini = 0.0\nsamples = 1\nvalue = [1, 0]"] ;
809 -> 811 ;
812 [label="X[15] <= 2.5\ngini = 0.245\nsamples = 7\nvalue = [1, 6]"] ;
804 -> 812 ;
813 [label="gini = 0.0\nsamples = 4\nvalue = [0, 4]"] ;
812 -> 813 ;
814 [label="X[0] <= 0.5\ngini = 0.444\nsamples = 3\nvalue = [1, 2]"] ;
812 -> 814 ;
815 [label="X[16] <= 70.525\ngini = 0.5\nsamples = 2\nvalue = [1, 1]"] ;
814 -> 815 ;
816 [label="gini = 0.0\nsamples = 1\nvalue = [0, 1]"] ;
815 -> 816 ;
817 [label="gini = 0.0\nsamples = 1\nvalue = [1, 0]"] ;
815 -> 817 ;
818 [label="gini = 0.0\nsamples = 1\nvalue = [0, 1]"] ;
814 -> 818 ;
819 [label="gini = 0.0\nsamples = 2\nvalue = [2, 0]"] ;
803 -> 819 ;
820 [label="gini = 0.0\nsamples = 2\nvalue = [0, 2]"] ;
802 -> 820 ;
821 [label="gini = 0.0\nsamples = 1\nvalue = [1, 0]"] ;
801 -> 821 ;
822 [label="gini = 0.0\nsamples = 1\nvalue = [1, 0]"] ;
762 -> 822 ;
823 [label="X[1] <= 0.5\ngini = 0.187\nsamples = 96\nvalue = [10, 86]"] ;
761 -> 823 ;
824 [label="X[16] <= 75.625\ngini = 0.224\nsamples = 78\nvalue = [10, 68]"] ;
823 -> 824 ;
825 [label="X[16] <= 75.325\ngini = 0.337\nsamples = 14\nvalue = [3, 11]"] ;
824 -> 825 ;
826 [label="X[0] <= 0.5\ngini = 0.165\nsamples = 11\nvalue = [1, 10]"] ;
825 -> 826 ;
827 [label="gini = 0.0\nsamples = 7\nvalue = [0, 7]"] ;
826 -> 827 ;
828 [label="X[16] <= 75.025\ngini = 0.375\nsamples = 4\nvalue = [1, 3]"] ;
826 -> 828 ;
829 [label="gini = 0.0\nsamples = 2\nvalue = [0, 2]"] ;
828 -> 829 ;
830 [label="X[17] <= 75.2\ngini = 0.5\nsamples = 2\nvalue = [1, 1]"] ;
828 -> 830 ;
831 [label="gini = 0.0\nsamples = 1\nvalue = [1, 0]"] ;
830 -> 831 ;
832 [label="gini = 0.0\nsamples = 1\nvalue = [0, 1]"] ;
830 -> 832 ;
833 [label="X[9] <= 0.5\ngini = 0.444\nsamples = 3\nvalue = [2, 1]"] ;
825 -> 833 ;
834 [label="gini = 0.0\nsamples = 1\nvalue = [0, 1]"] ;
833 -> 834 ;
835 [label="gini = 0.0\nsamples = 2\nvalue = [2, 0]"] ;
833 -> 835 ;
836 [label="X[14] <= 0.5\ngini = 0.195\nsamples = 64\nvalue = [7, 57]"] ;
824 -> 836 ;
837 [label="gini = 0.0\nsamples = 16\nvalue = [0, 16]"] ;
836 -> 837 ;
838 [label="X[9] <= 0.5\ngini = 0.249\nsamples = 48\nvalue = [7, 41]"] ;
836 -> 838 ;
839 [label="X[17] <= 95.65\ngini = 0.283\nsamples = 41\nvalue = [7, 34]"] ;
838 -> 839 ;
840 [label="X[17] <= 90.325\ngini = 0.26\nsamples = 39\nvalue = [6, 33]"] ;
839 -> 840 ;
841 [label="X[17] <= 89.175\ngini = 0.305\nsamples = 32\nvalue = [6, 26]"] ;
840 -> 841 ;
842 [label="X[6] <= 0.5\ngini = 0.238\nsamples = 29\nvalue = [4, 25]"] ;
841 -> 842 ;
843 [label="X[16] <= 80.4\ngini = 0.172\nsamples = 21\nvalue = [2, 19]"] ;
842 -> 843 ;
844 [label="gini = 0.0\nsamples = 10\nvalue = [0, 10]"] ;
843 -> 844 ;
845 [label="X[16] <= 81.075\ngini = 0.298\nsamples = 11\nvalue = [2, 9]"] ;
843 -> 845 ;
846 [label="X[16] <= 80.95\ngini = 0.48\nsamples = 5\nvalue = [2, 3]"] ;
845 -> 846 ;
847 [label="X[16] <= 80.675\ngini = 0.375\nsamples = 4\nvalue = [1, 3]"] ;
846 -> 847 ;
848 [label="gini = 0.5\nsamples = 2\nvalue = [1, 1]"] ;
847 -> 848 ;
849 [label="gini = 0.0\nsamples = 2\nvalue = [0, 2]"] ;
847 -> 849 ;
850 [label="gini = 0.0\nsamples = 1\nvalue = [1, 0]"] ;
846 -> 850 ;
851 [label="gini = 0.0\nsamples = 6\nvalue = [0, 6]"] ;
845 -> 851 ;
852 [label="X[0] <= 0.5\ngini = 0.375\nsamples = 8\nvalue = [2, 6]"] ;
842 -> 852 ;
853 [label="X[16] <= 78.15\ngini = 0.5\nsamples = 4\nvalue = [2, 2]"] ;
852 -> 853 ;
854 [label="gini = 0.0\nsamples = 1\nvalue = [0, 1]"] ;
853 -> 854 ;
855 [label="X[17] <= 79.675\ngini = 0.444\nsamples = 3\nvalue = [2, 1]"] ;
853 -> 855 ;
856 [label="gini = 0.0\nsamples = 1\nvalue = [1, 0]"] ;
855 -> 856 ;
857 [label="X[15] <= 2.5\ngini = 0.5\nsamples = 2\nvalue = [1, 1]"] ;
855 -> 857 ;
858 [label="gini = 0.0\nsamples = 1\nvalue = [1, 0]"] ;
857 -> 858 ;
859 [label="gini = 0.0\nsamples = 1\nvalue = [0, 1]"] ;
857 -> 859 ;
860 [label="gini = 0.0\nsamples = 4\nvalue = [0, 4]"] ;
852 -> 860 ;
861 [label="X[16] <= 89.575\ngini = 0.444\nsamples = 3\nvalue = [2, 1]"] ;
841 -> 861 ;
862 [label="gini = 0.0\nsamples = 1\nvalue = [1, 0]"] ;
861 -> 862 ;
863 [label="X[16] <= 90.0\ngini = 0.5\nsamples = 2\nvalue = [1, 1]"] ;
861 -> 863 ;
864 [label="gini = 0.0\nsamples = 1\nvalue = [0, 1]"] ;
863 -> 864 ;
865 [label="gini = 0.0\nsamples = 1\nvalue = [1, 0]"] ;
863 -> 865 ;
866 [label="gini = 0.0\nsamples = 7\nvalue = [0, 7]"] ;
840 -> 866 ;
867 [label="X[6] <= 0.5\ngini = 0.5\nsamples = 2\nvalue = [1, 1]"] ;
839 -> 867 ;
868 [label="gini = 0.0\nsamples = 1\nvalue = [1, 0]"] ;
867 -> 868 ;
869 [label="gini = 0.0\nsamples = 1\nvalue = [0, 1]"] ;
867 -> 869 ;
870 [label="gini = 0.0\nsamples = 7\nvalue = [0, 7]"] ;
838 -> 870 ;
871 [label="gini = 0.0\nsamples = 18\nvalue = [0, 18]"] ;
823 -> 871 ;
872 [label="X[6] <= 0.5\ngini = 0.464\nsamples = 607\nvalue = [222, 385]"] ;
756 -> 872 ;
873 [label="X[16] <= 76.15\ngini = 0.496\nsamples = 329\nvalue = [150, 179]"] ;
872 -> 873 ;
874 [label="X[15] <= 2.5\ngini = 0.495\nsamples = 131\nvalue = [72, 59]"] ;
873 -> 874 ;
875 [label="X[17] <= 349.125\ngini = 0.5\nsamples = 109\nvalue = [55, 54]"] ;
874 -> 875 ;
876 [label="X[15] <= 0.5\ngini = 0.483\nsamples = 54\nvalue = [22, 32]"] ;
875 -> 876 ;
877 [label="X[16] <= 74.075\ngini = 0.198\nsamples = 9\nvalue = [1, 8]"] ;
876 -> 877 ;
878 [label="gini = 0.0\nsamples = 7\nvalue = [0, 7]"] ;
877 -> 878 ;
879 [label="X[17] <= 261.5\ngini = 0.5\nsamples = 2\nvalue = [1, 1]"] ;
877 -> 879 ;
880 [label="gini = 0.0\nsamples = 1\nvalue = [1, 0]"] ;
879 -> 880 ;
881 [label="gini = 0.0\nsamples = 1\nvalue = [0, 1]"] ;
879 -> 881 ;
882 [label="X[16] <= 75.325\ngini = 0.498\nsamples = 45\nvalue = [21, 24]"] ;
876 -> 882 ;
883 [label="X[16] <= 74.425\ngini = 0.5\nsamples = 43\nvalue = [21, 22]"] ;
882 -> 883 ;
884 [label="X[17] <= 140.65\ngini = 0.492\nsamples = 39\nvalue = [17, 22]"] ;
883 -> 884 ;
885 [label="X[16] <= 69.675\ngini = 0.444\nsamples = 9\nvalue = [6, 3]"] ;
884 -> 885 ;
886 [label="X[17] <= 138.9\ngini = 0.444\nsamples = 3\nvalue = [1, 2]"] ;
885 -> 886 ;
887 [label="gini = 0.0\nsamples = 1\nvalue = [1, 0]"] ;
886 -> 887 ;
888 [label="gini = 0.0\nsamples = 2\nvalue = [0, 2]"] ;
886 -> 888 ;
889 [label="X[15] <= 1.5\ngini = 0.278\nsamples = 6\nvalue = [5, 1]"] ;
885 -> 889 ;
890 [label="gini = 0.0\nsamples = 1\nvalue = [0, 1]"] ;
889 -> 890 ;
891 [label="gini = 0.0\nsamples = 5\nvalue = [5, 0]"] ;
889 -> 891 ;
892 [label="X[1] <= 0.5\ngini = 0.464\nsamples = 30\nvalue = [11, 19]"] ;
884 -> 892 ;
893 [label="X[4] <= 3.5\ngini = 0.375\nsamples = 20\nvalue = [5, 15]"] ;
892 -> 893 ;
894 [label="X[14] <= 0.5\ngini = 0.486\nsamples = 12\nvalue = [5, 7]"] ;
893 -> 894 ;
895 [label="gini = 0.0\nsamples = 3\nvalue = [0, 3]"] ;
894 -> 895 ;
896 [label="X[15] <= 1.5\ngini = 0.494\nsamples = 9\nvalue = [5, 4]"] ;
894 -> 896 ;
897 [label="gini = 0.0\nsamples = 2\nvalue = [2, 0]"] ;
896 -> 897 ;
898 [label="X[0] <= 0.5\ngini = 0.49\nsamples = 7\nvalue = [3, 4]"] ;
896 -> 898 ;
899 [label="X[16] <= 70.525\ngini = 0.48\nsamples = 5\nvalue = [3, 2]"] ;
898 -> 899 ;
900 [label="gini = 0.0\nsamples = 2\nvalue = [2, 0]"] ;
899 -> 900 ;
901 [label="X[16] <= 71.175\ngini = 0.444\nsamples = 3\nvalue = [1, 2]"] ;
899 -> 901 ;
902 [label="gini = 0.0\nsamples = 1\nvalue = [0, 1]"] ;
901 -> 902 ;
903 [label="X[8] <= 0.5\ngini = 0.5\nsamples = 2\nvalue = [1, 1]"] ;
901 -> 903 ;
904 [label="gini = 0.0\nsamples = 1\nvalue = [1, 0]"] ;
903 -> 904 ;
905 [label="gini = 0.0\nsamples = 1\nvalue = [0, 1]"] ;
903 -> 905 ;
906 [label="gini = 0.0\nsamples = 2\nvalue = [0, 2]"] ;
898 -> 906 ;
907 [label="gini = 0.0\nsamples = 8\nvalue = [0, 8]"] ;
893 -> 907 ;
908 [label="X[17] <= 216.375\ngini = 0.48\nsamples = 10\nvalue = [6, 4]"] ;
892 -> 908 ;
909 [label="gini = 0.0\nsamples = 4\nvalue = [0, 4]"] ;
908 -> 909 ;
910 [label="gini = 0.0\nsamples = 6\nvalue = [6, 0]"] ;
908 -> 910 ;
911 [label="gini = 0.0\nsamples = 4\nvalue = [4, 0]"] ;
883 -> 911 ;
912 [label="gini = 0.0\nsamples = 2\nvalue = [0, 2]"] ;
882 -> 912 ;
913 [label="X[14] <= 0.5\ngini = 0.48\nsamples = 55\nvalue = [33, 22]"] ;
875 -> 913 ;
914 [label="X[16] <= 73.65\ngini = 0.231\nsamples = 15\nvalue = [13, 2]"] ;
913 -> 914 ;
915 [label="gini = 0.0\nsamples = 8\nvalue = [8, 0]"] ;
914 -> 915 ;
916 [label="X[16] <= 75.075\ngini = 0.408\nsamples = 7\nvalue = [5, 2]"] ;
914 -> 916 ;
917 [label="gini = 0.0\nsamples = 2\nvalue = [0, 2]"] ;
916 -> 917 ;
918 [label="gini = 0.0\nsamples = 5\nvalue = [5, 0]"] ;
916 -> 918 ;
919 [label="X[16] <= 69.875\ngini = 0.5\nsamples = 40\nvalue = [20, 20]"] ;
913 -> 919 ;
920 [label="X[16] <= 69.05\ngini = 0.42\nsamples = 10\nvalue = [7, 3]"] ;
919 -> 920 ;
921 [label="gini = 0.0\nsamples = 1\nvalue = [0, 1]"] ;
920 -> 921 ;
922 [label="X[17] <= 484.925\ngini = 0.346\nsamples = 9\nvalue = [7, 2]"] ;
920 -> 922 ;
923 [label="gini = 0.0\nsamples = 3\nvalue = [3, 0]"] ;
922 -> 923 ;
924 [label="X[17] <= 486.15\ngini = 0.444\nsamples = 6\nvalue = [4, 2]"] ;
922 -> 924 ;
925 [label="gini = 0.0\nsamples = 1\nvalue = [0, 1]"] ;
924 -> 925 ;
926 [label="X[16] <= 69.625\ngini = 0.32\nsamples = 5\nvalue = [4, 1]"] ;
924 -> 926 ;
927 [label="gini = 0.0\nsamples = 3\nvalue = [3, 0]"] ;
926 -> 927 ;
928 [label="gini = 0.5\nsamples = 2\nvalue = [1, 1]"] ;
926 -> 928 ;
929 [label="X[16] <= 70.125\ngini = 0.491\nsamples = 30\nvalue = [13, 17]"] ;
919 -> 929 ;
930 [label="gini = 0.0\nsamples = 4\nvalue = [0, 4]"] ;
929 -> 930 ;
931 [label="X[17] <= 594.2\ngini = 0.5\nsamples = 26\nvalue = [13, 13]"] ;
929 -> 931 ;
932 [label="X[15] <= 1.5\ngini = 0.42\nsamples = 10\nvalue = [7, 3]"] ;
931 -> 932 ;
933 [label="X[4] <= 7.5\ngini = 0.375\nsamples = 4\nvalue = [1, 3]"] ;
932 -> 933 ;
934 [label="gini = 0.0\nsamples = 3\nvalue = [0, 3]"] ;
933 -> 934 ;
935 [label="gini = 0.0\nsamples = 1\nvalue = [1, 0]"] ;
933 -> 935 ;
936 [label="gini = 0.0\nsamples = 6\nvalue = [6, 0]"] ;
932 -> 936 ;
937 [label="X[17] <= 672.75\ngini = 0.469\nsamples = 16\nvalue = [6, 10]"] ;
931 -> 937 ;
938 [label="gini = 0.0\nsamples = 3\nvalue = [0, 3]"] ;
937 -> 938 ;
939 [label="X[9] <= 0.5\ngini = 0.497\nsamples = 13\nvalue = [6, 7]"] ;
937 -> 939 ;
940 [label="X[4] <= 9.5\ngini = 0.496\nsamples = 11\nvalue = [6, 5]"] ;
939 -> 940 ;
941 [label="gini = 0.0\nsamples = 2\nvalue = [2, 0]"] ;
940 -> 941 ;
942 [label="X[17] <= 923.65\ngini = 0.494\nsamples = 9\nvalue = [4, 5]"] ;
940 -> 942 ;
943 [label="X[16] <= 70.25\ngini = 0.408\nsamples = 7\nvalue = [2, 5]"] ;
942 -> 943 ;
944 [label="X[0] <= 0.5\ngini = 0.444\nsamples = 3\nvalue = [2, 1]"] ;
943 -> 944 ;
945 [label="gini = 0.0\nsamples = 1\nvalue = [0, 1]"] ;
944 -> 945 ;
946 [label="gini = 0.0\nsamples = 2\nvalue = [2, 0]"] ;
944 -> 946 ;
947 [label="gini = 0.0\nsamples = 4\nvalue = [0, 4]"] ;
943 -> 947 ;
948 [label="gini = 0.0\nsamples = 2\nvalue = [2, 0]"] ;
942 -> 948 ;
949 [label="gini = 0.0\nsamples = 2\nvalue = [0, 2]"] ;
939 -> 949 ;
950 [label="X[1] <= 0.5\ngini = 0.351\nsamples = 22\nvalue = [17, 5]"] ;
874 -> 950 ;
951 [label="X[16] <= 69.375\ngini = 0.266\nsamples = 19\nvalue = [16, 3]"] ;
950 -> 951 ;
952 [label="gini = 0.0\nsamples = 1\nvalue = [0, 1]"] ;
951 -> 952 ;
953 [label="X[9] <= 0.5\ngini = 0.198\nsamples = 18\nvalue = [16, 2]"] ;
951 -> 953 ;
954 [label="gini = 0.0\nsamples = 14\nvalue = [14, 0]"] ;
953 -> 954 ;
955 [label="X[16] <= 71.2\ngini = 0.5\nsamples = 4\nvalue = [2, 2]"] ;
953 -> 955 ;
956 [label="gini = 0.0\nsamples = 1\nvalue = [1, 0]"] ;
955 -> 956 ;
957 [label="X[16] <= 74.7\ngini = 0.444\nsamples = 3\nvalue = [1, 2]"] ;
955 -> 957 ;
958 [label="gini = 0.0\nsamples = 2\nvalue = [0, 2]"] ;
957 -> 958 ;
959 [label="gini = 0.0\nsamples = 1\nvalue = [1, 0]"] ;
957 -> 959 ;
960 [label="X[16] <= 70.85\ngini = 0.444\nsamples = 3\nvalue = [1, 2]"] ;
950 -> 960 ;
961 [label="gini = 0.0\nsamples = 2\nvalue = [0, 2]"] ;
960 -> 961 ;
962 [label="gini = 0.0\nsamples = 1\nvalue = [1, 0]"] ;
960 -> 962 ;
963 [label="X[17] <= 180.35\ngini = 0.478\nsamples = 198\nvalue = [78, 120]"] ;
873 -> 963 ;
964 [label="X[1] <= 0.5\ngini = 0.236\nsamples = 22\nvalue = [3, 19]"] ;
963 -> 964 ;
965 [label="X[8] <= 0.5\ngini = 0.18\nsamples = 20\nvalue = [2, 18]"] ;
964 -> 965 ;
966 [label="X[16] <= 80.075\ngini = 0.105\nsamples = 18\nvalue = [1, 17]"] ;
965 -> 966 ;
967 [label="X[17] <= 159.8\ngini = 0.245\nsamples = 7\nvalue = [1, 6]"] ;
966 -> 967 ;
968 [label="gini = 0.0\nsamples = 6\nvalue = [0, 6]"] ;
967 -> 968 ;
969 [label="gini = 0.0\nsamples = 1\nvalue = [1, 0]"] ;
967 -> 969 ;
970 [label="gini = 0.0\nsamples = 11\nvalue = [0, 11]"] ;
966 -> 970 ;
971 [label="X[9] <= 0.5\ngini = 0.5\nsamples = 2\nvalue = [1, 1]"] ;
965 -> 971 ;
972 [label="gini = 0.0\nsamples = 1\nvalue = [0, 1]"] ;
971 -> 972 ;
973 [label="gini = 0.0\nsamples = 1\nvalue = [1, 0]"] ;
971 -> 973 ;
974 [label="X[11] <= 0.5\ngini = 0.5\nsamples = 2\nvalue = [1, 1]"] ;
964 -> 974 ;
975 [label="gini = 0.0\nsamples = 1\nvalue = [0, 1]"] ;
974 -> 975 ;
976 [label="gini = 0.0\nsamples = 1\nvalue = [1, 0]"] ;
974 -> 976 ;
977 [label="X[16] <= 94.225\ngini = 0.489\nsamples = 176\nvalue = [75, 101]"] ;
963 -> 977 ;
978 [label="X[8] <= 0.5\ngini = 0.498\nsamples = 134\nvalue = [63, 71]"] ;
977 -> 978 ;
979 [label="X[16] <= 84.25\ngini = 0.49\nsamples = 114\nvalue = [49, 65]"] ;
978 -> 979 ;
980 [label="X[4] <= 10.5\ngini = 0.448\nsamples = 62\nvalue = [21, 41]"] ;
979 -> 980 ;
981 [label="X[16] <= 80.925\ngini = 0.39\nsamples = 49\nvalue = [13, 36]"] ;
980 -> 981 ;
982 [label="X[16] <= 79.475\ngini = 0.439\nsamples = 40\nvalue = [13, 27]"] ;
981 -> 982 ;
983 [label="X[15] <= 2.5\ngini = 0.153\nsamples = 12\nvalue = [1, 11]"] ;
982 -> 983 ;
984 [label="gini = 0.0\nsamples = 11\nvalue = [0, 11]"] ;
983 -> 984 ;
985 [label="gini = 0.0\nsamples = 1\nvalue = [1, 0]"] ;
983 -> 985 ;
986 [label="X[17] <= 726.075\ngini = 0.49\nsamples = 28\nvalue = [12, 16]"] ;
982 -> 986 ;
987 [label="X[15] <= 1.5\ngini = 0.5\nsamples = 24\nvalue = [12, 12]"] ;
986 -> 987 ;
988 [label="X[16] <= 80.05\ngini = 0.32\nsamples = 5\nvalue = [1, 4]"] ;
987 -> 988 ;
989 [label="gini = 0.0\nsamples = 1\nvalue = [1, 0]"] ;
988 -> 989 ;
990 [label="gini = 0.0\nsamples = 4\nvalue = [0, 4]"] ;
988 -> 990 ;
991 [label="X[17] <= 241.125\ngini = 0.488\nsamples = 19\nvalue = [11, 8]"] ;
987 -> 991 ;
992 [label="gini = 0.0\nsamples = 2\nvalue = [2, 0]"] ;
991 -> 992 ;
993 [label="X[17] <= 241.35\ngini = 0.498\nsamples = 17\nvalue = [9, 8]"] ;
991 -> 993 ;
994 [label="gini = 0.0\nsamples = 1\nvalue = [0, 1]"] ;
993 -> 994 ;
995 [label="X[4] <= 3.5\ngini = 0.492\nsamples = 16\nvalue = [9, 7]"] ;
993 -> 995 ;
996 [label="gini = 0.0\nsamples = 2\nvalue = [2, 0]"] ;
995 -> 996 ;
997 [label="X[17] <= 361.95\ngini = 0.5\nsamples = 14\nvalue = [7, 7]"] ;
995 -> 997 ;
998 [label="gini = 0.0\nsamples = 2\nvalue = [0, 2]"] ;
997 -> 998 ;
999 [label="X[1] <= 0.5\ngini = 0.486\nsamples = 12\nvalue = [7, 5]"] ;
997 -> 999 ;
1000 [label="X[17] <= 402.0\ngini = 0.5\nsamples = 10\nvalue = [5, 5]"] ;
999 -> 1000 ;
1001 [label="gini = 0.0\nsamples = 2\nvalue = [2, 0]"] ;
1000 -> 1001 ;
1002 [label="X[17] <= 722.025\ngini = 0.469\nsamples = 8\nvalue = [3, 5]"] ;
1000 -> 1002 ;
1003 [label="X[16] <= 80.725\ngini = 0.408\nsamples = 7\nvalue = [2, 5]"] ;
1002 -> 1003 ;
1004 [label="X[17] <= 716.85\ngini = 0.278\nsamples = 6\nvalue = [1, 5]"] ;
1003 -> 1004 ;
1005 [label="gini = 0.0\nsamples = 4\nvalue = [0, 4]"] ;
1004 -> 1005 ;
1006 [label="X[9] <= 0.5\ngini = 0.5\nsamples = 2\nvalue = [1, 1]"] ;
1004 -> 1006 ;
1007 [label="gini = 0.0\nsamples = 1\nvalue = [1, 0]"] ;
1006 -> 1007 ;
1008 [label="gini = 0.0\nsamples = 1\nvalue = [0, 1]"] ;
1006 -> 1008 ;
1009 [label="gini = 0.0\nsamples = 1\nvalue = [1, 0]"] ;
1003 -> 1009 ;
1010 [label="gini = 0.0\nsamples = 1\nvalue = [1, 0]"] ;
1002 -> 1010 ;
1011 [label="gini = 0.0\nsamples = 2\nvalue = [2, 0]"] ;
999 -> 1011 ;
1012 [label="gini = 0.0\nsamples = 4\nvalue = [0, 4]"] ;
986 -> 1012 ;
1013 [label="gini = 0.0\nsamples = 9\nvalue = [0, 9]"] ;
981 -> 1013 ;
1014 [label="X[9] <= 0.5\ngini = 0.473\nsamples = 13\nvalue = [8, 5]"] ;
980 -> 1014 ;
1015 [label="X[14] <= 0.5\ngini = 0.444\nsamples = 12\nvalue = [8, 4]"] ;
1014 -> 1015 ;
1016 [label="gini = 0.0\nsamples = 1\nvalue = [0, 1]"] ;
1015 -> 1016 ;
1017 [label="X[0] <= 0.5\ngini = 0.397\nsamples = 11\nvalue = [8, 3]"] ;
1015 -> 1017 ;
1018 [label="gini = 0.0\nsamples = 3\nvalue = [3, 0]"] ;
1017 -> 1018 ;
1019 [label="X[16] <= 79.325\ngini = 0.469\nsamples = 8\nvalue = [5, 3]"] ;
1017 -> 1019 ;
1020 [label="gini = 0.0\nsamples = 3\nvalue = [3, 0]"] ;
1019 -> 1020 ;
1021 [label="X[16] <= 81.15\ngini = 0.48\nsamples = 5\nvalue = [2, 3]"] ;
1019 -> 1021 ;
1022 [label="X[17] <= 962.4\ngini = 0.375\nsamples = 4\nvalue = [1, 3]"] ;
1021 -> 1022 ;
1023 [label="X[4] <= 11.5\ngini = 0.5\nsamples = 2\nvalue = [1, 1]"] ;
1022 -> 1023 ;
1024 [label="gini = 0.0\nsamples = 1\nvalue = [0, 1]"] ;
1023 -> 1024 ;
1025 [label="gini = 0.0\nsamples = 1\nvalue = [1, 0]"] ;
1023 -> 1025 ;
1026 [label="gini = 0.0\nsamples = 2\nvalue = [0, 2]"] ;
1022 -> 1026 ;
1027 [label="gini = 0.0\nsamples = 1\nvalue = [1, 0]"] ;
1021 -> 1027 ;
1028 [label="gini = 0.0\nsamples = 1\nvalue = [0, 1]"] ;
1014 -> 1028 ;
1029 [label="X[17] <= 1054.5\ngini = 0.497\nsamples = 52\nvalue = [28, 24]"] ;
979 -> 1029 ;
1030 [label="X[16] <= 89.275\ngini = 0.486\nsamples = 48\nvalue = [28, 20]"] ;
1029 -> 1030 ;
1031 [label="X[17] <= 513.9\ngini = 0.403\nsamples = 25\nvalue = [18, 7]"] ;
1030 -> 1031 ;
1032 [label="X[17] <= 428.25\ngini = 0.5\nsamples = 10\nvalue = [5, 5]"] ;
1031 -> 1032 ;
1033 [label="X[0] <= 0.5\ngini = 0.408\nsamples = 7\nvalue = [5, 2]"] ;
1032 -> 1033 ;
1034 [label="X[15] <= 2.5\ngini = 0.444\nsamples = 3\nvalue = [1, 2]"] ;
1033 -> 1034 ;
1035 [label="gini = 0.0\nsamples = 2\nvalue = [0, 2]"] ;
1034 -> 1035 ;
1036 [label="gini = 0.0\nsamples = 1\nvalue = [1, 0]"] ;
1034 -> 1036 ;
1037 [label="gini = 0.0\nsamples = 4\nvalue = [4, 0]"] ;
1033 -> 1037 ;
1038 [label="gini = 0.0\nsamples = 3\nvalue = [0, 3]"] ;
1032 -> 1038 ;
1039 [label="X[9] <= 0.5\ngini = 0.231\nsamples = 15\nvalue = [13, 2]"] ;
1031 -> 1039 ;
1040 [label="gini = 0.0\nsamples = 9\nvalue = [9, 0]"] ;
1039 -> 1040 ;
1041 [label="X[17] <= 597.1\ngini = 0.444\nsamples = 6\nvalue = [4, 2]"] ;
1039 -> 1041 ;
1042 [label="gini = 0.0\nsamples = 2\nvalue = [2, 0]"] ;
1041 -> 1042 ;
1043 [label="X[4] <= 8.0\ngini = 0.5\nsamples = 4\nvalue = [2, 2]"] ;
1041 -> 1043 ;
1044 [label="gini = 0.0\nsamples = 1\nvalue = [0, 1]"] ;
1043 -> 1044 ;
1045 [label="X[1] <= 0.5\ngini = 0.444\nsamples = 3\nvalue = [2, 1]"] ;
1043 -> 1045 ;
1046 [label="gini = 0.0\nsamples = 2\nvalue = [2, 0]"] ;
1045 -> 1046 ;
1047 [label="gini = 0.0\nsamples = 1\nvalue = [0, 1]"] ;
1045 -> 1047 ;
1048 [label="X[4] <= 4.5\ngini = 0.491\nsamples = 23\nvalue = [10, 13]"] ;
1030 -> 1048 ;
1049 [label="X[17] <= 228.975\ngini = 0.278\nsamples = 6\nvalue = [5, 1]"] ;
1048 -> 1049 ;
1050 [label="gini = 0.0\nsamples = 1\nvalue = [0, 1]"] ;
1049 -> 1050 ;
1051 [label="gini = 0.0\nsamples = 5\nvalue = [5, 0]"] ;
1049 -> 1051 ;
1052 [label="X[16] <= 93.275\ngini = 0.415\nsamples = 17\nvalue = [5, 12]"] ;
1048 -> 1052 ;
1053 [label="X[17] <= 991.65\ngini = 0.32\nsamples = 15\nvalue = [3, 12]"] ;
1052 -> 1053 ;
1054 [label="X[12] <= 0.5\ngini = 0.245\nsamples = 14\nvalue = [2, 12]"] ;
1053 -> 1054 ;
1055 [label="X[16] <= 91.8\ngini = 0.5\nsamples = 2\nvalue = [1, 1]"] ;
1054 -> 1055 ;
1056 [label="gini = 0.0\nsamples = 1\nvalue = [1, 0]"] ;
1055 -> 1056 ;
1057 [label="gini = 0.0\nsamples = 1\nvalue = [0, 1]"] ;
1055 -> 1057 ;
1058 [label="X[16] <= 89.4\ngini = 0.153\nsamples = 12\nvalue = [1, 11]"] ;
1054 -> 1058 ;
1059 [label="X[1] <= 0.5\ngini = 0.444\nsamples = 3\nvalue = [1, 2]"] ;
1058 -> 1059 ;
1060 [label="gini = 0.0\nsamples = 2\nvalue = [0, 2]"] ;
1059 -> 1060 ;
1061 [label="gini = 0.0\nsamples = 1\nvalue = [1, 0]"] ;
1059 -> 1061 ;
1062 [label="gini = 0.0\nsamples = 9\nvalue = [0, 9]"] ;
1058 -> 1062 ;
1063 [label="gini = 0.0\nsamples = 1\nvalue = [1, 0]"] ;
1053 -> 1063 ;
1064 [label="gini = 0.0\nsamples = 2\nvalue = [2, 0]"] ;
1052 -> 1064 ;
1065 [label="gini = 0.0\nsamples = 4\nvalue = [0, 4]"] ;
1029 -> 1065 ;
1066 [label="X[16] <= 80.775\ngini = 0.42\nsamples = 20\nvalue = [14, 6]"] ;
978 -> 1066 ;
1067 [label="gini = 0.0\nsamples = 6\nvalue = [6, 0]"] ;
1066 -> 1067 ;
1068 [label="X[16] <= 89.375\ngini = 0.49\nsamples = 14\nvalue = [8, 6]"] ;
1066 -> 1068 ;
1069 [label="X[16] <= 84.775\ngini = 0.444\nsamples = 9\nvalue = [3, 6]"] ;
1068 -> 1069 ;
1070 [label="X[17] <= 769.475\ngini = 0.48\nsamples = 5\nvalue = [3, 2]"] ;
1069 -> 1070 ;
1071 [label="gini = 0.0\nsamples = 2\nvalue = [2, 0]"] ;
1070 -> 1071 ;
1072 [label="X[14] <= 0.5\ngini = 0.444\nsamples = 3\nvalue = [1, 2]"] ;
1070 -> 1072 ;
1073 [label="gini = 0.0\nsamples = 2\nvalue = [0, 2]"] ;
1072 -> 1073 ;
1074 [label="gini = 0.0\nsamples = 1\nvalue = [1, 0]"] ;
1072 -> 1074 ;
1075 [label="gini = 0.0\nsamples = 4\nvalue = [0, 4]"] ;
1069 -> 1075 ;
1076 [label="gini = 0.0\nsamples = 5\nvalue = [5, 0]"] ;
1068 -> 1076 ;
1077 [label="X[16] <= 100.075\ngini = 0.408\nsamples = 42\nvalue = [12, 30]"] ;
977 -> 1077 ;
1078 [label="X[17] <= 757.8\ngini = 0.353\nsamples = 35\nvalue = [8, 27]"] ;
1077 -> 1078 ;
1079 [label="X[17] <= 385.7\ngini = 0.227\nsamples = 23\nvalue = [3, 20]"] ;
1078 -> 1079 ;
1080 [label="X[14] <= 0.5\ngini = 0.444\nsamples = 9\nvalue = [3, 6]"] ;
1079 -> 1080 ;
1081 [label="X[16] <= 95.175\ngini = 0.444\nsamples = 3\nvalue = [2, 1]"] ;
1080 -> 1081 ;
1082 [label="gini = 0.0\nsamples = 1\nvalue = [0, 1]"] ;
1081 -> 1082 ;
1083 [label="gini = 0.0\nsamples = 2\nvalue = [2, 0]"] ;
1081 -> 1083 ;
1084 [label="X[17] <= 378.3\ngini = 0.278\nsamples = 6\nvalue = [1, 5]"] ;
1080 -> 1084 ;
1085 [label="gini = 0.0\nsamples = 5\nvalue = [0, 5]"] ;
1084 -> 1085 ;
1086 [label="gini = 0.0\nsamples = 1\nvalue = [1, 0]"] ;
1084 -> 1086 ;
1087 [label="gini = 0.0\nsamples = 14\nvalue = [0, 14]"] ;
1079 -> 1087 ;
1088 [label="X[16] <= 97.5\ngini = 0.486\nsamples = 12\nvalue = [5, 7]"] ;
1078 -> 1088 ;
1089 [label="X[16] <= 95.05\ngini = 0.494\nsamples = 9\nvalue = [5, 4]"] ;
1088 -> 1089 ;
1090 [label="X[16] <= 94.8\ngini = 0.375\nsamples = 4\nvalue = [1, 3]"] ;
1089 -> 1090 ;
1091 [label="gini = 0.0\nsamples = 1\nvalue = [1, 0]"] ;
1090 -> 1091 ;
1092 [label="gini = 0.0\nsamples = 3\nvalue = [0, 3]"] ;
1090 -> 1092 ;
1093 [label="X[0] <= 0.5\ngini = 0.32\nsamples = 5\nvalue = [4, 1]"] ;
1089 -> 1093 ;
1094 [label="X[4] <= 12.5\ngini = 0.5\nsamples = 2\nvalue = [1, 1]"] ;
1093 -> 1094 ;
1095 [label="gini = 0.0\nsamples = 1\nvalue = [0, 1]"] ;
1094 -> 1095 ;
1096 [label="gini = 0.0\nsamples = 1\nvalue = [1, 0]"] ;
1094 -> 1096 ;
1097 [label="gini = 0.0\nsamples = 3\nvalue = [3, 0]"] ;
1093 -> 1097 ;
1098 [label="gini = 0.0\nsamples = 3\nvalue = [0, 3]"] ;
1088 -> 1098 ;
1099 [label="X[4] <= 7.5\ngini = 0.49\nsamples = 7\nvalue = [4, 3]"] ;
1077 -> 1099 ;
1100 [label="gini = 0.0\nsamples = 3\nvalue = [3, 0]"] ;
1099 -> 1100 ;
1101 [label="X[9] <= 0.5\ngini = 0.375\nsamples = 4\nvalue = [1, 3]"] ;
1099 -> 1101 ;
1102 [label="gini = 0.0\nsamples = 1\nvalue = [1, 0]"] ;
1101 -> 1102 ;
1103 [label="gini = 0.0\nsamples = 3\nvalue = [0, 3]"] ;
1101 -> 1103 ;
1104 [label="X[16] <= 80.4\ngini = 0.384\nsamples = 278\nvalue = [72, 206]"] ;
872 -> 1104 ;
1105 [label="X[17] <= 523.25\ngini = 0.485\nsamples = 92\nvalue = [38, 54]"] ;
1104 -> 1105 ;
1106 [label="X[16] <= 79.325\ngini = 0.38\nsamples = 51\nvalue = [13, 38]"] ;
1105 -> 1106 ;
1107 [label="X[17] <= 150.35\ngini = 0.273\nsamples = 43\nvalue = [7, 36]"] ;
1106 -> 1107 ;
1108 [label="X[15] <= 2.0\ngini = 0.444\nsamples = 3\nvalue = [2, 1]"] ;
1107 -> 1108 ;
1109 [label="gini = 0.0\nsamples = 1\nvalue = [0, 1]"] ;
1108 -> 1109 ;
1110 [label="gini = 0.0\nsamples = 2\nvalue = [2, 0]"] ;
1108 -> 1110 ;
1111 [label="X[1] <= 0.5\ngini = 0.219\nsamples = 40\nvalue = [5, 35]"] ;
1107 -> 1111 ;
1112 [label="X[15] <= 1.5\ngini = 0.271\nsamples = 31\nvalue = [5, 26]"] ;
1111 -> 1112 ;
1113 [label="gini = 0.0\nsamples = 8\nvalue = [0, 8]"] ;
1112 -> 1113 ;
1114 [label="X[17] <= 224.925\ngini = 0.34\nsamples = 23\nvalue = [5, 18]"] ;
1112 -> 1114 ;
1115 [label="X[17] <= 223.125\ngini = 0.5\nsamples = 4\nvalue = [2, 2]"] ;
1114 -> 1115 ;
1116 [label="gini = 0.0\nsamples = 2\nvalue = [0, 2]"] ;
1115 -> 1116 ;
1117 [label="gini = 0.0\nsamples = 2\nvalue = [2, 0]"] ;
1115 -> 1117 ;
1118 [label="X[0] <= 0.5\ngini = 0.266\nsamples = 19\nvalue = [3, 16]"] ;
1114 -> 1118 ;
1119 [label="X[17] <= 227.925\ngini = 0.42\nsamples = 10\nvalue = [3, 7]"] ;
1118 -> 1119 ;
1120 [label="gini = 0.0\nsamples = 4\nvalue = [0, 4]"] ;
1119 -> 1120 ;
1121 [label="X[16] <= 75.6\ngini = 0.5\nsamples = 6\nvalue = [3, 3]"] ;
1119 -> 1121 ;
1122 [label="X[15] <= 2.5\ngini = 0.375\nsamples = 4\nvalue = [1, 3]"] ;
1121 -> 1122 ;
1123 [label="gini = 0.0\nsamples = 3\nvalue = [0, 3]"] ;
1122 -> 1123 ;
1124 [label="gini = 0.0\nsamples = 1\nvalue = [1, 0]"] ;
1122 -> 1124 ;
1125 [label="gini = 0.0\nsamples = 2\nvalue = [2, 0]"] ;
1121 -> 1125 ;
1126 [label="gini = 0.0\nsamples = 9\nvalue = [0, 9]"] ;
1118 -> 1126 ;
1127 [label="gini = 0.0\nsamples = 9\nvalue = [0, 9]"] ;
1111 -> 1127 ;
1128 [label="X[4] <= 4.5\ngini = 0.375\nsamples = 8\nvalue = [6, 2]"] ;
1106 -> 1128 ;
1129 [label="gini = 0.0\nsamples = 6\nvalue = [6, 0]"] ;
1128 -> 1129 ;
1130 [label="gini = 0.0\nsamples = 2\nvalue = [0, 2]"] ;
1128 -> 1130 ;
1131 [label="X[16] <= 75.025\ngini = 0.476\nsamples = 41\nvalue = [25, 16]"] ;
1105 -> 1131 ;
1132 [label="X[9] <= 0.5\ngini = 0.48\nsamples = 20\nvalue = [8, 12]"] ;
1131 -> 1132 ;
1133 [label="X[17] <= 668.7\ngini = 0.415\nsamples = 17\nvalue = [5, 12]"] ;
1132 -> 1133 ;
1134 [label="X[0] <= 0.5\ngini = 0.444\nsamples = 6\nvalue = [4, 2]"] ;
1133 -> 1134 ;
1135 [label="X[17] <= 578.6\ngini = 0.444\nsamples = 3\nvalue = [1, 2]"] ;
1134 -> 1135 ;
1136 [label="gini = 0.0\nsamples = 2\nvalue = [0, 2]"] ;
1135 -> 1136 ;
1137 [label="gini = 0.0\nsamples = 1\nvalue = [1, 0]"] ;
1135 -> 1137 ;
1138 [label="gini = 0.0\nsamples = 3\nvalue = [3, 0]"] ;
1134 -> 1138 ;
1139 [label="X[16] <= 73.525\ngini = 0.165\nsamples = 11\nvalue = [1, 10]"] ;
1133 -> 1139 ;
1140 [label="X[4] <= 11.0\ngini = 0.5\nsamples = 2\nvalue = [1, 1]"] ;
1139 -> 1140 ;
1141 [label="gini = 0.0\nsamples = 1\nvalue = [0, 1]"] ;
1140 -> 1141 ;
1142 [label="gini = 0.0\nsamples = 1\nvalue = [1, 0]"] ;
1140 -> 1142 ;
1143 [label="gini = 0.0\nsamples = 9\nvalue = [0, 9]"] ;
1139 -> 1143 ;
1144 [label="gini = 0.0\nsamples = 3\nvalue = [3, 0]"] ;
1132 -> 1144 ;
1145 [label="X[15] <= 0.5\ngini = 0.308\nsamples = 21\nvalue = [17, 4]"] ;
1131 -> 1145 ;
1146 [label="X[16] <= 78.95\ngini = 0.444\nsamples = 3\nvalue = [1, 2]"] ;
1145 -> 1146 ;
1147 [label="gini = 0.0\nsamples = 1\nvalue = [1, 0]"] ;
1146 -> 1147 ;
1148 [label="gini = 0.0\nsamples = 2\nvalue = [0, 2]"] ;
1146 -> 1148 ;
1149 [label="X[17] <= 834.625\ngini = 0.198\nsamples = 18\nvalue = [16, 2]"] ;
1145 -> 1149 ;
1150 [label="gini = 0.0\nsamples = 10\nvalue = [10, 0]"] ;
1149 -> 1150 ;
1151 [label="X[17] <= 850.3\ngini = 0.375\nsamples = 8\nvalue = [6, 2]"] ;
1149 -> 1151 ;
1152 [label="gini = 0.0\nsamples = 1\nvalue = [0, 1]"] ;
1151 -> 1152 ;
1153 [label="X[17] <= 947.1\ngini = 0.245\nsamples = 7\nvalue = [6, 1]"] ;
1151 -> 1153 ;
1154 [label="X[17] <= 929.4\ngini = 0.444\nsamples = 3\nvalue = [2, 1]"] ;
1153 -> 1154 ;
1155 [label="gini = 0.0\nsamples = 2\nvalue = [2, 0]"] ;
1154 -> 1155 ;
1156 [label="gini = 0.0\nsamples = 1\nvalue = [0, 1]"] ;
1154 -> 1156 ;
1157 [label="gini = 0.0\nsamples = 4\nvalue = [4, 0]"] ;
1153 -> 1157 ;
1158 [label="X[14] <= 0.5\ngini = 0.299\nsamples = 186\nvalue = [34, 152]"] ;
1104 -> 1158 ;
1159 [label="X[16] <= 103.325\ngini = 0.451\nsamples = 32\nvalue = [11, 21]"] ;
1158 -> 1159 ;
1160 [label="X[17] <= 1292.85\ngini = 0.42\nsamples = 30\nvalue = [9, 21]"] ;
1159 -> 1160 ;
1161 [label="X[16] <= 97.35\ngini = 0.4\nsamples = 29\nvalue = [8, 21]"] ;
1160 -> 1161 ;
1162 [label="X[12] <= 0.5\ngini = 0.444\nsamples = 24\nvalue = [8, 16]"] ;
1161 -> 1162 ;
1163 [label="X[8] <= 0.5\ngini = 0.198\nsamples = 9\nvalue = [1, 8]"] ;
1162 -> 1163 ;
1164 [label="gini = 0.0\nsamples = 7\nvalue = [0, 7]"] ;
1163 -> 1164 ;
1165 [label="X[16] <= 91.2\ngini = 0.5\nsamples = 2\nvalue = [1, 1]"] ;
1163 -> 1165 ;
1166 [label="gini = 0.0\nsamples = 1\nvalue = [1, 0]"] ;
1165 -> 1166 ;
1167 [label="gini = 0.0\nsamples = 1\nvalue = [0, 1]"] ;
1165 -> 1167 ;
1168 [label="X[4] <= 10.5\ngini = 0.498\nsamples = 15\nvalue = [7, 8]"] ;
1162 -> 1168 ;
1169 [label="X[16] <= 96.1\ngini = 0.444\nsamples = 12\nvalue = [4, 8]"] ;
1168 -> 1169 ;
1170 [label="X[0] <= 0.5\ngini = 0.397\nsamples = 11\nvalue = [3, 8]"] ;
1169 -> 1170 ;
1171 [label="X[16] <= 86.2\ngini = 0.49\nsamples = 7\nvalue = [3, 4]"] ;
1170 -> 1171 ;
1172 [label="gini = 0.0\nsamples = 2\nvalue = [2, 0]"] ;
1171 -> 1172 ;
1173 [label="X[16] <= 94.65\ngini = 0.32\nsamples = 5\nvalue = [1, 4]"] ;
1171 -> 1173 ;
1174 [label="gini = 0.0\nsamples = 3\nvalue = [0, 3]"] ;
1173 -> 1174 ;
1175 [label="X[17] <= 524.95\ngini = 0.5\nsamples = 2\nvalue = [1, 1]"] ;
1173 -> 1175 ;
1176 [label="gini = 0.0\nsamples = 1\nvalue = [1, 0]"] ;
1175 -> 1176 ;
1177 [label="gini = 0.0\nsamples = 1\nvalue = [0, 1]"] ;
1175 -> 1177 ;
1178 [label="gini = 0.0\nsamples = 4\nvalue = [0, 4]"] ;
1170 -> 1178 ;
1179 [label="gini = 0.0\nsamples = 1\nvalue = [1, 0]"] ;
1169 -> 1179 ;
1180 [label="gini = 0.0\nsamples = 3\nvalue = [3, 0]"] ;
1168 -> 1180 ;
1181 [label="gini = 0.0\nsamples = 5\nvalue = [0, 5]"] ;
1161 -> 1181 ;
1182 [label="gini = 0.0\nsamples = 1\nvalue = [1, 0]"] ;
1160 -> 1182 ;
1183 [label="gini = 0.0\nsamples = 2\nvalue = [2, 0]"] ;
1159 -> 1183 ;
1184 [label="X[16] <= 90.775\ngini = 0.254\nsamples = 154\nvalue = [23, 131]"] ;
1158 -> 1184 ;
1185 [label="X[16] <= 87.525\ngini = 0.346\nsamples = 72\nvalue = [16, 56]"] ;
1184 -> 1185 ;
1186 [label="X[17] <= 1108.575\ngini = 0.241\nsamples = 57\nvalue = [8, 49]"] ;
1185 -> 1186 ;
1187 [label="X[16] <= 84.2\ngini = 0.219\nsamples = 56\nvalue = [7, 49]"] ;
1186 -> 1187 ;
1188 [label="X[4] <= 5.5\ngini = 0.375\nsamples = 20\nvalue = [5, 15]"] ;
1187 -> 1188 ;
1189 [label="X[16] <= 82.375\ngini = 0.5\nsamples = 8\nvalue = [4, 4]"] ;
1188 -> 1189 ;
1190 [label="gini = 0.0\nsamples = 3\nvalue = [0, 3]"] ;
1189 -> 1190 ;
1191 [label="X[15] <= 1.5\ngini = 0.32\nsamples = 5\nvalue = [4, 1]"] ;
1189 -> 1191 ;
1192 [label="gini = 0.0\nsamples = 1\nvalue = [0, 1]"] ;
1191 -> 1192 ;
1193 [label="gini = 0.0\nsamples = 4\nvalue = [4, 0]"] ;
1191 -> 1193 ;
1194 [label="X[8] <= 0.5\ngini = 0.153\nsamples = 12\nvalue = [1, 11]"] ;
1188 -> 1194 ;
1195 [label="gini = 0.0\nsamples = 11\nvalue = [0, 11]"] ;
1194 -> 1195 ;
1196 [label="gini = 0.0\nsamples = 1\nvalue = [1, 0]"] ;
1194 -> 1196 ;
1197 [label="X[15] <= 0.5\ngini = 0.105\nsamples = 36\nvalue = [2, 34]"] ;
1187 -> 1197 ;
1198 [label="X[17] <= 512.2\ngini = 0.5\nsamples = 2\nvalue = [1, 1]"] ;
1197 -> 1198 ;
1199 [label="gini = 0.0\nsamples = 1\nvalue = [0, 1]"] ;
1198 -> 1199 ;
1200 [label="gini = 0.0\nsamples = 1\nvalue = [1, 0]"] ;
1198 -> 1200 ;
1201 [label="X[17] <= 768.825\ngini = 0.057\nsamples = 34\nvalue = [1, 33]"] ;
1197 -> 1201 ;
1202 [label="gini = 0.0\nsamples = 25\nvalue = [0, 25]"] ;
1201 -> 1202 ;
1203 [label="X[17] <= 811.0\ngini = 0.198\nsamples = 9\nvalue = [1, 8]"] ;
1201 -> 1203 ;
1204 [label="gini = 0.0\nsamples = 1\nvalue = [1, 0]"] ;
1203 -> 1204 ;
1205 [label="gini = 0.0\nsamples = 8\nvalue = [0, 8]"] ;
1203 -> 1205 ;
1206 [label="gini = 0.0\nsamples = 1\nvalue = [1, 0]"] ;
1186 -> 1206 ;
1207 [label="X[4] <= 5.5\ngini = 0.498\nsamples = 15\nvalue = [8, 7]"] ;
1185 -> 1207 ;
1208 [label="gini = 0.0\nsamples = 5\nvalue = [0, 5]"] ;
1207 -> 1208 ;
1209 [label="X[4] <= 7.5\ngini = 0.32\nsamples = 10\nvalue = [8, 2]"] ;
1207 -> 1209 ;
1210 [label="X[17] <= 539.55\ngini = 0.48\nsamples = 5\nvalue = [3, 2]"] ;
1209 -> 1210 ;
1211 [label="gini = 0.0\nsamples = 2\nvalue = [2, 0]"] ;
1210 -> 1211 ;
1212 [label="X[11] <= 0.5\ngini = 0.444\nsamples = 3\nvalue = [1, 2]"] ;
1210 -> 1212 ;
1213 [label="gini = 0.0\nsamples = 1\nvalue = [1, 0]"] ;
1212 -> 1213 ;
1214 [label="gini = 0.0\nsamples = 2\nvalue = [0, 2]"] ;
1212 -> 1214 ;
1215 [label="gini = 0.0\nsamples = 5\nvalue = [5, 0]"] ;
1209 -> 1215 ;
1216 [label="X[16] <= 109.15\ngini = 0.156\nsamples = 82\nvalue = [7, 75]"] ;
1184 -> 1216 ;
1217 [label="X[17] <= 953.0\ngini = 0.139\nsamples = 80\nvalue = [6, 74]"] ;
1216 -> 1217 ;
1218 [label="X[17] <= 876.6\ngini = 0.208\nsamples = 51\nvalue = [6, 45]"] ;
1217 -> 1218 ;
1219 [label="X[15] <= 2.5\ngini = 0.124\nsamples = 45\nvalue = [3, 42]"] ;
1218 -> 1219 ;
1220 [label="X[10] <= 0.5\ngini = 0.089\nsamples = 43\nvalue = [2, 41]"] ;
1219 -> 1220 ;
1221 [label="X[17] <= 285.075\ngini = 0.05\nsamples = 39\nvalue = [1, 38]"] ;
1220 -> 1221 ;
1222 [label="X[17] <= 284.175\ngini = 0.219\nsamples = 8\nvalue = [1, 7]"] ;
1221 -> 1222 ;
1223 [label="gini = 0.0\nsamples = 7\nvalue = [0, 7]"] ;
1222 -> 1223 ;
1224 [label="gini = 0.0\nsamples = 1\nvalue = [1, 0]"] ;
1222 -> 1224 ;
1225 [label="gini = 0.0\nsamples = 31\nvalue = [0, 31]"] ;
1221 -> 1225 ;
1226 [label="X[1] <= 0.5\ngini = 0.375\nsamples = 4\nvalue = [1, 3]"] ;
1220 -> 1226 ;
1227 [label="gini = 0.0\nsamples = 3\nvalue = [0, 3]"] ;
1226 -> 1227 ;
1228 [label="gini = 0.0\nsamples = 1\nvalue = [1, 0]"] ;
1226 -> 1228 ;
1229 [label="X[12] <= 0.5\ngini = 0.5\nsamples = 2\nvalue = [1, 1]"] ;
1219 -> 1229 ;
1230 [label="gini = 0.0\nsamples = 1\nvalue = [1, 0]"] ;
1229 -> 1230 ;
1231 [label="gini = 0.0\nsamples = 1\nvalue = [0, 1]"] ;
1229 -> 1231 ;
1232 [label="X[1] <= 0.5\ngini = 0.5\nsamples = 6\nvalue = [3, 3]"] ;
1218 -> 1232 ;
1233 [label="X[16] <= 95.05\ngini = 0.375\nsamples = 4\nvalue = [3, 1]"] ;
1232 -> 1233 ;
1234 [label="gini = 0.0\nsamples = 1\nvalue = [0, 1]"] ;
1233 -> 1234 ;
1235 [label="gini = 0.0\nsamples = 3\nvalue = [3, 0]"] ;
1233 -> 1235 ;
1236 [label="gini = 0.0\nsamples = 2\nvalue = [0, 2]"] ;
1232 -> 1236 ;
1237 [label="gini = 0.0\nsamples = 29\nvalue = [0, 29]"] ;
1217 -> 1237 ;
1238 [label="X[15] <= 2.5\ngini = 0.5\nsamples = 2\nvalue = [1, 1]"] ;
1216 -> 1238 ;
1239 [label="gini = 0.0\nsamples = 1\nvalue = [1, 0]"] ;
1238 -> 1239 ;
1240 [label="gini = 0.0\nsamples = 1\nvalue = [0, 1]"] ;
1238 -> 1240 ;
1241 [label="X[7] <= 0.5\ngini = 0.476\nsamples = 990\nvalue = [604, 386]"] ;
755 -> 1241 ;
1242 [label="X[16] <= 68.875\ngini = 0.071\nsamples = 54\nvalue = [52, 2]"] ;
1241 -> 1242 ;
1243 [label="gini = 0.0\nsamples = 1\nvalue = [0, 1]"] ;
1242 -> 1243 ;
1244 [label="X[17] <= 3214.075\ngini = 0.037\nsamples = 53\nvalue = [52, 1]"] ;
1242 -> 1244 ;
1245 [label="gini = 0.0\nsamples = 43\nvalue = [43, 0]"] ;
1244 -> 1245 ;
1246 [label="X[4] <= 43.0\ngini = 0.18\nsamples = 10\nvalue = [9, 1]"] ;
1244 -> 1246 ;
1247 [label="gini = 0.0\nsamples = 1\nvalue = [0, 1]"] ;
1246 -> 1247 ;
1248 [label="gini = 0.0\nsamples = 9\nvalue = [9, 0]"] ;
1246 -> 1248 ;
1249 [label="X[4] <= 53.5\ngini = 0.484\nsamples = 936\nvalue = [552, 384]"] ;
1241 -> 1249 ;
1250 [label="X[15] <= 1.5\ngini = 0.494\nsamples = 786\nvalue = [436, 350]"] ;
1249 -> 1250 ;
1251 [label="X[16] <= 96.0\ngini = 0.463\nsamples = 302\nvalue = [192, 110]"] ;
1250 -> 1251 ;
1252 [label="X[16] <= 94.75\ngini = 0.438\nsamples = 219\nvalue = [148, 71]"] ;
1251 -> 1252 ;
1253 [label="X[17] <= 3324.275\ngini = 0.454\nsamples = 198\nvalue = [129, 69]"] ;
1252 -> 1253 ;
1254 [label="X[9] <= 0.5\ngini = 0.475\nsamples = 155\nvalue = [95, 60]"] ;
1253 -> 1254 ;
1255 [label="X[12] <= 0.5\ngini = 0.492\nsamples = 114\nvalue = [64, 50]"] ;
1254 -> 1255 ;
1256 [label="X[17] <= 2454.025\ngini = 0.474\nsamples = 88\nvalue = [54, 34]"] ;
1255 -> 1256 ;
1257 [label="X[16] <= 74.975\ngini = 0.43\nsamples = 64\nvalue = [44, 20]"] ;
1256 -> 1257 ;
1258 [label="X[14] <= 0.5\ngini = 0.5\nsamples = 28\nvalue = [14, 14]"] ;
1257 -> 1258 ;
1259 [label="X[17] <= 1553.0\ngini = 0.219\nsamples = 8\nvalue = [7, 1]"] ;
1258 -> 1259 ;
1260 [label="X[17] <= 1418.5\ngini = 0.375\nsamples = 4\nvalue = [3, 1]"] ;
1259 -> 1260 ;
1261 [label="gini = 0.0\nsamples = 3\nvalue = [3, 0]"] ;
1260 -> 1261 ;
1262 [label="gini = 0.0\nsamples = 1\nvalue = [0, 1]"] ;
1260 -> 1262 ;
1263 [label="gini = 0.0\nsamples = 4\nvalue = [4, 0]"] ;
1259 -> 1263 ;
1264 [label="X[16] <= 70.175\ngini = 0.455\nsamples = 20\nvalue = [7, 13]"] ;
1258 -> 1264 ;
1265 [label="X[4] <= 29.0\ngini = 0.375\nsamples = 4\nvalue = [3, 1]"] ;
1264 -> 1265 ;
1266 [label="gini = 0.0\nsamples = 3\nvalue = [3, 0]"] ;
1265 -> 1266 ;
1267 [label="gini = 0.0\nsamples = 1\nvalue = [0, 1]"] ;
1265 -> 1267 ;
1268 [label="X[4] <= 29.5\ngini = 0.375\nsamples = 16\nvalue = [4, 12]"] ;
1264 -> 1268 ;
1269 [label="X[16] <= 74.425\ngini = 0.32\nsamples = 15\nvalue = [3, 12]"] ;
1268 -> 1269 ;
1270 [label="gini = 0.0\nsamples = 9\nvalue = [0, 9]"] ;
1269 -> 1270 ;
