digraph Tree {
node [shape=box] ;
0 [label="X[0] <= -1602.121\nentropy = 1.0\nsamples = 8278\nvalue = [4153, 4125]"] ;
1 [label="X[0] <= -1929.949\nentropy = 0.906\nsamples = 2598\nvalue = [836, 1762]"] ;
0 -> 1 [labeldistance=2.5, labelangle=45, headlabel="True"] ;
2 [label="X[0] <= -1963.484\nentropy = 0.802\nsamples = 1253\nvalue = [306, 947]"] ;
1 -> 2 ;
3 [label="X[0] <= -2010.638\nentropy = 0.927\nsamples = 651\nvalue = [223, 428]"] ;
2 -> 3 ;
4 [label="X[0] <= -2010.915\nentropy = 0.337\nsamples = 16\nvalue = [15, 1]"] ;
3 -> 4 ;
5 [label="entropy = 0.0\nsamples = 10\nvalue = [10, 0]"] ;
4 -> 5 ;
6 [label="X[0] <= -2010.864\nentropy = 0.65\nsamples = 6\nvalue = [5, 1]"] ;
4 -> 6 ;
7 [label="entropy = 1.0\nsamples = 2\nvalue = [1, 1]"] ;
6 -> 7 ;
8 [label="entropy = 0.0\nsamples = 4\nvalue = [4, 0]"] ;
6 -> 8 ;
9 [label="X[0] <= -1969.211\nentropy = 0.912\nsamples = 635\nvalue = [208, 427]"] ;
3 -> 9 ;
10 [label="X[0] <= -1985.221\nentropy = 0.904\nsamples = 620\nvalue = [198, 422]"] ;
9 -> 10 ;
11 [label="X[0] <= -1989.928\nentropy = 0.947\nsamples = 356\nvalue = [130, 226]"] ;
10 -> 11 ;
12 [label="X[0] <= -2005.474\nentropy = 0.9\nsamples = 301\nvalue = [95, 206]"] ;
11 -> 12 ;
13 [label="X[0] <= -2009.454\nentropy = 0.95\nsamples = 198\nvalue = [73, 125]"] ;
12 -> 13 ;
14 [label="X[0] <= -2009.68\nentropy = 0.911\nsamples = 144\nvalue = [47, 97]"] ;
13 -> 14 ;
15 [label="X[0] <= -2009.706\nentropy = 0.96\nsamples = 107\nvalue = [41, 66]"] ;
14 -> 15 ;
16 [label="X[0] <= -2010.587\nentropy = 0.943\nsamples = 100\nvalue = [36, 64]"] ;
15 -> 16 ;
17 [label="entropy = 0.0\nsamples = 3\nvalue = [0, 3]"] ;
16 -> 17 ;
18 [label="X[0] <= -2010.512\nentropy = 0.952\nsamples = 97\nvalue = [36, 61]"] ;
16 -> 18 ;
19 [label="entropy = 0.0\nsamples = 3\nvalue = [3, 0]"] ;
18 -> 19 ;
20 [label="X[0] <= -2009.907\nentropy = 0.935\nsamples = 94\nvalue = [33, 61]"] ;
18 -> 20 ;
21 [label="X[0] <= -2010.084\nentropy = 0.961\nsamples = 65\nvalue = [25, 40]"] ;
20 -> 21 ;
22 [label="X[0] <= -2010.159\nentropy = 0.904\nsamples = 50\nvalue = [16, 34]"] ;
21 -> 22 ;
23 [label="X[0] <= -2010.21\nentropy = 0.971\nsamples = 35\nvalue = [14, 21]"] ;
22 -> 23 ;
24 [label="X[0] <= -2010.285\nentropy = 0.881\nsamples = 30\nvalue = [9, 21]"] ;
23 -> 24 ;
25 [label="X[0] <= -2010.436\nentropy = 0.954\nsamples = 16\nvalue = [6, 10]"] ;
24 -> 25 ;
26 [label="X[0] <= -2010.461\nentropy = 0.764\nsamples = 9\nvalue = [2, 7]"] ;
25 -> 26 ;
27 [label="entropy = 0.971\nsamples = 5\nvalue = [2, 3]"] ;
26 -> 27 ;
28 [label="entropy = 0.0\nsamples = 4\nvalue = [0, 4]"] ;
26 -> 28 ;
29 [label="X[0] <= -2010.386\nentropy = 0.985\nsamples = 7\nvalue = [4, 3]"] ;
25 -> 29 ;
30 [label="entropy = 0.0\nsamples = 1\nvalue = [1, 0]"] ;
29 -> 30 ;
31 [label="X[0] <= -2010.31\nentropy = 1.0\nsamples = 6\nvalue = [3, 3]"] ;
29 -> 31 ;
32 [label="entropy = 1.0\nsamples = 4\nvalue = [2, 2]"] ;
31 -> 32 ;
33 [label="entropy = 1.0\nsamples = 2\nvalue = [1, 1]"] ;
31 -> 33 ;
34 [label="X[0] <= -2010.26\nentropy = 0.75\nsamples = 14\nvalue = [3, 11]"] ;
24 -> 34 ;
35 [label="entropy = 0.503\nsamples = 9\nvalue = [1, 8]"] ;
34 -> 35 ;
36 [label="entropy = 0.971\nsamples = 5\nvalue = [2, 3]"] ;
34 -> 36 ;
37 [label="entropy = 0.0\nsamples = 5\nvalue = [5, 0]"] ;
23 -> 37 ;
38 [label="X[0] <= -2010.109\nentropy = 0.567\nsamples = 15\nvalue = [2, 13]"] ;
22 -> 38 ;
39 [label="entropy = 0.0\nsamples = 8\nvalue = [0, 8]"] ;
38 -> 39 ;
40 [label="entropy = 0.863\nsamples = 7\nvalue = [2, 5]"] ;
38 -> 40 ;
41 [label="X[0] <= -2010.058\nentropy = 0.971\nsamples = 15\nvalue = [9, 6]"] ;
21 -> 41 ;
42 [label="entropy = 0.0\nsamples = 2\nvalue = [2, 0]"] ;
41 -> 42 ;
43 [label="X[0] <= -2009.932\nentropy = 0.996\nsamples = 13\nvalue = [7, 6]"] ;
41 -> 43 ;
44 [label="X[0] <= -2009.958\nentropy = 1.0\nsamples = 12\nvalue = [6, 6]"] ;
43 -> 44 ;
45 [label="X[0] <= -2010.008\nentropy = 0.971\nsamples = 10\nvalue = [6, 4]"] ;
44 -> 45 ;
46 [label="entropy = 0.918\nsamples = 3\nvalue = [1, 2]"] ;
45 -> 46 ;
47 [label="X[0] <= -2009.983\nentropy = 0.863\nsamples = 7\nvalue = [5, 2]"] ;
45 -> 47 ;
48 [label="entropy = 0.918\nsamples = 6\nvalue = [4, 2]"] ;
47 -> 48 ;
49 [label="entropy = 0.0\nsamples = 1\nvalue = [1, 0]"] ;
47 -> 49 ;
50 [label="entropy = 0.0\nsamples = 2\nvalue = [0, 2]"] ;
44 -> 50 ;
51 [label="entropy = 0.0\nsamples = 1\nvalue = [1, 0]"] ;
43 -> 51 ;
52 [label="X[0] <= -2009.882\nentropy = 0.85\nsamples = 29\nvalue = [8, 21]"] ;
20 -> 52 ;
53 [label="entropy = 0.0\nsamples = 4\nvalue = [0, 4]"] ;
52 -> 53 ;
54 [label="X[0] <= -2009.857\nentropy = 0.904\nsamples = 25\nvalue = [8, 17]"] ;
52 -> 54 ;
55 [label="entropy = 0.0\nsamples = 1\nvalue = [1, 0]"] ;
54 -> 55 ;
56 [label="X[0] <= -2009.756\nentropy = 0.871\nsamples = 24\nvalue = [7, 17]"] ;
54 -> 56 ;
57 [label="X[0] <= -2009.806\nentropy = 0.852\nsamples = 18\nvalue = [5, 13]"] ;
56 -> 57 ;
58 [label="entropy = 0.863\nsamples = 14\nvalue = [4, 10]"] ;
57 -> 58 ;
59 [label="entropy = 0.811\nsamples = 4\nvalue = [1, 3]"] ;
57 -> 59 ;
60 [label="entropy = 0.918\nsamples = 6\nvalue = [2, 4]"] ;
56 -> 60 ;
61 [label="entropy = 0.863\nsamples = 7\nvalue = [5, 2]"] ;
15 -> 61 ;
62 [label="X[0] <= -2009.605\nentropy = 0.639\nsamples = 37\nvalue = [6, 31]"] ;
14 -> 62 ;
63 [label="entropy = 0.0\nsamples = 8\nvalue = [0, 8]"] ;
62 -> 63 ;
64 [label="X[0] <= -2009.529\nentropy = 0.736\nsamples = 29\nvalue = [6, 23]"] ;
62 -> 64 ;
65 [label="X[0] <= -2009.58\nentropy = 0.811\nsamples = 20\nvalue = [5, 15]"] ;
64 -> 65 ;
66 [label="entropy = 0.722\nsamples = 5\nvalue = [1, 4]"] ;
65 -> 66 ;
67 [label="X[0] <= -2009.555\nentropy = 0.837\nsamples = 15\nvalue = [4, 11]"] ;
65 -> 67 ;
68 [label="entropy = 0.918\nsamples = 3\nvalue = [1, 2]"] ;
67 -> 68 ;
69 [label="entropy = 0.811\nsamples = 12\nvalue = [3, 9]"] ;
67 -> 69 ;
70 [label="X[0] <= -2009.504\nentropy = 0.503\nsamples = 9\nvalue = [1, 8]"] ;
64 -> 70 ;
71 [label="entropy = 0.0\nsamples = 4\nvalue = [0, 4]"] ;
70 -> 71 ;
72 [label="entropy = 0.722\nsamples = 5\nvalue = [1, 4]"] ;
70 -> 72 ;
73 [label="X[0] <= -2009.252\nentropy = 0.999\nsamples = 54\nvalue = [26, 28]"] ;
13 -> 73 ;
74 [label="X[0] <= -2009.328\nentropy = 0.934\nsamples = 20\nvalue = [13, 7]"] ;
73 -> 74 ;
75 [label="X[0] <= -2009.429\nentropy = 1.0\nsamples = 14\nvalue = [7, 7]"] ;
74 -> 75 ;
76 [label="entropy = 0.0\nsamples = 2\nvalue = [2, 0]"] ;
75 -> 76 ;
77 [label="X[0] <= -2009.353\nentropy = 0.98\nsamples = 12\nvalue = [5, 7]"] ;
75 -> 77 ;
78 [label="X[0] <= -2009.403\nentropy = 0.985\nsamples = 7\nvalue = [4, 3]"] ;
77 -> 78 ;
79 [label="entropy = 0.971\nsamples = 5\nvalue = [2, 3]"] ;
78 -> 79 ;
80 [label="entropy = 0.0\nsamples = 2\nvalue = [2, 0]"] ;
78 -> 80 ;
81 [label="entropy = 0.722\nsamples = 5\nvalue = [1, 4]"] ;
77 -> 81 ;
82 [label="entropy = 0.0\nsamples = 6\nvalue = [6, 0]"] ;
74 -> 82 ;
83 [label="X[0] <= -2009.177\nentropy = 0.96\nsamples = 34\nvalue = [13, 21]"] ;
73 -> 83 ;
84 [label="X[0] <= -2009.202\nentropy = 0.503\nsamples = 9\nvalue = [1, 8]"] ;
83 -> 84 ;
85 [label="entropy = 0.592\nsamples = 7\nvalue = [1, 6]"] ;
84 -> 85 ;
86 [label="entropy = 0.0\nsamples = 2\nvalue = [0, 2]"] ;
84 -> 86 ;
87 [label="X[0] <= -2008.9\nentropy = 0.999\nsamples = 25\nvalue = [12, 13]"] ;
83 -> 87 ;
88 [label="X[0] <= -2009.101\nentropy = 0.811\nsamples = 8\nvalue = [6, 2]"] ;
87 -> 88 ;
89 [label="X[0] <= -2009.151\nentropy = 1.0\nsamples = 4\nvalue = [2, 2]"] ;
88 -> 89 ;
90 [label="entropy = 0.0\nsamples = 1\nvalue = [1, 0]"] ;
89 -> 90 ;
91 [label="entropy = 0.918\nsamples = 3\nvalue = [1, 2]"] ;
89 -> 91 ;
92 [label="entropy = 0.0\nsamples = 4\nvalue = [4, 0]"] ;
88 -> 92 ;
93 [label="X[0] <= -2008.698\nentropy = 0.937\nsamples = 17\nvalue = [6, 11]"] ;
87 -> 93 ;
94 [label="X[0] <= -2008.849\nentropy = 0.722\nsamples = 10\nvalue = [2, 8]"] ;
93 -> 94 ;
95 [label="entropy = 0.0\nsamples = 1\nvalue = [0, 1]"] ;
94 -> 95 ;
96 [label="X[0] <= -2008.748\nentropy = 0.764\nsamples = 9\nvalue = [2, 7]"] ;
94 -> 96 ;
97 [label="X[0] <= -2008.799\nentropy = 0.811\nsamples = 8\nvalue = [2, 6]"] ;
96 -> 97 ;
98 [label="entropy = 0.722\nsamples = 5\nvalue = [1, 4]"] ;
97 -> 98 ;
99 [label="entropy = 0.918\nsamples = 3\nvalue = [1, 2]"] ;
97 -> 99 ;
100 [label="entropy = 0.0\nsamples = 1\nvalue = [0, 1]"] ;
96 -> 100 ;
101 [label="X[0] <= -2007.439\nentropy = 0.985\nsamples = 7\nvalue = [4, 3]"] ;
93 -> 101 ;
102 [label="entropy = 0.0\nsamples = 2\nvalue = [2, 0]"] ;
101 -> 102 ;
103 [label="X[0] <= -2005.978\nentropy = 0.971\nsamples = 5\nvalue = [2, 3]"] ;
101 -> 103 ;
104 [label="entropy = 0.0\nsamples = 2\nvalue = [0, 2]"] ;
103 -> 104 ;
105 [label="X[0] <= -2005.675\nentropy = 0.918\nsamples = 3\nvalue = [2, 1]"] ;
103 -> 105 ;
106 [label="entropy = 0.0\nsamples = 1\nvalue = [1, 0]"] ;
105 -> 106 ;
107 [label="X[0] <= -2005.575\nentropy = 1.0\nsamples = 2\nvalue = [1, 1]"] ;
105 -> 107 ;
108 [label="entropy = 0.0\nsamples = 1\nvalue = [0, 1]"] ;
107 -> 108 ;
109 [label="entropy = 0.0\nsamples = 1\nvalue = [1, 0]"] ;
107 -> 109 ;
110 [label="X[0] <= -1992.242\nentropy = 0.748\nsamples = 103\nvalue = [22, 81]"] ;
12 -> 110 ;
111 [label="X[0] <= -2004.34\nentropy = 0.659\nsamples = 82\nvalue = [14, 68]"] ;
110 -> 111 ;
112 [label="X[0] <= -2004.97\nentropy = 0.559\nsamples = 46\nvalue = [6, 40]"] ;
111 -> 112 ;
113 [label="X[0] <= -2005.046\nentropy = 0.845\nsamples = 11\nvalue = [3, 8]"] ;
112 -> 113 ;
114 [label="X[0] <= -2005.272\nentropy = 0.503\nsamples = 9\nvalue = [1, 8]"] ;
113 -> 114 ;
115 [label="X[0] <= -2005.373\nentropy = 0.811\nsamples = 4\nvalue = [1, 3]"] ;
114 -> 115 ;
116 [label="entropy = 0.0\nsamples = 3\nvalue = [0, 3]"] ;
115 -> 116 ;
117 [label="entropy = 0.0\nsamples = 1\nvalue = [1, 0]"] ;
115 -> 117 ;
118 [label="entropy = 0.0\nsamples = 5\nvalue = [0, 5]"] ;
114 -> 118 ;
119 [label="entropy = 0.0\nsamples = 2\nvalue = [2, 0]"] ;
113 -> 119 ;
120 [label="X[0] <= -2004.794\nentropy = 0.422\nsamples = 35\nvalue = [3, 32]"] ;
112 -> 120 ;
121 [label="entropy = 0.0\nsamples = 8\nvalue = [0, 8]"] ;
120 -> 121 ;
122 [label="X[0] <= -2004.668\nentropy = 0.503\nsamples = 27\nvalue = [3, 24]"] ;
120 -> 122 ;
123 [label="entropy = 0.0\nsamples = 1\nvalue = [1, 0]"] ;
122 -> 123 ;
124 [label="X[0] <= -2004.567\nentropy = 0.391\nsamples = 26\nvalue = [2, 24]"] ;
122 -> 124 ;
125 [label="entropy = 0.0\nsamples = 8\nvalue = [0, 8]"] ;
124 -> 125 ;
126 [label="X[0] <= -2004.517\nentropy = 0.503\nsamples = 18\nvalue = [2, 16]"] ;
124 -> 126 ;
127 [label="entropy = 0.811\nsamples = 4\nvalue = [1, 3]"] ;
126 -> 127 ;
128 [label="X[0] <= -2004.466\nentropy = 0.371\nsamples = 14\nvalue = [1, 13]"] ;
126 -> 128 ;
129 [label="entropy = 0.0\nsamples = 8\nvalue = [0, 8]"] ;
128 -> 129 ;
130 [label="X[0] <= -2004.416\nentropy = 0.65\nsamples = 6\nvalue = [1, 5]"] ;
128 -> 130 ;
131 [label="entropy = 0.811\nsamples = 4\nvalue = [1, 3]"] ;
130 -> 131 ;
132 [label="entropy = 0.0\nsamples = 2\nvalue = [0, 2]"] ;
130 -> 132 ;
133 [label="X[0] <= -2003.912\nentropy = 0.764\nsamples = 36\nvalue = [8, 28]"] ;
111 -> 133 ;
134 [label="X[0] <= -2004.139\nentropy = 0.971\nsamples = 5\nvalue = [3, 2]"] ;
133 -> 134 ;
135 [label="entropy = 0.0\nsamples = 1\nvalue = [1, 0]"] ;
134 -> 135 ;
136 [label="X[0] <= -2003.962\nentropy = 1.0\nsamples = 4\nvalue = [2, 2]"] ;
134 -> 136 ;
137 [label="entropy = 0.918\nsamples = 3\nvalue = [1, 2]"] ;
136 -> 137 ;
138 [label="entropy = 0.0\nsamples = 1\nvalue = [1, 0]"] ;
136 -> 138 ;
139 [label="X[0] <= -2003.862\nentropy = 0.637\nsamples = 31\nvalue = [5, 26]"] ;
133 -> 139 ;
140 [label="entropy = 0.0\nsamples = 4\nvalue = [0, 4]"] ;
139 -> 140 ;
141 [label="X[0] <= -2001.897\nentropy = 0.691\nsamples = 27\nvalue = [5, 22]"] ;
139 -> 141 ;
142 [label="entropy = 0.0\nsamples = 1\nvalue = [1, 0]"] ;
141 -> 142 ;
143 [label="X[0] <= -1997.161\nentropy = 0.619\nsamples = 26\nvalue = [4, 22]"] ;
141 -> 143 ;
144 [label="X[0] <= -1999.73\nentropy = 0.414\nsamples = 12\nvalue = [1, 11]"] ;
143 -> 144 ;
145 [label="X[0] <= -1999.856\nentropy = 0.918\nsamples = 3\nvalue = [1, 2]"] ;
144 -> 145 ;
146 [label="entropy = 0.0\nsamples = 2\nvalue = [0, 2]"] ;
145 -> 146 ;
147 [label="entropy = 0.0\nsamples = 1\nvalue = [1, 0]"] ;
145 -> 147 ;
148 [label="entropy = 0.0\nsamples = 9\nvalue = [0, 9]"] ;
144 -> 148 ;
149 [label="X[0] <= -1994.592\nentropy = 0.75\nsamples = 14\nvalue = [3, 11]"] ;
143 -> 149 ;
150 [label="X[0] <= -1995.473\nentropy = 0.918\nsamples = 3\nvalue = [2, 1]"] ;
149 -> 150 ;
151 [label="entropy = 0.0\nsamples = 1\nvalue = [1, 0]"] ;
150 -> 151 ;
152 [label="X[0] <= -1994.768\nentropy = 1.0\nsamples = 2\nvalue = [1, 1]"] ;
150 -> 152 ;
153 [label="entropy = 0.0\nsamples = 1\nvalue = [0, 1]"] ;
152 -> 153 ;
154 [label="entropy = 0.0\nsamples = 1\nvalue = [1, 0]"] ;
152 -> 154 ;
155 [label="X[0] <= -1993.786\nentropy = 0.439\nsamples = 11\nvalue = [1, 10]"] ;
149 -> 155 ;
156 [label="entropy = 0.0\nsamples = 7\nvalue = [0, 7]"] ;
155 -> 156 ;
157 [label="X[0] <= -1993.433\nentropy = 0.811\nsamples = 4\nvalue = [1, 3]"] ;
155 -> 157 ;
158 [label="entropy = 0.918\nsamples = 3\nvalue = [1, 2]"] ;
157 -> 158 ;
159 [label="entropy = 0.0\nsamples = 1\nvalue = [0, 1]"] ;
157 -> 159 ;
160 [label="X[0] <= -1990.024\nentropy = 0.959\nsamples = 21\nvalue = [8, 13]"] ;
110 -> 160 ;
161 [label="X[0] <= -1990.476\nentropy = 0.997\nsamples = 15\nvalue = [8, 7]"] ;
160 -> 161 ;
162 [label="X[0] <= -1990.827\nentropy = 0.98\nsamples = 12\nvalue = [5, 7]"] ;
161 -> 162 ;
163 [label="X[0] <= -1991.078\nentropy = 0.954\nsamples = 8\nvalue = [5, 3]"] ;
162 -> 163 ;
164 [label="X[0] <= -1991.178\nentropy = 0.971\nsamples = 5\nvalue = [2, 3]"] ;
163 -> 164 ;
165 [label="entropy = 0.0\nsamples = 2\nvalue = [2, 0]"] ;
164 -> 165 ;
166 [label="entropy = 0.0\nsamples = 3\nvalue = [0, 3]"] ;
164 -> 166 ;
167 [label="entropy = 0.0\nsamples = 3\nvalue = [3, 0]"] ;
163 -> 167 ;
168 [label="entropy = 0.0\nsamples = 4\nvalue = [0, 4]"] ;
162 -> 168 ;
169 [label="entropy = 0.0\nsamples = 3\nvalue = [3, 0]"] ;
161 -> 169 ;
170 [label="entropy = 0.0\nsamples = 6\nvalue = [0, 6]"] ;
160 -> 170 ;
171 [label="X[0] <= -1989.5\nentropy = 0.946\nsamples = 55\nvalue = [35, 20]"] ;
11 -> 171 ;
172 [label="entropy = 0.0\nsamples = 10\nvalue = [10, 0]"] ;
171 -> 172 ;
173 [label="X[0] <= -1989.349\nentropy = 0.991\nsamples = 45\nvalue = [25, 20]"] ;
171 -> 173 ;
174 [label="entropy = 0.0\nsamples = 5\nvalue = [0, 5]"] ;
173 -> 174 ;
175 [label="X[0] <= -1988.518\nentropy = 0.954\nsamples = 40\nvalue = [25, 15]"] ;
173 -> 175 ;
176 [label="X[0] <= -1989.02\nentropy = 0.371\nsamples = 14\nvalue = [13, 1]"] ;
175 -> 176 ;
177 [label="X[0] <= -1989.07\nentropy = 0.544\nsamples = 8\nvalue = [7, 1]"] ;
176 -> 177 ;
178 [label="entropy = 0.0\nsamples = 5\nvalue = [5, 0]"] ;
177 -> 178 ;
179 [label="entropy = 0.918\nsamples = 3\nvalue = [2, 1]"] ;
177 -> 179 ;
180 [label="entropy = 0.0\nsamples = 6\nvalue = [6, 0]"] ;
176 -> 180 ;
181 [label="X[0] <= -1985.599\nentropy = 0.996\nsamples = 26\nvalue = [12, 14]"] ;
175 -> 181 ;
182 [label="X[0] <= -1985.649\nentropy = 0.863\nsamples = 14\nvalue = [4, 10]"] ;
181 -> 182 ;
183 [label="X[0] <= -1986.002\nentropy = 0.971\nsamples = 10\nvalue = [4, 6]"] ;
182 -> 183 ;
184 [label="X[0] <= -1987.437\nentropy = 0.811\nsamples = 8\nvalue = [2, 6]"] ;
183 -> 184 ;
185 [label="X[0] <= -1988.368\nentropy = 1.0\nsamples = 4\nvalue = [2, 2]"] ;
184 -> 185 ;
186 [label="entropy = 0.0\nsamples = 2\nvalue = [0, 2]"] ;
185 -> 186 ;
187 [label="entropy = 0.0\nsamples = 2\nvalue = [2, 0]"] ;
185 -> 187 ;
188 [label="entropy = 0.0\nsamples = 4\nvalue = [0, 4]"] ;
184 -> 188 ;
189 [label="entropy = 0.0\nsamples = 2\nvalue = [2, 0]"] ;
183 -> 189 ;
190 [label="entropy = 0.0\nsamples = 4\nvalue = [0, 4]"] ;
182 -> 190 ;
191 [label="X[0] <= -1985.473\nentropy = 0.918\nsamples = 12\nvalue = [8, 4]"] ;
181 -> 191 ;
192 [label="entropy = 0.0\nsamples = 6\nvalue = [6, 0]"] ;
191 -> 192 ;
193 [label="X[0] <= -1985.423\nentropy = 0.918\nsamples = 6\nvalue = [2, 4]"] ;
191 -> 193 ;
194 [label="entropy = 0.0\nsamples = 3\nvalue = [0, 3]"] ;
193 -> 194 ;
195 [label="X[0] <= -1985.322\nentropy = 0.918\nsamples = 3\nvalue = [2, 1]"] ;
193 -> 195 ;
196 [label="entropy = 1.0\nsamples = 2\nvalue = [1, 1]"] ;
195 -> 196 ;
197 [label="entropy = 0.0\nsamples = 1\nvalue = [1, 0]"] ;
195 -> 197 ;
198 [label="X[0] <= -1974.238\nentropy = 0.823\nsamples = 264\nvalue = [68, 196]"] ;
10 -> 198 ;
199 [label="X[0] <= -1974.767\nentropy = 0.75\nsamples = 205\nvalue = [44, 161]"] ;
198 -> 199 ;
200 [label="X[0] <= -1975.044\nentropy = 0.772\nsamples = 194\nvalue = [44, 150]"] ;
199 -> 200 ;
201 [label="X[0] <= -1979.251\nentropy = 0.758\nsamples = 192\nvalue = [42, 150]"] ;
200 -> 201 ;
202 [label="X[0] <= -1980.776\nentropy = 0.825\nsamples = 139\nvalue = [36, 103]"] ;
201 -> 202 ;
203 [label="X[0] <= -1983.962\nentropy = 0.678\nsamples = 106\nvalue = [19, 87]"] ;
202 -> 203 ;
204 [label="X[0] <= -1985.12\nentropy = 0.792\nsamples = 63\nvalue = [15, 48]"] ;
203 -> 204 ;
205 [label="entropy = 0.0\nsamples = 9\nvalue = [0, 9]"] ;
204 -> 205 ;
206 [label="X[0] <= -1984.919\nentropy = 0.852\nsamples = 54\nvalue = [15, 39]"] ;
204 -> 206 ;
207 [label="X[0] <= -1985.045\nentropy = 0.918\nsamples = 6\nvalue = [4, 2]"] ;
206 -> 207 ;
208 [label="entropy = 0.918\nsamples = 3\nvalue = [1, 2]"] ;
207 -> 208 ;
209 [label="entropy = 0.0\nsamples = 3\nvalue = [3, 0]"] ;
207 -> 209 ;
210 [label="X[0] <= -1984.818\nentropy = 0.777\nsamples = 48\nvalue = [11, 37]"] ;
206 -> 210 ;
211 [label="entropy = 0.0\nsamples = 6\nvalue = [0, 6]"] ;
210 -> 211 ;
212 [label="X[0] <= -1984.692\nentropy = 0.83\nsamples = 42\nvalue = [11, 31]"] ;
210 -> 212 ;
213 [label="entropy = 0.0\nsamples = 3\nvalue = [3, 0]"] ;
212 -> 213 ;
214 [label="X[0] <= -1984.415\nentropy = 0.732\nsamples = 39\nvalue = [8, 31]"] ;
212 -> 214 ;
215 [label="X[0] <= -1984.541\nentropy = 0.337\nsamples = 16\nvalue = [1, 15]"] ;
214 -> 215 ;
216 [label="X[0] <= -1984.617\nentropy = 0.811\nsamples = 4\nvalue = [1, 3]"] ;
215 -> 216 ;
217 [label="entropy = 0.0\nsamples = 3\nvalue = [0, 3]"] ;
216 -> 217 ;
218 [label="entropy = 0.0\nsamples = 1\nvalue = [1, 0]"] ;
216 -> 218 ;
219 [label="entropy = 0.0\nsamples = 12\nvalue = [0, 12]"] ;
215 -> 219 ;
220 [label="X[0] <= -1984.062\nentropy = 0.887\nsamples = 23\nvalue = [7, 16]"] ;
214 -> 220 ;
221 [label="X[0] <= -1984.264\nentropy = 0.845\nsamples = 22\nvalue = [6, 16]"] ;
220 -> 221 ;
222 [label="X[0] <= -1984.365\nentropy = 0.985\nsamples = 7\nvalue = [3, 4]"] ;
221 -> 222 ;
223 [label="entropy = 0.722\nsamples = 5\nvalue = [1, 4]"] ;
222 -> 223 ;
224 [label="entropy = 0.0\nsamples = 2\nvalue = [2, 0]"] ;
222 -> 224 ;
225 [label="X[0] <= -1984.213\nentropy = 0.722\nsamples = 15\nvalue = [3, 12]"] ;
221 -> 225 ;
226 [label="X[0] <= -1984.239\nentropy = 0.469\nsamples = 10\nvalue = [1, 9]"] ;
225 -> 226 ;
227 [label="entropy = 0.811\nsamples = 4\nvalue = [1, 3]"] ;
226 -> 227 ;
228 [label="entropy = 0.0\nsamples = 6\nvalue = [0, 6]"] ;
226 -> 228 ;
229 [label="X[0] <= -1984.163\nentropy = 0.971\nsamples = 5\nvalue = [2, 3]"] ;
225 -> 229 ;
230 [label="entropy = 0.0\nsamples = 1\nvalue = [1, 0]"] ;
229 -> 230 ;
231 [label="entropy = 0.811\nsamples = 4\nvalue = [1, 3]"] ;
229 -> 231 ;
232 [label="entropy = 0.0\nsamples = 1\nvalue = [1, 0]"] ;
220 -> 232 ;
233 [label="X[0] <= -1983.231\nentropy = 0.446\nsamples = 43\nvalue = [4, 39]"] ;
203 -> 233 ;
234 [label="X[0] <= -1983.71\nentropy = 0.206\nsamples = 31\nvalue = [1, 30]"] ;
233 -> 234 ;
235 [label="entropy = 0.0\nsamples = 16\nvalue = [0, 16]"] ;
234 -> 235 ;
236 [label="X[0] <= -1983.634\nentropy = 0.353\nsamples = 15\nvalue = [1, 14]"] ;
234 -> 236 ;
237 [label="entropy = 0.722\nsamples = 5\nvalue = [1, 4]"] ;
236 -> 237 ;
238 [label="entropy = 0.0\nsamples = 10\nvalue = [0, 10]"] ;
236 -> 238 ;
239 [label="X[0] <= -1981.027\nentropy = 0.811\nsamples = 12\nvalue = [3, 9]"] ;
233 -> 239 ;
240 [label="entropy = 0.0\nsamples = 3\nvalue = [3, 0]"] ;
239 -> 240 ;
241 [label="entropy = 0.0\nsamples = 9\nvalue = [0, 9]"] ;
239 -> 241 ;
242 [label="X[0] <= -1980.625\nentropy = 0.999\nsamples = 33\nvalue = [17, 16]"] ;
202 -> 242 ;
243 [label="entropy = 0.0\nsamples = 2\nvalue = [2, 0]"] ;
242 -> 243 ;
244 [label="X[0] <= -1980.511\nentropy = 0.999\nsamples = 31\nvalue = [15, 16]"] ;
242 -> 244 ;
245 [label="entropy = 0.0\nsamples = 2\nvalue = [0, 2]"] ;
244 -> 245 ;
246 [label="X[0] <= -1980.359\nentropy = 0.999\nsamples = 29\nvalue = [15, 14]"] ;
244 -> 246 ;
247 [label="entropy = 0.0\nsamples = 1\nvalue = [1, 0]"] ;
246 -> 247 ;
248 [label="X[0] <= -1980.233\nentropy = 1.0\nsamples = 28\nvalue = [14, 14]"] ;
246 -> 248 ;
249 [label="entropy = 0.0\nsamples = 2\nvalue = [0, 2]"] ;
248 -> 249 ;
250 [label="X[0] <= -1979.982\nentropy = 0.996\nsamples = 26\nvalue = [14, 12]"] ;
248 -> 250 ;
251 [label="entropy = 0.0\nsamples = 2\nvalue = [2, 0]"] ;
250 -> 251 ;
252 [label="X[0] <= -1979.377\nentropy = 1.0\nsamples = 24\nvalue = [12, 12]"] ;
250 -> 252 ;
253 [label="X[0] <= -1979.594\nentropy = 0.993\nsamples = 20\nvalue = [9, 11]"] ;
252 -> 253 ;
254 [label="X[0] <= -1979.805\nentropy = 0.985\nsamples = 14\nvalue = [8, 6]"] ;
253 -> 254 ;
255 [label="X[0] <= -1979.871\nentropy = 0.918\nsamples = 6\nvalue = [2, 4]"] ;
254 -> 255 ;
256 [label="X[0] <= -1979.921\nentropy = 1.0\nsamples = 4\nvalue = [2, 2]"] ;
255 -> 256 ;
257 [label="entropy = 0.918\nsamples = 3\nvalue = [1, 2]"] ;
256 -> 257 ;
258 [label="entropy = 0.0\nsamples = 1\nvalue = [1, 0]"] ;
256 -> 258 ;
259 [label="entropy = 0.0\nsamples = 2\nvalue = [0, 2]"] ;
255 -> 259 ;
260 [label="X[0] <= -1979.629\nentropy = 0.811\nsamples = 8\nvalue = [6, 2]"] ;
254 -> 260 ;
261 [label="entropy = 0.0\nsamples = 3\nvalue = [3, 0]"] ;
260 -> 261 ;
262 [label="X[0] <= -1979.604\nentropy = 0.971\nsamples = 5\nvalue = [3, 2]"] ;
260 -> 262 ;
263 [label="entropy = 0.918\nsamples = 3\nvalue = [1, 2]"] ;
262 -> 263 ;
264 [label="entropy = 0.0\nsamples = 2\nvalue = [2, 0]"] ;
262 -> 264 ;
265 [label="X[0] <= -1979.569\nentropy = 0.65\nsamples = 6\nvalue = [1, 5]"] ;
253 -> 265 ;
266 [label="entropy = 0.0\nsamples = 4\nvalue = [0, 4]"] ;
265 -> 266 ;
267 [label="X[0] <= -1979.478\nentropy = 1.0\nsamples = 2\nvalue = [1, 1]"] ;
265 -> 267 ;
268 [label="entropy = 0.0\nsamples = 1\nvalue = [1, 0]"] ;
267 -> 268 ;
269 [label="entropy = 0.0\nsamples = 1\nvalue = [0, 1]"] ;
267 -> 269 ;
270 [label="entropy = 0.811\nsamples = 4\nvalue = [3, 1]"] ;
252 -> 270 ;
271 [label="X[0] <= -1978.823\nentropy = 0.51\nsamples = 53\nvalue = [6, 47]"] ;
201 -> 271 ;
272 [label="entropy = 0.0\nsamples = 25\nvalue = [0, 25]"] ;
271 -> 272 ;
273 [label="X[0] <= -1978.747\nentropy = 0.75\nsamples = 28\nvalue = [6, 22]"] ;
271 -> 273 ;
274 [label="entropy = 0.0\nsamples = 3\nvalue = [3, 0]"] ;
273 -> 274 ;
275 [label="X[0] <= -1978.445\nentropy = 0.529\nsamples = 25\nvalue = [3, 22]"] ;
273 -> 275 ;
276 [label="entropy = 0.0\nsamples = 14\nvalue = [0, 14]"] ;
275 -> 276 ;
277 [label="X[0] <= -1978.269\nentropy = 0.845\nsamples = 11\nvalue = [3, 8]"] ;
275 -> 277 ;
278 [label="entropy = 0.0\nsamples = 1\nvalue = [1, 0]"] ;
277 -> 278 ;
279 [label="X[0] <= -1975.951\nentropy = 0.722\nsamples = 10\nvalue = [2, 8]"] ;
277 -> 279 ;
280 [label="entropy = 0.0\nsamples = 3\nvalue = [0, 3]"] ;
279 -> 280 ;
281 [label="X[0] <= -1975.724\nentropy = 0.863\nsamples = 7\nvalue = [2, 5]"] ;
279 -> 281 ;
282 [label="entropy = 0.0\nsamples = 1\nvalue = [1, 0]"] ;
281 -> 282 ;
283 [label="X[0] <= -1975.145\nentropy = 0.65\nsamples = 6\nvalue = [1, 5]"] ;
281 -> 283 ;
284 [label="X[0] <= -1975.347\nentropy = 0.918\nsamples = 3\nvalue = [1, 2]"] ;
283 -> 284 ;
285 [label="entropy = 0.0\nsamples = 2\nvalue = [0, 2]"] ;
284 -> 285 ;
286 [label="entropy = 0.0\nsamples = 1\nvalue = [1, 0]"] ;
284 -> 286 ;
287 [label="entropy = 0.0\nsamples = 3\nvalue = [0, 3]"] ;
283 -> 287 ;
288 [label="entropy = 0.0\nsamples = 2\nvalue = [2, 0]"] ;
200 -> 288 ;
289 [label="entropy = 0.0\nsamples = 11\nvalue = [0, 11]"] ;
199 -> 289 ;
290 [label="X[0] <= -1969.496\nentropy = 0.975\nsamples = 59\nvalue = [24, 35]"] ;
198 -> 290 ;
291 [label="X[0] <= -1970.617\nentropy = 1.0\nsamples = 49\nvalue = [24, 25]"] ;
290 -> 291 ;
292 [label="X[0] <= -1972.814\nentropy = 0.932\nsamples = 23\nvalue = [15, 8]"] ;
291 -> 292 ;
293 [label="X[0] <= -1974.112\nentropy = 0.98\nsamples = 12\nvalue = [5, 7]"] ;
292 -> 293 ;
294 [label="entropy = 0.0\nsamples = 2\nvalue = [2, 0]"] ;
293 -> 294 ;
295 [label="X[0] <= -1973.986\nentropy = 0.881\nsamples = 10\nvalue = [3, 7]"] ;
293 -> 295 ;
296 [label="entropy = 0.0\nsamples = 2\nvalue = [0, 2]"] ;
295 -> 296 ;
297 [label="X[0] <= -1973.835\nentropy = 0.954\nsamples = 8\nvalue = [3, 5]"] ;
295 -> 297 ;
298 [label="entropy = 0.0\nsamples = 1\nvalue = [1, 0]"] ;
297 -> 298 ;
299 [label="X[0] <= -1973.265\nentropy = 0.863\nsamples = 7\nvalue = [2, 5]"] ;
297 -> 299 ;
300 [label="X[0] <= -1973.491\nentropy = 0.918\nsamples = 6\nvalue = [2, 4]"] ;
299 -> 300 ;
301 [label="X[0] <= -1973.709\nentropy = 0.722\nsamples = 5\nvalue = [1, 4]"] ;
300 -> 301 ;
302 [label="entropy = 1.0\nsamples = 2\nvalue = [1, 1]"] ;
301 -> 302 ;
303 [label="entropy = 0.0\nsamples = 3\nvalue = [0, 3]"] ;
301 -> 303 ;
304 [label="entropy = 0.0\nsamples = 1\nvalue = [1, 0]"] ;
300 -> 304 ;
305 [label="entropy = 0.0\nsamples = 1\nvalue = [0, 1]"] ;
299 -> 305 ;
306 [label="X[0] <= -1970.993\nentropy = 0.439\nsamples = 11\nvalue = [10, 1]"] ;
292 -> 306 ;
307 [label="entropy = 0.0\nsamples = 6\nvalue = [6, 0]"] ;
306 -> 307 ;
308 [label="X[0] <= -1970.918\nentropy = 0.722\nsamples = 5\nvalue = [4, 1]"] ;
306 -> 308 ;
309 [label="entropy = 1.0\nsamples = 2\nvalue = [1, 1]"] ;
308 -> 309 ;
310 [label="entropy = 0.0\nsamples = 3\nvalue = [3, 0]"] ;
308 -> 310 ;
311 [label="X[0] <= -1969.915\nentropy = 0.931\nsamples = 26\nvalue = [9, 17]"] ;
291 -> 311 ;
312 [label="X[0] <= -1970.2\nentropy = 0.544\nsamples = 16\nvalue = [2, 14]"] ;
311 -> 312 ;
313 [label="entropy = 0.0\nsamples = 5\nvalue = [0, 5]"] ;
312 -> 313 ;
314 [label="X[0] <= -1969.982\nentropy = 0.684\nsamples = 11\nvalue = [2, 9]"] ;
312 -> 314 ;
315 [label="X[0] <= -1970.091\nentropy = 0.811\nsamples = 8\nvalue = [2, 6]"] ;
314 -> 315 ;
316 [label="entropy = 0.592\nsamples = 7\nvalue = [1, 6]"] ;
315 -> 316 ;
317 [label="entropy = 0.0\nsamples = 1\nvalue = [1, 0]"] ;
315 -> 317 ;
318 [label="entropy = 0.0\nsamples = 3\nvalue = [0, 3]"] ;
314 -> 318 ;
319 [label="X[0] <= -1969.646\nentropy = 0.881\nsamples = 10\nvalue = [7, 3]"] ;
311 -> 319 ;
320 [label="entropy = 0.0\nsamples = 6\nvalue = [6, 0]"] ;
319 -> 320 ;
321 [label="X[0] <= -1969.571\nentropy = 0.811\nsamples = 4\nvalue = [1, 3]"] ;
319 -> 321 ;
322 [label="entropy = 0.0\nsamples = 3\nvalue = [0, 3]"] ;
321 -> 322 ;
323 [label="entropy = 0.0\nsamples = 1\nvalue = [1, 0]"] ;
321 -> 323 ;
324 [label="entropy = 0.0\nsamples = 10\nvalue = [0, 10]"] ;
290 -> 324 ;
325 [label="X[0] <= -1968.136\nentropy = 0.918\nsamples = 15\nvalue = [10, 5]"] ;
9 -> 325 ;
326 [label="entropy = 0.0\nsamples = 6\nvalue = [6, 0]"] ;
325 -> 326 ;
327 [label="X[0] <= -1967.725\nentropy = 0.991\nsamples = 9\nvalue = [4, 5]"] ;
325 -> 327 ;
328 [label="entropy = 0.0\nsamples = 4\nvalue = [0, 4]"] ;
327 -> 328 ;
329 [label="X[0] <= -1967.41\nentropy = 0.722\nsamples = 5\nvalue = [4, 1]"] ;
327 -> 329 ;
330 [label="entropy = 0.0\nsamples = 2\nvalue = [2, 0]"] ;
329 -> 330 ;
331 [label="X[0] <= -1966.983\nentropy = 0.918\nsamples = 3\nvalue = [2, 1]"] ;
329 -> 331 ;
332 [label="entropy = 0.0\nsamples = 1\nvalue = [0, 1]"] ;
331 -> 332 ;
333 [label="entropy = 0.0\nsamples = 2\nvalue = [2, 0]"] ;
331 -> 333 ;
334 [label="X[0] <= -1959.401\nentropy = 0.579\nsamples = 602\nvalue = [83, 519]"] ;
2 -> 334 ;
335 [label="entropy = 0.0\nsamples = 102\nvalue = [0, 102]"] ;
334 -> 335 ;
336 [label="X[0] <= -1953.834\nentropy = 0.648\nsamples = 500\nvalue = [83, 417]"] ;
334 -> 336 ;
337 [label="X[0] <= -1953.943\nentropy = 0.512\nsamples = 184\nvalue = [21, 163]"] ;
336 -> 337 ;
338 [label="X[0] <= -1953.96\nentropy = 0.525\nsamples = 177\nvalue = [21, 156]"] ;
337 -> 338 ;
339 [label="X[0] <= -1954.112\nentropy = 0.511\nsamples = 176\nvalue = [20, 156]"] ;
338 -> 339 ;
340 [label="X[0] <= -1954.716\nentropy = 0.535\nsamples = 164\nvalue = [20, 144]"] ;
339 -> 340 ;
341 [label="X[0] <= -1954.943\nentropy = 0.498\nsamples = 137\nvalue = [15, 122]"] ;
340 -> 341 ;
342 [label="X[0] <= -1955.375\nentropy = 0.549\nsamples = 118\nvalue = [15, 103]"] ;
341 -> 342 ;
343 [label="X[0] <= -1955.853\nentropy = 0.516\nsamples = 104\nvalue = [12, 92]"] ;
342 -> 343 ;
344 [label="X[0] <= -1956.104\nentropy = 0.559\nsamples = 92\nvalue = [12, 80]"] ;
343 -> 344 ;
345 [label="X[0] <= -1956.782\nentropy = 0.532\nsamples = 91\nvalue = [11, 80]"] ;
344 -> 345 ;
346 [label="X[0] <= -1957.462\nentropy = 0.544\nsamples = 88\nvalue = [11, 77]"] ;
345 -> 346 ;
347 [label="X[0] <= -1958.041\nentropy = 0.515\nsamples = 87\nvalue = [10, 77]"] ;
346 -> 347 ;
348 [label="X[0] <= -1958.142\nentropy = 0.552\nsamples = 78\nvalue = [10, 68]"] ;
347 -> 348 ;
349 [label="X[0] <= -1958.621\nentropy = 0.52\nsamples = 77\nvalue = [9, 68]"] ;
348 -> 349 ;
350 [label="X[0] <= -1958.671\nentropy = 0.592\nsamples = 56\nvalue = [8, 48]"] ;
349 -> 350 ;
351 [label="X[0] <= -1958.721\nentropy = 0.55\nsamples = 55\nvalue = [7, 48]"] ;
350 -> 351 ;
352 [label="X[0] <= -1958.897\nentropy = 0.592\nsamples = 49\nvalue = [7, 42]"] ;
351 -> 352 ;
353 [label="entropy = 0.477\nsamples = 39\nvalue = [4, 35]"] ;
352 -> 353 ;
354 [label="entropy = 0.881\nsamples = 10\nvalue = [3, 7]"] ;
352 -> 354 ;
355 [label="entropy = 0.0\nsamples = 6\nvalue = [0, 6]"] ;
351 -> 355 ;
356 [label="entropy = 0.0\nsamples = 1\nvalue = [1, 0]"] ;
350 -> 356 ;
357 [label="X[0] <= -1958.293\nentropy = 0.276\nsamples = 21\nvalue = [1, 20]"] ;
349 -> 357 ;
358 [label="entropy = 0.0\nsamples = 15\nvalue = [0, 15]"] ;
357 -> 358 ;
359 [label="X[0] <= -1958.217\nentropy = 0.65\nsamples = 6\nvalue = [1, 5]"] ;
357 -> 359 ;
360 [label="entropy = 0.722\nsamples = 5\nvalue = [1, 4]"] ;
359 -> 360 ;
361 [label="entropy = 0.0\nsamples = 1\nvalue = [0, 1]"] ;
359 -> 361 ;
362 [label="entropy = 0.0\nsamples = 1\nvalue = [1, 0]"] ;
348 -> 362 ;
363 [label="entropy = 0.0\nsamples = 9\nvalue = [0, 9]"] ;
347 -> 363 ;
364 [label="entropy = 0.0\nsamples = 1\nvalue = [1, 0]"] ;
346 -> 364 ;
365 [label="entropy = 0.0\nsamples = 3\nvalue = [0, 3]"] ;
345 -> 365 ;
366 [label="entropy = 0.0\nsamples = 1\nvalue = [1, 0]"] ;
344 -> 366 ;
367 [label="entropy = 0.0\nsamples = 12\nvalue = [0, 12]"] ;
343 -> 367 ;
368 [label="X[0] <= -1955.169\nentropy = 0.75\nsamples = 14\nvalue = [3, 11]"] ;
342 -> 368 ;
369 [label="entropy = 0.0\nsamples = 2\nvalue = [2, 0]"] ;
368 -> 369 ;
370 [label="X[0] <= -1954.968\nentropy = 0.414\nsamples = 12\nvalue = [1, 11]"] ;
368 -> 370 ;
371 [label="entropy = 0.0\nsamples = 9\nvalue = [0, 9]"] ;
370 -> 371 ;
372 [label="entropy = 0.918\nsamples = 3\nvalue = [1, 2]"] ;
370 -> 372 ;
373 [label="entropy = 0.0\nsamples = 19\nvalue = [0, 19]"] ;
341 -> 373 ;
374 [label="X[0] <= -1954.647\nentropy = 0.691\nsamples = 27\nvalue = [5, 22]"] ;
340 -> 374 ;
375 [label="entropy = 0.0\nsamples = 2\nvalue = [2, 0]"] ;
374 -> 375 ;
376 [label="X[0] <= -1954.615\nentropy = 0.529\nsamples = 25\nvalue = [3, 22]"] ;
374 -> 376 ;
377 [label="entropy = 0.0\nsamples = 4\nvalue = [0, 4]"] ;
376 -> 377 ;
378 [label="X[0] <= -1954.515\nentropy = 0.592\nsamples = 21\nvalue = [3, 18]"] ;
376 -> 378 ;
379 [label="entropy = 0.811\nsamples = 4\nvalue = [1, 3]"] ;
378 -> 379 ;
380 [label="X[0] <= -1954.395\nentropy = 0.523\nsamples = 17\nvalue = [2, 15]"] ;
378 -> 380 ;
381 [label="entropy = 0.0\nsamples = 6\nvalue = [0, 6]"] ;
380 -> 381 ;
382 [label="X[0] <= -1954.37\nentropy = 0.684\nsamples = 11\nvalue = [2, 9]"] ;
380 -> 382 ;
383 [label="entropy = 0.0\nsamples = 1\nvalue = [1, 0]"] ;
382 -> 383 ;
384 [label="X[0] <= -1954.237\nentropy = 0.469\nsamples = 10\nvalue = [1, 9]"] ;
382 -> 384 ;
385 [label="entropy = 0.0\nsamples = 4\nvalue = [0, 4]"] ;
384 -> 385 ;
386 [label="entropy = 0.65\nsamples = 6\nvalue = [1, 5]"] ;
384 -> 386 ;
387 [label="entropy = 0.0\nsamples = 12\nvalue = [0, 12]"] ;
339 -> 387 ;
388 [label="entropy = 0.0\nsamples = 1\nvalue = [1, 0]"] ;
338 -> 388 ;
389 [label="entropy = 0.0\nsamples = 7\nvalue = [0, 7]"] ;
337 -> 389 ;
390 [label="X[0] <= -1953.661\nentropy = 0.714\nsamples = 316\nvalue = [62, 254]"] ;
336 -> 390 ;
391 [label="X[0] <= -1953.767\nentropy = 0.918\nsamples = 6\nvalue = [4, 2]"] ;
390 -> 391 ;
392 [label="X[0] <= -1953.792\nentropy = 0.918\nsamples = 3\nvalue = [1, 2]"] ;
391 -> 392 ;
393 [label="entropy = 0.0\nsamples = 1\nvalue = [1, 0]"] ;
392 -> 393 ;
394 [label="entropy = 0.0\nsamples = 2\nvalue = [0, 2]"] ;
392 -> 394 ;
395 [label="entropy = 0.0\nsamples = 3\nvalue = [3, 0]"] ;
391 -> 395 ;
396 [label="X[0] <= -1952.129\nentropy = 0.695\nsamples = 310\nvalue = [58, 252]"] ;
390 -> 396 ;
397 [label="entropy = 0.0\nsamples = 18\nvalue = [0, 18]"] ;
396 -> 397 ;
398 [label="X[0] <= -1951.275\nentropy = 0.719\nsamples = 292\nvalue = [58, 234]"] ;
396 -> 398 ;
399 [label="entropy = 0.0\nsamples = 3\nvalue = [3, 0]"] ;
398 -> 399 ;
400 [label="X[0] <= -1931.003\nentropy = 0.702\nsamples = 289\nvalue = [55, 234]"] ;
398 -> 400 ;
401 [label="X[0] <= -1933.48\nentropy = 0.719\nsamples = 277\nvalue = [55, 222]"] ;
400 -> 401 ;
402 [label="X[0] <= -1938.387\nentropy = 0.689\nsamples = 261\nvalue = [48, 213]"] ;
401 -> 402 ;
403 [label="X[0] <= -1938.44\nentropy = 0.733\nsamples = 219\nvalue = [45, 174]"] ;
402 -> 403 ;
404 [label="X[0] <= -1938.688\nentropy = 0.718\nsamples = 217\nvalue = [43, 174]"] ;
403 -> 404 ;
405 [label="X[0] <= -1938.782\nentropy = 0.735\nsamples = 208\nvalue = [43, 165]"] ;
404 -> 405 ;
406 [label="X[0] <= -1939.033\nentropy = 0.728\nsamples = 207\nvalue = [42, 165]"] ;
405 -> 406 ;
407 [label="X[0] <= -1939.166\nentropy = 0.739\nsamples = 201\nvalue = [42, 159]"] ;
406 -> 407 ;
408 [label="X[0] <= -1944.615\nentropy = 0.724\nsamples = 199\nvalue = [40, 159]"] ;
407 -> 408 ;
409 [label="X[0] <= -1948.261\nentropy = 0.8\nsamples = 111\nvalue = [27, 84]"] ;
408 -> 409 ;
410 [label="X[0] <= -1949.441\nentropy = 0.693\nsamples = 86\nvalue = [16, 70]"] ;
409 -> 410 ;
411 [label="X[0] <= -1949.542\nentropy = 0.803\nsamples = 49\nvalue = [12, 37]"] ;
410 -> 411 ;
412 [label="X[0] <= -1949.843\nentropy = 0.713\nsamples = 46\nvalue = [9, 37]"] ;
411 -> 412 ;
413 [label="entropy = 0.79\nsamples = 38\nvalue = [9, 29]"] ;
412 -> 413 ;
414 [label="entropy = 0.0\nsamples = 8\nvalue = [0, 8]"] ;
412 -> 414 ;
415 [label="entropy = 0.0\nsamples = 3\nvalue = [3, 0]"] ;
411 -> 415 ;
416 [label="X[0] <= -1949.115\nentropy = 0.494\nsamples = 37\nvalue = [4, 33]"] ;
410 -> 416 ;
417 [label="entropy = 0.0\nsamples = 13\nvalue = [0, 13]"] ;
416 -> 417 ;
418 [label="X[0] <= -1949.09\nentropy = 0.65\nsamples = 24\nvalue = [4, 20]"] ;
416 -> 418 ;
419 [label="entropy = 0.0\nsamples = 2\nvalue = [2, 0]"] ;
418 -> 419 ;
420 [label="entropy = 0.439\nsamples = 22\nvalue = [2, 20]"] ;
418 -> 420 ;
421 [label="X[0] <= -1947.633\nentropy = 0.99\nsamples = 25\nvalue = [11, 14]"] ;
409 -> 421 ;
422 [label="X[0] <= -1948.135\nentropy = 0.592\nsamples = 7\nvalue = [6, 1]"] ;
421 -> 422 ;
423 [label="X[0] <= -1948.192\nentropy = 1.0\nsamples = 2\nvalue = [1, 1]"] ;
422 -> 423 ;
424 [label="entropy = 0.0\nsamples = 1\nvalue = [1, 0]"] ;
423 -> 424 ;
425 [label="entropy = 0.0\nsamples = 1\nvalue = [0, 1]"] ;
423 -> 425 ;
426 [label="entropy = 0.0\nsamples = 5\nvalue = [5, 0]"] ;
422 -> 426 ;
427 [label="X[0] <= -1946.93\nentropy = 0.852\nsamples = 18\nvalue = [5, 13]"] ;
421 -> 427 ;
428 [label="entropy = 0.0\nsamples = 8\nvalue = [0, 8]"] ;
427 -> 428 ;
429 [label="X[0] <= -1946.1\nentropy = 1.0\nsamples = 10\nvalue = [5, 5]"] ;
427 -> 429 ;
430 [label="entropy = 0.0\nsamples = 3\nvalue = [3, 0]"] ;
429 -> 430 ;
431 [label="entropy = 0.863\nsamples = 7\nvalue = [2, 5]"] ;
429 -> 431 ;
432 [label="X[0] <= -1942.336\nentropy = 0.604\nsamples = 88\nvalue = [13, 75]"] ;
408 -> 432 ;
433 [label="X[0] <= -1944.212\nentropy = 0.191\nsamples = 34\nvalue = [1, 33]"] ;
432 -> 433 ;
434 [label="X[0] <= -1944.295\nentropy = 0.353\nsamples = 15\nvalue = [1, 14]"] ;
433 -> 434 ;
435 [label="entropy = 0.0\nsamples = 10\nvalue = [0, 10]"] ;
434 -> 435 ;
436 [label="entropy = 0.722\nsamples = 5\nvalue = [1, 4]"] ;
434 -> 436 ;
437 [label="entropy = 0.0\nsamples = 19\nvalue = [0, 19]"] ;
433 -> 437 ;
438 [label="X[0] <= -1939.417\nentropy = 0.764\nsamples = 54\nvalue = [12, 42]"] ;
432 -> 438 ;
439 [label="X[0] <= -1941.644\nentropy = 0.811\nsamples = 48\nvalue = [12, 36]"] ;
438 -> 439 ;
440 [label="entropy = 0.0\nsamples = 1\nvalue = [1, 0]"] ;
439 -> 440 ;
441 [label="X[0] <= -1940.005\nentropy = 0.785\nsamples = 47\nvalue = [11, 36]"] ;
439 -> 441 ;
442 [label="entropy = 0.661\nsamples = 35\nvalue = [6, 29]"] ;
441 -> 442 ;
443 [label="entropy = 0.98\nsamples = 12\nvalue = [5, 7]"] ;
441 -> 443 ;
444 [label="entropy = 0.0\nsamples = 6\nvalue = [0, 6]"] ;
438 -> 444 ;
445 [label="entropy = 0.0\nsamples = 2\nvalue = [2, 0]"] ;
407 -> 445 ;
446 [label="entropy = 0.0\nsamples = 6\nvalue = [0, 6]"] ;
406 -> 446 ;
447 [label="entropy = 0.0\nsamples = 1\nvalue = [1, 0]"] ;
405 -> 447 ;
448 [label="entropy = 0.0\nsamples = 9\nvalue = [0, 9]"] ;
404 -> 448 ;
449 [label="entropy = 0.0\nsamples = 2\nvalue = [2, 0]"] ;
403 -> 449 ;
450 [label="X[0] <= -1937.406\nentropy = 0.371\nsamples = 42\nvalue = [3, 39]"] ;
402 -> 450 ;
451 [label="entropy = 0.0\nsamples = 19\nvalue = [0, 19]"] ;
450 -> 451 ;
452 [label="X[0] <= -1936.098\nentropy = 0.559\nsamples = 23\nvalue = [3, 20]"] ;
450 -> 452 ;
453 [label="X[0] <= -1937.009\nentropy = 1.0\nsamples = 4\nvalue = [2, 2]"] ;
452 -> 453 ;
454 [label="entropy = 0.0\nsamples = 1\nvalue = [1, 0]"] ;
453 -> 454 ;
455 [label="X[0] <= -1936.478\nentropy = 0.918\nsamples = 3\nvalue = [1, 2]"] ;
453 -> 455 ;
456 [label="entropy = 0.0\nsamples = 2\nvalue = [0, 2]"] ;
455 -> 456 ;
457 [label="entropy = 0.0\nsamples = 1\nvalue = [1, 0]"] ;
455 -> 457 ;
458 [label="X[0] <= -1934.12\nentropy = 0.297\nsamples = 19\nvalue = [1, 18]"] ;
452 -> 458 ;
459 [label="entropy = 0.0\nsamples = 10\nvalue = [0, 10]"] ;
458 -> 459 ;
460 [label="X[0] <= -1934.069\nentropy = 0.503\nsamples = 9\nvalue = [1, 8]"] ;
458 -> 460 ;
461 [label="entropy = 0.0\nsamples = 1\nvalue = [1, 0]"] ;
460 -> 461 ;
462 [label="entropy = 0.0\nsamples = 8\nvalue = [0, 8]"] ;
460 -> 462 ;
463 [label="X[0] <= -1933.115\nentropy = 0.989\nsamples = 16\nvalue = [7, 9]"] ;
401 -> 463 ;
464 [label="entropy = 0.0\nsamples = 3\nvalue = [3, 0]"] ;
463 -> 464 ;
465 [label="X[0] <= -1932.564\nentropy = 0.89\nsamples = 13\nvalue = [4, 9]"] ;
463 -> 465 ;
466 [label="entropy = 0.0\nsamples = 5\nvalue = [0, 5]"] ;
465 -> 466 ;
467 [label="X[0] <= -1931.913\nentropy = 1.0\nsamples = 8\nvalue = [4, 4]"] ;
465 -> 467 ;
468 [label="entropy = 0.0\nsamples = 2\nvalue = [2, 0]"] ;
467 -> 468 ;
469 [label="X[0] <= -1931.663\nentropy = 0.918\nsamples = 6\nvalue = [2, 4]"] ;
467 -> 469 ;
470 [label="entropy = 0.0\nsamples = 2\nvalue = [0, 2]"] ;
469 -> 470 ;
471 [label="X[0] <= -1931.428\nentropy = 1.0\nsamples = 4\nvalue = [2, 2]"] ;
469 -> 471 ;
472 [label="entropy = 0.0\nsamples = 1\nvalue = [1, 0]"] ;
471 -> 472 ;
473 [label="X[0] <= -1931.204\nentropy = 0.918\nsamples = 3\nvalue = [1, 2]"] ;
471 -> 473 ;
474 [label="entropy = 0.0\nsamples = 1\nvalue = [0, 1]"] ;
473 -> 474 ;
475 [label="entropy = 1.0\nsamples = 2\nvalue = [1, 1]"] ;
473 -> 475 ;
476 [label="entropy = 0.0\nsamples = 12\nvalue = [0, 12]"] ;
400 -> 476 ;
477 [label="X[0] <= -1631.726\nentropy = 0.967\nsamples = 1345\nvalue = [530, 815]"] ;
1 -> 477 ;
478 [label="X[0] <= -1678.031\nentropy = 0.975\nsamples = 1238\nvalue = [504, 734]"] ;
477 -> 478 ;
479 [label="X[0] <= -1905.396\nentropy = 0.966\nsamples = 1113\nvalue = [436, 677]"] ;
478 -> 479 ;
480 [label="X[0] <= -1916.023\nentropy = 0.997\nsamples = 116\nvalue = [62, 54]"] ;
479 -> 480 ;
481 [label="X[0] <= -1926.902\nentropy = 0.957\nsamples = 74\nvalue = [28, 46]"] ;
480 -> 481 ;
482 [label="X[0] <= -1927.626\nentropy = 0.958\nsamples = 29\nvalue = [18, 11]"] ;
481 -> 482 ;
483 [label="X[0] <= -1929.412\nentropy = 0.995\nsamples = 24\nvalue = [13, 11]"] ;
482 -> 483 ;
484 [label="entropy = 0.0\nsamples = 3\nvalue = [3, 0]"] ;
483 -> 484 ;
485 [label="X[0] <= -1928.132\nentropy = 0.998\nsamples = 21\nvalue = [10, 11]"] ;
483 -> 485 ;
486 [label="X[0] <= -1928.382\nentropy = 0.977\nsamples = 17\nvalue = [7, 10]"] ;
485 -> 486 ;
487 [label="X[0] <= -1928.768\nentropy = 1.0\nsamples = 14\nvalue = [7, 7]"] ;
486 -> 487 ;
488 [label="X[0] <= -1928.883\nentropy = 0.946\nsamples = 11\nvalue = [4, 7]"] ;
487 -> 488 ;
489 [label="X[0] <= -1929.132\nentropy = 0.918\nsamples = 6\nvalue = [4, 2]"] ;
488 -> 489 ;
490 [label="X[0] <= -1929.286\nentropy = 0.918\nsamples = 3\nvalue = [1, 2]"] ;
489 -> 490 ;
491 [label="entropy = 0.0\nsamples = 1\nvalue = [0, 1]"] ;
490 -> 491 ;
492 [label="X[0] <= -1929.197\nentropy = 1.0\nsamples = 2\nvalue = [1, 1]"] ;
490 -> 492 ;
493 [label="entropy = 0.0\nsamples = 1\nvalue = [1, 0]"] ;
492 -> 493 ;
494 [label="entropy = 0.0\nsamples = 1\nvalue = [0, 1]"] ;
492 -> 494 ;
495 [label="entropy = 0.0\nsamples = 3\nvalue = [3, 0]"] ;
489 -> 495 ;
496 [label="entropy = 0.0\nsamples = 5\nvalue = [0, 5]"] ;
488 -> 496 ;
497 [label="entropy = 0.0\nsamples = 3\nvalue = [3, 0]"] ;
487 -> 497 ;
498 [label="entropy = 0.0\nsamples = 3\nvalue = [0, 3]"] ;
486 -> 498 ;
499 [label="X[0] <= -1927.764\nentropy = 0.811\nsamples = 4\nvalue = [3, 1]"] ;
485 -> 499 ;
500 [label="entropy = 0.0\nsamples = 3\nvalue = [3, 0]"] ;
499 -> 500 ;
501 [label="entropy = 0.0\nsamples = 1\nvalue = [0, 1]"] ;
499 -> 501 ;
502 [label="entropy = 0.0\nsamples = 5\nvalue = [5, 0]"] ;
482 -> 502 ;
503 [label="X[0] <= -1926.773\nentropy = 0.764\nsamples = 45\nvalue = [10, 35]"] ;
481 -> 503 ;
504 [label="entropy = 0.0\nsamples = 6\nvalue = [0, 6]"] ;
503 -> 504 ;
505 [label="X[0] <= -1924.823\nentropy = 0.821\nsamples = 39\nvalue = [10, 29]"] ;
503 -> 505 ;
506 [label="X[0] <= -1926.52\nentropy = 0.971\nsamples = 5\nvalue = [3, 2]"] ;
505 -> 506 ;
507 [label="X[0] <= -1926.67\nentropy = 0.918\nsamples = 3\nvalue = [1, 2]"] ;
506 -> 507 ;
508 [label="entropy = 0.0\nsamples = 1\nvalue = [1, 0]"] ;
507 -> 508 ;
509 [label="entropy = 0.0\nsamples = 2\nvalue = [0, 2]"] ;
507 -> 509 ;
510 [label="entropy = 0.0\nsamples = 2\nvalue = [2, 0]"] ;
506 -> 510 ;
511 [label="X[0] <= -1922.91\nentropy = 0.734\nsamples = 34\nvalue = [7, 27]"] ;
505 -> 511 ;
512 [label="X[0] <= -1924.227\nentropy = 0.439\nsamples = 11\nvalue = [1, 10]"] ;
511 -> 512 ;
513 [label="X[0] <= -1924.372\nentropy = 0.811\nsamples = 4\nvalue = [1, 3]"] ;
512 -> 513 ;
514 [label="entropy = 0.0\nsamples = 3\nvalue = [0, 3]"] ;
513 -> 514 ;
515 [label="entropy = 0.0\nsamples = 1\nvalue = [1, 0]"] ;
513 -> 515 ;
516 [label="entropy = 0.0\nsamples = 7\nvalue = [0, 7]"] ;
512 -> 516 ;
517 [label="X[0] <= -1920.403\nentropy = 0.828\nsamples = 23\nvalue = [6, 17]"] ;
511 -> 517 ;
518 [label="X[0] <= -1921.467\nentropy = 1.0\nsamples = 8\nvalue = [4, 4]"] ;
517 -> 518 ;
519 [label="X[0] <= -1922.17\nentropy = 0.811\nsamples = 4\nvalue = [1, 3]"] ;
518 -> 519 ;
520 [label="entropy = 0.0\nsamples = 1\nvalue = [1, 0]"] ;
519 -> 520 ;
521 [label="entropy = 0.0\nsamples = 3\nvalue = [0, 3]"] ;
519 -> 521 ;
522 [label="X[0] <= -1920.714\nentropy = 0.811\nsamples = 4\nvalue = [3, 1]"] ;
518 -> 522 ;
523 [label="entropy = 0.0\nsamples = 2\nvalue = [2, 0]"] ;
522 -> 523 ;
524 [label="X[0] <= -1920.614\nentropy = 1.0\nsamples = 2\nvalue = [1, 1]"] ;
522 -> 524 ;
525 [label="entropy = 0.0\nsamples = 1\nvalue = [0, 1]"] ;
524 -> 525 ;
526 [label="entropy = 0.0\nsamples = 1\nvalue = [1, 0]"] ;
524 -> 526 ;
527 [label="X[0] <= -1918.948\nentropy = 0.567\nsamples = 15\nvalue = [2, 13]"] ;
517 -> 527 ;
528 [label="entropy = 0.0\nsamples = 10\nvalue = [0, 10]"] ;
527 -> 528 ;
529 [label="X[0] <= -1916.197\nentropy = 0.971\nsamples = 5\nvalue = [2, 3]"] ;
527 -> 529 ;
530 [label="entropy = 0.0\nsamples = 2\nvalue = [2, 0]"] ;
529 -> 530 ;
531 [label="entropy = 0.0\nsamples = 3\nvalue = [0, 3]"] ;
529 -> 531 ;
532 [label="X[0] <= -1909.102\nentropy = 0.702\nsamples = 42\nvalue = [34, 8]"] ;
480 -> 532 ;
533 [label="X[0] <= -1909.574\nentropy = 0.84\nsamples = 26\nvalue = [19, 7]"] ;
532 -> 533 ;
534 [label="X[0] <= -1912.845\nentropy = 0.738\nsamples = 24\nvalue = [19, 5]"] ;
533 -> 534 ;
535 [label="entropy = 0.0\nsamples = 6\nvalue = [6, 0]"] ;
534 -> 535 ;
536 [label="X[0] <= -1912.544\nentropy = 0.852\nsamples = 18\nvalue = [13, 5]"] ;
534 -> 536 ;
537 [label="entropy = 0.811\nsamples = 4\nvalue = [1, 3]"] ;
536 -> 537 ;
538 [label="X[0] <= -1911.232\nentropy = 0.592\nsamples = 14\nvalue = [12, 2]"] ;
536 -> 538 ;
539 [label="entropy = 0.0\nsamples = 9\nvalue = [9, 0]"] ;
538 -> 539 ;
540 [label="X[0] <= -1910.814\nentropy = 0.971\nsamples = 5\nvalue = [3, 2]"] ;
538 -> 540 ;
541 [label="entropy = 0.0\nsamples = 2\nvalue = [0, 2]"] ;
540 -> 541 ;
542 [label="entropy = 0.0\nsamples = 3\nvalue = [3, 0]"] ;
540 -> 542 ;
543 [label="entropy = 0.0\nsamples = 2\nvalue = [0, 2]"] ;
533 -> 543 ;
544 [label="X[0] <= -1906.56\nentropy = 0.337\nsamples = 16\nvalue = [15, 1]"] ;
532 -> 544 ;
545 [label="entropy = 0.0\nsamples = 11\nvalue = [11, 0]"] ;
544 -> 545 ;
546 [label="X[0] <= -1906.097\nentropy = 0.722\nsamples = 5\nvalue = [4, 1]"] ;
544 -> 546 ;
547 [label="entropy = 0.0\nsamples = 1\nvalue = [0, 1]"] ;
546 -> 547 ;
548 [label="entropy = 0.0\nsamples = 4\nvalue = [4, 0]"] ;
546 -> 548 ;
549 [label="X[0] <= -1680.968\nentropy = 0.955\nsamples = 997\nvalue = [374, 623]"] ;
479 -> 549 ;
550 [label="X[0] <= -1682.476\nentropy = 0.959\nsamples = 975\nvalue = [372, 603]"] ;
549 -> 550 ;
551 [label="X[0] <= -1836.907\nentropy = 0.957\nsamples = 970\nvalue = [367, 603]"] ;
550 -> 551 ;
552 [label="X[0] <= -1845.565\nentropy = 0.91\nsamples = 335\nvalue = [109, 226]"] ;
551 -> 552 ;
553 [label="X[0] <= -1846.225\nentropy = 0.945\nsamples = 295\nvalue = [107, 188]"] ;
552 -> 553 ;
554 [label="X[0] <= -1904.662\nentropy = 0.939\nsamples = 292\nvalue = [104, 188]"] ;
553 -> 554 ;
555 [label="entropy = 0.0\nsamples = 4\nvalue = [0, 4]"] ;
554 -> 555 ;
556 [label="X[0] <= -1901.283\nentropy = 0.944\nsamples = 288\nvalue = [104, 184]"] ;
554 -> 556 ;
557 [label="entropy = 0.0\nsamples = 3\nvalue = [3, 0]"] ;
556 -> 557 ;
558 [label="X[0] <= -1897.51\nentropy = 0.938\nsamples = 285\nvalue = [101, 184]"] ;
556 -> 558 ;
559 [label="entropy = 0.0\nsamples = 9\nvalue = [0, 9]"] ;
558 -> 559 ;
560 [label="X[0] <= -1846.751\nentropy = 0.948\nsamples = 276\nvalue = [101, 175]"] ;
558 -> 560 ;
561 [label="X[0] <= -1847.415\nentropy = 0.952\nsamples = 272\nvalue = [101, 171]"] ;
560 -> 561 ;
562 [label="X[0] <= -1870.125\nentropy = 0.948\nsamples = 270\nvalue = [99, 171]"] ;
561 -> 562 ;
563 [label="X[0] <= -1876.189\nentropy = 0.978\nsamples = 143\nvalue = [59, 84]"] ;
562 -> 563 ;
564 [label="X[0] <= -1876.81\nentropy = 0.944\nsamples = 119\nvalue = [43, 76]"] ;
563 -> 564 ;
565 [label="X[0] <= -1877.392\nentropy = 0.961\nsamples = 112\nvalue = [43, 69]"] ;
564 -> 565 ;
566 [label="X[0] <= -1877.946\nentropy = 0.948\nsamples = 109\nvalue = [40, 69]"] ;
565 -> 566 ;
567 [label="X[0] <= -1883.475\nentropy = 0.969\nsamples = 101\nvalue = [40, 61]"] ;
566 -> 567 ;
568 [label="entropy = 0.99\nsamples = 77\nvalue = [34, 43]"] ;
567 -> 568 ;
569 [label="entropy = 0.811\nsamples = 24\nvalue = [6, 18]"] ;
567 -> 569 ;
570 [label="entropy = 0.0\nsamples = 8\nvalue = [0, 8]"] ;
566 -> 570 ;
571 [label="entropy = 0.0\nsamples = 3\nvalue = [3, 0]"] ;
565 -> 571 ;
572 [label="entropy = 0.0\nsamples = 7\nvalue = [0, 7]"] ;
564 -> 572 ;
573 [label="X[0] <= -1872.678\nentropy = 0.918\nsamples = 24\nvalue = [16, 8]"] ;
563 -> 573 ;
574 [label="entropy = 0.0\nsamples = 8\nvalue = [8, 0]"] ;
573 -> 574 ;
575 [label="X[0] <= -1870.677\nentropy = 1.0\nsamples = 16\nvalue = [8, 8]"] ;
573 -> 575 ;
576 [label="X[0] <= -1872.13\nentropy = 0.961\nsamples = 13\nvalue = [5, 8]"] ;
575 -> 576 ;
577 [label="X[0] <= -1872.33\nentropy = 0.722\nsamples = 5\nvalue = [1, 4]"] ;
576 -> 577 ;
578 [label="entropy = 0.811\nsamples = 4\nvalue = [1, 3]"] ;
577 -> 578 ;
579 [label="entropy = 0.0\nsamples = 1\nvalue = [0, 1]"] ;
577 -> 579 ;
580 [label="X[0] <= -1871.877\nentropy = 1.0\nsamples = 8\nvalue = [4, 4]"] ;
576 -> 580 ;
581 [label="entropy = 0.0\nsamples = 2\nvalue = [2, 0]"] ;
580 -> 581 ;
582 [label="entropy = 0.918\nsamples = 6\nvalue = [2, 4]"] ;
580 -> 582 ;
583 [label="entropy = 0.0\nsamples = 3\nvalue = [3, 0]"] ;
575 -> 583 ;
584 [label="X[0] <= -1868.569\nentropy = 0.899\nsamples = 127\nvalue = [40, 87]"] ;
562 -> 584 ;
585 [label="X[0] <= -1869.724\nentropy = 0.402\nsamples = 25\nvalue = [2, 23]"] ;
584 -> 585 ;
586 [label="entropy = 0.0\nsamples = 11\nvalue = [0, 11]"] ;
585 -> 586 ;
587 [label="X[0] <= -1869.27\nentropy = 0.592\nsamples = 14\nvalue = [2, 12]"] ;
585 -> 587 ;
588 [label="X[0] <= -1869.624\nentropy = 0.971\nsamples = 5\nvalue = [2, 3]"] ;
587 -> 588 ;
589 [label="entropy = 0.0\nsamples = 1\nvalue = [1, 0]"] ;
588 -> 589 ;
590 [label="X[0] <= -1869.424\nentropy = 0.811\nsamples = 4\nvalue = [1, 3]"] ;
588 -> 590 ;
591 [label="entropy = 0.0\nsamples = 3\nvalue = [0, 3]"] ;
590 -> 591 ;
592 [label="entropy = 0.0\nsamples = 1\nvalue = [1, 0]"] ;
590 -> 592 ;
593 [label="entropy = 0.0\nsamples = 9\nvalue = [0, 9]"] ;
587 -> 593 ;
594 [label="X[0] <= -1850.262\nentropy = 0.953\nsamples = 102\nvalue = [38, 64]"] ;
584 -> 594 ;
595 [label="X[0] <= -1854.607\nentropy = 0.982\nsamples = 76\nvalue = [32, 44]"] ;
594 -> 595 ;
596 [label="X[0] <= -1858.177\nentropy = 0.918\nsamples = 63\nvalue = [21, 42]"] ;
595 -> 596 ;
597 [label="X[0] <= -1863.135\nentropy = 0.996\nsamples = 43\nvalue = [20, 23]"] ;
596 -> 597 ;
598 [label="entropy = 0.881\nsamples = 30\nvalue = [9, 21]"] ;
597 -> 598 ;
599 [label="entropy = 0.619\nsamples = 13\nvalue = [11, 2]"] ;
597 -> 599 ;
600 [label="X[0] <= -1856.787\nentropy = 0.286\nsamples = 20\nvalue = [1, 19]"] ;
596 -> 600 ;
601 [label="entropy = 0.0\nsamples = 16\nvalue = [0, 16]"] ;
600 -> 601 ;
602 [label="entropy = 0.811\nsamples = 4\nvalue = [1, 3]"] ;
600 -> 602 ;
603 [label="X[0] <= -1852.238\nentropy = 0.619\nsamples = 13\nvalue = [11, 2]"] ;
595 -> 603 ;
604 [label="entropy = 0.0\nsamples = 6\nvalue = [6, 0]"] ;
603 -> 604 ;
605 [label="X[0] <= -1851.172\nentropy = 0.863\nsamples = 7\nvalue = [5, 2]"] ;
603 -> 605 ;
606 [label="entropy = 0.0\nsamples = 2\nvalue = [0, 2]"] ;
605 -> 606 ;
607 [label="entropy = 0.0\nsamples = 5\nvalue = [5, 0]"] ;
605 -> 607 ;
608 [label="X[0] <= -1848.858\nentropy = 0.779\nsamples = 26\nvalue = [6, 20]"] ;
594 -> 608 ;
609 [label="entropy = 0.0\nsamples = 7\nvalue = [0, 7]"] ;
608 -> 609 ;
610 [label="X[0] <= -1848.443\nentropy = 0.9\nsamples = 19\nvalue = [6, 13]"] ;
608 -> 610 ;
611 [label="entropy = 0.0\nsamples = 2\nvalue = [2, 0]"] ;
610 -> 611 ;
612 [label="X[0] <= -1848.318\nentropy = 0.787\nsamples = 17\nvalue = [4, 13]"] ;
610 -> 612 ;
613 [label="entropy = 0.0\nsamples = 8\nvalue = [0, 8]"] ;
612 -> 613 ;
614 [label="entropy = 0.991\nsamples = 9\nvalue = [4, 5]"] ;
612 -> 614 ;
615 [label="entropy = 0.0\nsamples = 2\nvalue = [2, 0]"] ;
561 -> 615 ;
616 [label="entropy = 0.0\nsamples = 4\nvalue = [0, 4]"] ;
560 -> 616 ;
617 [label="entropy = 0.0\nsamples = 3\nvalue = [3, 0]"] ;
553 -> 617 ;
618 [label="X[0] <= -1838.131\nentropy = 0.286\nsamples = 40\nvalue = [2, 38]"] ;
552 -> 618 ;
619 [label="X[0] <= -1838.499\nentropy = 0.353\nsamples = 30\nvalue = [2, 28]"] ;
618 -> 619 ;
620 [label="X[0] <= -1841.167\nentropy = 0.216\nsamples = 29\nvalue = [1, 28]"] ;
619 -> 620 ;
621 [label="X[0] <= -1841.317\nentropy = 0.544\nsamples = 8\nvalue = [1, 7]"] ;
620 -> 621 ;
622 [label="entropy = 0.0\nsamples = 7\nvalue = [0, 7]"] ;
621 -> 622 ;
623 [label="entropy = 0.0\nsamples = 1\nvalue = [1, 0]"] ;
621 -> 623 ;
624 [label="entropy = 0.0\nsamples = 21\nvalue = [0, 21]"] ;
620 -> 624 ;
625 [label="entropy = 0.0\nsamples = 1\nvalue = [1, 0]"] ;
619 -> 625 ;
626 [label="entropy = 0.0\nsamples = 10\nvalue = [0, 10]"] ;
618 -> 626 ;
627 [label="X[0] <= -1829.606\nentropy = 0.975\nsamples = 635\nvalue = [258, 377]"] ;
551 -> 627 ;
628 [label="X[0] <= -1831.775\nentropy = 0.738\nsamples = 24\nvalue = [19, 5]"] ;
627 -> 628 ;
629 [label="X[0] <= -1832.126\nentropy = 0.918\nsamples = 15\nvalue = [10, 5]"] ;
628 -> 629 ;
630 [label="X[0] <= -1835.439\nentropy = 0.65\nsamples = 12\nvalue = [10, 2]"] ;
629 -> 630 ;
631 [label="entropy = 0.0\nsamples = 5\nvalue = [5, 0]"] ;
630 -> 631 ;
632 [label="X[0] <= -1835.119\nentropy = 0.863\nsamples = 7\nvalue = [5, 2]"] ;
630 -> 632 ;
633 [label="entropy = 0.0\nsamples = 2\nvalue = [0, 2]"] ;
632 -> 633 ;
634 [label="entropy = 0.0\nsamples = 5\nvalue = [5, 0]"] ;
632 -> 634 ;
635 [label="entropy = 0.0\nsamples = 3\nvalue = [0, 3]"] ;
629 -> 635 ;
636 [label="entropy = 0.0\nsamples = 9\nvalue = [9, 0]"] ;
628 -> 636 ;
637 [label="X[0] <= -1829.222\nentropy = 0.966\nsamples = 611\nvalue = [239, 372]"] ;
627 -> 637 ;
638 [label="entropy = 0.0\nsamples = 7\nvalue = [0, 7]"] ;
637 -> 638 ;
639 [label="X[0] <= -1826.681\nentropy = 0.968\nsamples = 604\nvalue = [239, 365]"] ;
637 -> 639 ;
640 [label="X[0] <= -1828.02\nentropy = 0.503\nsamples = 9\nvalue = [8, 1]"] ;
639 -> 640 ;
641 [label="entropy = 0.0\nsamples = 5\nvalue = [5, 0]"] ;
640 -> 641 ;
642 [label="X[0] <= -1827.76\nentropy = 0.811\nsamples = 4\nvalue = [3, 1]"] ;
640 -> 642 ;
643 [label="entropy = 0.0\nsamples = 1\nvalue = [0, 1]"] ;
642 -> 643 ;
644 [label="entropy = 0.0\nsamples = 3\nvalue = [3, 0]"] ;
642 -> 644 ;
645 [label="X[0] <= -1694.368\nentropy = 0.964\nsamples = 595\nvalue = [231, 364]"] ;
639 -> 645 ;
646 [label="X[0] <= -1705.233\nentropy = 0.971\nsamples = 549\nvalue = [220, 329]"] ;
645 -> 646 ;
647 [label="X[0] <= -1707.035\nentropy = 0.961\nsamples = 531\nvalue = [204, 327]"] ;
646 -> 647 ;
648 [label="X[0] <= -1709.646\nentropy = 0.964\nsamples = 524\nvalue = [204, 320]"] ;
647 -> 648 ;
649 [label="X[0] <= -1749.733\nentropy = 0.957\nsamples = 508\nvalue = [192, 316]"] ;
648 -> 649 ;
650 [label="X[0] <= -1753.404\nentropy = 0.985\nsamples = 311\nvalue = [133, 178]"] ;
649 -> 650 ;
651 [label="X[0] <= -1773.108\nentropy = 0.976\nsamples = 301\nvalue = [123, 178]"] ;
650 -> 651 ;
652 [label="X[0] <= -1776.601\nentropy = 0.959\nsamples = 239\nvalue = [91, 148]"] ;
651 -> 652 ;
653 [label="X[0] <= -1777.287\nentropy = 0.973\nsamples = 216\nvalue = [87, 129]"] ;
652 -> 653 ;
654 [label="X[0] <= -1778.365\nentropy = 0.964\nsamples = 211\nvalue = [82, 129]"] ;
653 -> 654 ;
655 [label="entropy = 0.972\nsamples = 204\nvalue = [82, 122]"] ;
654 -> 655 ;
656 [label="entropy = 0.0\nsamples = 7\nvalue = [0, 7]"] ;
654 -> 656 ;
657 [label="entropy = 0.0\nsamples = 5\nvalue = [5, 0]"] ;
653 -> 657 ;
658 [label="X[0] <= -1774.428\nentropy = 0.667\nsamples = 23\nvalue = [4, 19]"] ;
652 -> 658 ;
659 [label="X[0] <= -1774.598\nentropy = 0.503\nsamples = 18\nvalue = [2, 16]"] ;
658 -> 659 ;
660 [label="entropy = 0.619\nsamples = 13\nvalue = [2, 11]"] ;
659 -> 660 ;
661 [label="entropy = 0.0\nsamples = 5\nvalue = [0, 5]"] ;
659 -> 661 ;
662 [label="X[0] <= -1773.758\nentropy = 0.971\nsamples = 5\nvalue = [2, 3]"] ;
658 -> 662 ;
663 [label="entropy = 0.0\nsamples = 2\nvalue = [2, 0]"] ;
662 -> 663 ;
664 [label="entropy = 0.0\nsamples = 3\nvalue = [0, 3]"] ;
662 -> 664 ;
665 [label="X[0] <= -1764.369\nentropy = 0.999\nsamples = 62\nvalue = [32, 30]"] ;
651 -> 665 ;
666 [label="X[0] <= -1771.802\nentropy = 0.323\nsamples = 17\nvalue = [16, 1]"] ;
665 -> 666 ;
667 [label="X[0] <= -1771.975\nentropy = 0.65\nsamples = 6\nvalue = [5, 1]"] ;
666 -> 667 ;
668 [label="entropy = 0.0\nsamples = 5\nvalue = [5, 0]"] ;
667 -> 668 ;
669 [label="entropy = 0.0\nsamples = 1\nvalue = [0, 1]"] ;
667 -> 669 ;
670 [label="entropy = 0.0\nsamples = 11\nvalue = [11, 0]"] ;
666 -> 670 ;
671 [label="X[0] <= -1763.969\nentropy = 0.939\nsamples = 45\nvalue = [16, 29]"] ;
665 -> 671 ;
672 [label="entropy = 0.0\nsamples = 4\nvalue = [0, 4]"] ;
671 -> 672 ;
673 [label="X[0] <= -1762.514\nentropy = 0.965\nsamples = 41\nvalue = [16, 25]"] ;
671 -> 673 ;
674 [label="entropy = 0.0\nsamples = 2\nvalue = [2, 0]"] ;
673 -> 674 ;
675 [label="entropy = 0.942\nsamples = 39\nvalue = [14, 25]"] ;
673 -> 675 ;
676 [label="entropy = 0.0\nsamples = 10\nvalue = [10, 0]"] ;
650 -> 676 ;
677 [label="X[0] <= -1713.442\nentropy = 0.881\nsamples = 197\nvalue = [59, 138]"] ;
649 -> 677 ;
678 [label="X[0] <= -1713.773\nentropy = 0.903\nsamples = 179\nvalue = [57, 122]"] ;
677 -> 678 ;
679 [label="X[0] <= -1715.745\nentropy = 0.894\nsamples = 177\nvalue = [55, 122]"] ;
678 -> 679 ;
680 [label="X[0] <= -1717.11\nentropy = 0.908\nsamples = 170\nvalue = [55, 115]"] ;
679 -> 680 ;
681 [label="X[0] <= -1718.294\nentropy = 0.895\nsamples = 167\nvalue = [52, 115]"] ;
680 -> 681 ;
682 [label="entropy = 0.908\nsamples = 161\nvalue = [52, 109]"] ;
681 -> 682 ;
683 [label="entropy = 0.0\nsamples = 6\nvalue = [0, 6]"] ;
681 -> 683 ;
684 [label="entropy = 0.0\nsamples = 3\nvalue = [3, 0]"] ;
680 -> 684 ;
685 [label="entropy = 0.0\nsamples = 7\nvalue = [0, 7]"] ;
679 -> 685 ;
686 [label="entropy = 0.0\nsamples = 2\nvalue = [2, 0]"] ;
678 -> 686 ;
687 [label="X[0] <= -1712.914\nentropy = 0.503\nsamples = 18\nvalue = [2, 16]"] ;
677 -> 687 ;
688 [label="entropy = 0.0\nsamples = 6\nvalue = [0, 6]"] ;
687 -> 688 ;
689 [label="X[0] <= -1712.735\nentropy = 0.65\nsamples = 12\nvalue = [2, 10]"] ;
687 -> 689 ;
690 [label="entropy = 0.0\nsamples = 1\nvalue = [1, 0]"] ;
689 -> 690 ;
691 [label="X[0] <= -1711.24\nentropy = 0.439\nsamples = 11\nvalue = [1, 10]"] ;
689 -> 691 ;
692 [label="entropy = 0.0\nsamples = 7\nvalue = [0, 7]"] ;
691 -> 692 ;
693 [label="X[0] <= -1710.385\nentropy = 0.811\nsamples = 4\nvalue = [1, 3]"] ;
691 -> 693 ;
694 [label="entropy = 0.0\nsamples = 1\nvalue = [1, 0]"] ;
693 -> 694 ;
695 [label="entropy = 0.0\nsamples = 3\nvalue = [0, 3]"] ;
693 -> 695 ;
696 [label="X[0] <= -1707.936\nentropy = 0.811\nsamples = 16\nvalue = [12, 4]"] ;
648 -> 696 ;
697 [label="entropy = 0.0\nsamples = 9\nvalue = [9, 0]"] ;
696 -> 697 ;
698 [label="X[0] <= -1707.743\nentropy = 0.985\nsamples = 7\nvalue = [3, 4]"] ;
696 -> 698 ;
699 [label="entropy = 0.0\nsamples = 4\nvalue = [0, 4]"] ;
698 -> 699 ;
700 [label="entropy = 0.0\nsamples = 3\nvalue = [3, 0]"] ;
698 -> 700 ;
701 [label="entropy = 0.0\nsamples = 7\nvalue = [0, 7]"] ;
647 -> 701 ;
702 [label="X[0] <= -1697.74\nentropy = 0.503\nsamples = 18\nvalue = [16, 2]"] ;
646 -> 702 ;
703 [label="entropy = 0.0\nsamples = 11\nvalue = [11, 0]"] ;
702 -> 703 ;
704 [label="X[0] <= -1697.446\nentropy = 0.863\nsamples = 7\nvalue = [5, 2]"] ;
702 -> 704 ;
705 [label="entropy = 0.0\nsamples = 2\nvalue = [0, 2]"] ;
704 -> 705 ;
706 [label="entropy = 0.0\nsamples = 5\nvalue = [5, 0]"] ;
704 -> 706 ;
707 [label="X[0] <= -1691.616\nentropy = 0.794\nsamples = 46\nvalue = [11, 35]"] ;
645 -> 707 ;
708 [label="X[0] <= -1692.558\nentropy = 0.31\nsamples = 18\nvalue = [1, 17]"] ;
707 -> 708 ;
709 [label="entropy = 0.0\nsamples = 10\nvalue = [0, 10]"] ;
708 -> 709 ;
710 [label="X[0] <= -1692.005\nentropy = 0.544\nsamples = 8\nvalue = [1, 7]"] ;
708 -> 710 ;
711 [label="entropy = 0.0\nsamples = 1\nvalue = [1, 0]"] ;
710 -> 711 ;
712 [label="entropy = 0.0\nsamples = 7\nvalue = [0, 7]"] ;
710 -> 712 ;
713 [label="X[0] <= -1691.067\nentropy = 0.94\nsamples = 28\nvalue = [10, 18]"] ;
707 -> 713 ;
714 [label="entropy = 0.0\nsamples = 1\nvalue = [1, 0]"] ;
713 -> 714 ;
715 [label="X[0] <= -1690.508\nentropy = 0.918\nsamples = 27\nvalue = [9, 18]"] ;
713 -> 715 ;
716 [label="entropy = 0.0\nsamples = 3\nvalue = [0, 3]"] ;
715 -> 716 ;
717 [label="X[0] <= -1690.241\nentropy = 0.954\nsamples = 24\nvalue = [9, 15]"] ;
715 -> 717 ;
718 [label="entropy = 0.0\nsamples = 1\nvalue = [1, 0]"] ;
717 -> 718 ;
719 [label="X[0] <= -1689.176\nentropy = 0.932\nsamples = 23\nvalue = [8, 15]"] ;
717 -> 719 ;
720 [label="entropy = 0.0\nsamples = 3\nvalue = [0, 3]"] ;
719 -> 720 ;
721 [label="X[0] <= -1686.838\nentropy = 0.971\nsamples = 20\nvalue = [8, 12]"] ;
719 -> 721 ;
722 [label="X[0] <= -1688.227\nentropy = 0.918\nsamples = 6\nvalue = [4, 2]"] ;
721 -> 722 ;
723 [label="X[0] <= -1688.665\nentropy = 0.918\nsamples = 3\nvalue = [1, 2]"] ;
722 -> 723 ;
724 [label="entropy = 0.0\nsamples = 1\nvalue = [1, 0]"] ;
723 -> 724 ;
725 [label="entropy = 0.0\nsamples = 2\nvalue = [0, 2]"] ;
723 -> 725 ;
726 [label="entropy = 0.0\nsamples = 3\nvalue = [3, 0]"] ;
722 -> 726 ;
727 [label="X[0] <= -1685.22\nentropy = 0.863\nsamples = 14\nvalue = [4, 10]"] ;
721 -> 727 ;
728 [label="entropy = 0.0\nsamples = 6\nvalue = [0, 6]"] ;
727 -> 728 ;
729 [label="X[0] <= -1684.341\nentropy = 1.0\nsamples = 8\nvalue = [4, 4]"] ;
727 -> 729 ;
730 [label="entropy = 0.0\nsamples = 2\nvalue = [2, 0]"] ;
729 -> 730 ;
731 [label="X[0] <= -1683.4\nentropy = 0.918\nsamples = 6\nvalue = [2, 4]"] ;
729 -> 731 ;
732 [label="entropy = 0.0\nsamples = 2\nvalue = [0, 2]"] ;
731 -> 732 ;
733 [label="entropy = 1.0\nsamples = 4\nvalue = [2, 2]"] ;
731 -> 733 ;
734 [label="entropy = 0.0\nsamples = 5\nvalue = [5, 0]"] ;
550 -> 734 ;
735 [label="X[0] <= -1679.132\nentropy = 0.439\nsamples = 22\nvalue = [2, 20]"] ;
549 -> 735 ;
736 [label="entropy = 0.0\nsamples = 15\nvalue = [0, 15]"] ;
735 -> 736 ;
737 [label="X[0] <= -1678.316\nentropy = 0.863\nsamples = 7\nvalue = [2, 5]"] ;
735 -> 737 ;
738 [label="X[0] <= -1679.083\nentropy = 0.918\nsamples = 3\nvalue = [2, 1]"] ;
737 -> 738 ;
739 [label="entropy = 0.0\nsamples = 1\nvalue = [1, 0]"] ;
738 -> 739 ;
740 [label="X[0] <= -1678.816\nentropy = 1.0\nsamples = 2\nvalue = [1, 1]"] ;
738 -> 740 ;
741 [label="entropy = 0.0\nsamples = 1\nvalue = [0, 1]"] ;
740 -> 741 ;
742 [label="entropy = 0.0\nsamples = 1\nvalue = [1, 0]"] ;
740 -> 742 ;
743 [label="entropy = 0.0\nsamples = 4\nvalue = [0, 4]"] ;
737 -> 743 ;
744 [label="X[0] <= -1675.65\nentropy = 0.994\nsamples = 125\nvalue = [68, 57]"] ;
478 -> 744 ;
745 [label="entropy = 0.0\nsamples = 7\nvalue = [7, 0]"] ;
744 -> 745 ;
746 [label="X[0] <= -1634.423\nentropy = 0.999\nsamples = 118\nvalue = [61, 57]"] ;
744 -> 746 ;
747 [label="X[0] <= -1635.551\nentropy = 1.0\nsamples = 114\nvalue = [57, 57]"] ;
746 -> 747 ;
748 [label="X[0] <= -1636.241\nentropy = 0.998\nsamples = 108\nvalue = [57, 51]"] ;
747 -> 748 ;
749 [label="X[0] <= -1637.363\nentropy = 1.0\nsamples = 104\nvalue = [53, 51]"] ;
748 -> 749 ;
750 [label="X[0] <= -1640.834\nentropy = 0.996\nsamples = 99\nvalue = [53, 46]"] ;
749 -> 750 ;
751 [label="X[0] <= -1641.583\nentropy = 1.0\nsamples = 93\nvalue = [47, 46]"] ;
750 -> 751 ;
752 [label="X[0] <= -1646.568\nentropy = 0.998\nsamples = 89\nvalue = [47, 42]"] ;
751 -> 752 ;
753 [label="X[0] <= -1651.571\nentropy = 1.0\nsamples = 83\nvalue = [41, 42]"] ;
752 -> 753 ;
754 [label="X[0] <= -1672.396\nentropy = 0.986\nsamples = 58\nvalue = [33, 25]"] ;
753 -> 754 ;
755 [label="X[0] <= -1672.584\nentropy = 0.9\nsamples = 19\nvalue = [6, 13]"] ;
754 -> 755 ;
756 [label="X[0] <= -1673.25\nentropy = 0.996\nsamples = 13\nvalue = [6, 7]"] ;
755 -> 756 ;
757 [label="X[0] <= -1673.489\nentropy = 0.946\nsamples = 11\nvalue = [4, 7]"] ;
756 -> 757 ;
758 [label="X[0] <= -1674.983\nentropy = 0.985\nsamples = 7\nvalue = [4, 3]"] ;
757 -> 758 ;
759 [label="entropy = 0.0\nsamples = 2\nvalue = [0, 2]"] ;
758 -> 759 ;
760 [label="X[0] <= -1673.851\nentropy = 0.722\nsamples = 5\nvalue = [4, 1]"] ;
758 -> 760 ;
761 [label="entropy = 0.0\nsamples = 3\nvalue = [3, 0]"] ;
760 -> 761 ;
762 [label="X[0] <= -1673.689\nentropy = 1.0\nsamples = 2\nvalue = [1, 1]"] ;
760 -> 762 ;
763 [label="entropy = 0.0\nsamples = 1\nvalue = [0, 1]"] ;
762 -> 763 ;
764 [label="entropy = 0.0\nsamples = 1\nvalue = [1, 0]"] ;
762 -> 764 ;
765 [label="entropy = 0.0\nsamples = 4\nvalue = [0, 4]"] ;
757 -> 765 ;
766 [label="entropy = 0.0\nsamples = 2\nvalue = [2, 0]"] ;
756 -> 766 ;
767 [label="entropy = 0.0\nsamples = 6\nvalue = [0, 6]"] ;
755 -> 767 ;
768 [label="X[0] <= -1670.845\nentropy = 0.89\nsamples = 39\nvalue = [27, 12]"] ;
754 -> 768 ;
769 [label="entropy = 0.0\nsamples = 4\nvalue = [4, 0]"] ;
768 -> 769 ;
770 [label="X[0] <= -1668.046\nentropy = 0.928\nsamples = 35\nvalue = [23, 12]"] ;
768 -> 770 ;
771 [label="X[0] <= -1668.496\nentropy = 0.991\nsamples = 9\nvalue = [4, 5]"] ;
770 -> 771 ;
772 [label="X[0] <= -1668.843\nentropy = 0.918\nsamples = 6\nvalue = [4, 2]"] ;
771 -> 772 ;
773 [label="X[0] <= -1670.576\nentropy = 0.918\nsamples = 3\nvalue = [1, 2]"] ;
772 -> 773 ;
774 [label="entropy = 0.0\nsamples = 1\nvalue = [0, 1]"] ;
773 -> 774 ;
775 [label="X[0] <= -1669.675\nentropy = 1.0\nsamples = 2\nvalue = [1, 1]"] ;
773 -> 775 ;
776 [label="entropy = 0.0\nsamples = 1\nvalue = [1, 0]"] ;
775 -> 776 ;
777 [label="entropy = 0.0\nsamples = 1\nvalue = [0, 1]"] ;
775 -> 777 ;
778 [label="entropy = 0.0\nsamples = 3\nvalue = [3, 0]"] ;
772 -> 778 ;
779 [label="entropy = 0.0\nsamples = 3\nvalue = [0, 3]"] ;
771 -> 779 ;
780 [label="X[0] <= -1666.97\nentropy = 0.84\nsamples = 26\nvalue = [19, 7]"] ;
770 -> 780 ;
781 [label="entropy = 0.0\nsamples = 4\nvalue = [4, 0]"] ;
780 -> 781 ;
782 [label="X[0] <= -1666.74\nentropy = 0.902\nsamples = 22\nvalue = [15, 7]"] ;
780 -> 782 ;
783 [label="entropy = 0.0\nsamples = 1\nvalue = [0, 1]"] ;
782 -> 783 ;
784 [label="X[0] <= -1664.383\nentropy = 0.863\nsamples = 21\nvalue = [15, 6]"] ;
782 -> 784 ;
785 [label="entropy = 0.0\nsamples = 4\nvalue = [4, 0]"] ;
784 -> 785 ;
786 [label="X[0] <= -1663.483\nentropy = 0.937\nsamples = 17\nvalue = [11, 6]"] ;
784 -> 786 ;
787 [label="entropy = 0.0\nsamples = 1\nvalue = [0, 1]"] ;
786 -> 787 ;
788 [label="X[0] <= -1657.57\nentropy = 0.896\nsamples = 16\nvalue = [11, 5]"] ;
786 -> 788 ;
789 [label="entropy = 0.0\nsamples = 3\nvalue = [3, 0]"] ;
788 -> 789 ;
790 [label="entropy = 0.961\nsamples = 13\nvalue = [8, 5]"] ;
788 -> 790 ;
791 [label="X[0] <= -1651.516\nentropy = 0.904\nsamples = 25\nvalue = [8, 17]"] ;
753 -> 791 ;
792 [label="entropy = 0.0\nsamples = 10\nvalue = [0, 10]"] ;
791 -> 792 ;
793 [label="X[0] <= -1648.78\nentropy = 0.997\nsamples = 15\nvalue = [8, 7]"] ;
791 -> 793 ;
794 [label="X[0] <= -1649.973\nentropy = 0.544\nsamples = 8\nvalue = [7, 1]"] ;
793 -> 794 ;
795 [label="entropy = 0.0\nsamples = 5\nvalue = [5, 0]"] ;
794 -> 795 ;
796 [label="X[0] <= -1649.689\nentropy = 0.918\nsamples = 3\nvalue = [2, 1]"] ;
794 -> 796 ;
797 [label="entropy = 0.0\nsamples = 1\nvalue = [0, 1]"] ;
796 -> 797 ;
798 [label="entropy = 0.0\nsamples = 2\nvalue = [2, 0]"] ;
796 -> 798 ;
799 [label="X[0] <= -1648.217\nentropy = 0.592\nsamples = 7\nvalue = [1, 6]"] ;
793 -> 799 ;
800 [label="entropy = 0.0\nsamples = 3\nvalue = [0, 3]"] ;
799 -> 800 ;
801 [label="X[0] <= -1647.6\nentropy = 0.811\nsamples = 4\nvalue = [1, 3]"] ;
799 -> 801 ;
802 [label="entropy = 0.0\nsamples = 1\nvalue = [1, 0]"] ;
801 -> 802 ;
803 [label="entropy = 0.0\nsamples = 3\nvalue = [0, 3]"] ;
801 -> 803 ;
804 [label="entropy = 0.0\nsamples = 6\nvalue = [6, 0]"] ;
752 -> 804 ;
805 [label="entropy = 0.0\nsamples = 4\nvalue = [0, 4]"] ;
751 -> 805 ;
806 [label="entropy = 0.0\nsamples = 6\nvalue = [6, 0]"] ;
750 -> 806 ;
807 [label="entropy = 0.0\nsamples = 5\nvalue = [0, 5]"] ;
749 -> 807 ;
808 [label="entropy = 0.0\nsamples = 4\nvalue = [4, 0]"] ;
748 -> 808 ;
809 [label="entropy = 0.0\nsamples = 6\nvalue = [0, 6]"] ;
747 -> 809 ;
810 [label="entropy = 0.0\nsamples = 4\nvalue = [4, 0]"] ;
746 -> 810 ;
811 [label="X[0] <= -1629.907\nentropy = 0.8\nsamples = 107\nvalue = [26, 81]"] ;
477 -> 811 ;
812 [label="entropy = 0.0\nsamples = 11\nvalue = [0, 11]"] ;
811 -> 812 ;
813 [label="X[0] <= -1628.511\nentropy = 0.843\nsamples = 96\nvalue = [26, 70]"] ;
811 -> 813 ;
814 [label="X[0] <= -1629.01\nentropy = 0.918\nsamples = 9\nvalue = [6, 3]"] ;
813 -> 814 ;
815 [label="X[0] <= -1629.829\nentropy = 1.0\nsamples = 6\nvalue = [3, 3]"] ;
814 -> 815 ;
816 [label="entropy = 0.0\nsamples = 1\nvalue = [1, 0]"] ;
815 -> 816 ;
817 [label="X[0] <= -1629.67\nentropy = 0.971\nsamples = 5\nvalue = [2, 3]"] ;
815 -> 817 ;
818 [label="entropy = 0.0\nsamples = 2\nvalue = [0, 2]"] ;
817 -> 818 ;
819 [label="X[0] <= -1629.42\nentropy = 0.918\nsamples = 3\nvalue = [2, 1]"] ;
817 -> 819 ;
820 [label="entropy = 0.0\nsamples = 2\nvalue = [2, 0]"] ;
819 -> 820 ;
821 [label="entropy = 0.0\nsamples = 1\nvalue = [0, 1]"] ;
819 -> 821 ;
822 [label="entropy = 0.0\nsamples = 3\nvalue = [3, 0]"] ;
814 -> 822 ;
823 [label="X[0] <= -1618.925\nentropy = 0.778\nsamples = 87\nvalue = [20, 67]"] ;
813 -> 823 ;
824 [label="X[0] <= -1622.41\nentropy = 0.536\nsamples = 49\nvalue = [6, 43]"] ;
823 -> 824 ;
825 [label="X[0] <= -1622.664\nentropy = 0.65\nsamples = 36\nvalue = [6, 30]"] ;
824 -> 825 ;
826 [label="X[0] <= -1624.974\nentropy = 0.439\nsamples = 33\nvalue = [3, 30]"] ;
825 -> 826 ;
827 [label="X[0] <= -1625.811\nentropy = 0.75\nsamples = 14\nvalue = [3, 11]"] ;
826 -> 827 ;
828 [label="X[0] <= -1628.287\nentropy = 0.414\nsamples = 12\nvalue = [1, 11]"] ;
827 -> 828 ;
829 [label="entropy = 0.0\nsamples = 7\nvalue = [0, 7]"] ;
828 -> 829 ;
830 [label="X[0] <= -1627.258\nentropy = 0.722\nsamples = 5\nvalue = [1, 4]"] ;
828 -> 830 ;
831 [label="entropy = 0.0\nsamples = 1\nvalue = [1, 0]"] ;
830 -> 831 ;
832 [label="entropy = 0.0\nsamples = 4\nvalue = [0, 4]"] ;
830 -> 832 ;
833 [label="entropy = 0.0\nsamples = 2\nvalue = [2, 0]"] ;
827 -> 833 ;
834 [label="entropy = 0.0\nsamples = 19\nvalue = [0, 19]"] ;
826 -> 834 ;
835 [label="entropy = 0.0\nsamples = 3\nvalue = [3, 0]"] ;
825 -> 835 ;
836 [label="entropy = 0.0\nsamples = 13\nvalue = [0, 13]"] ;
824 -> 836 ;
837 [label="X[0] <= -1613.63\nentropy = 0.949\nsamples = 38\nvalue = [14, 24]"] ;
823 -> 837 ;
838 [label="entropy = 0.0\nsamples = 6\nvalue = [6, 0]"] ;
837 -> 838 ;
839 [label="X[0] <= -1605.501\nentropy = 0.811\nsamples = 32\nvalue = [8, 24]"] ;
837 -> 839 ;
840 [label="X[0] <= -1610.928\nentropy = 0.964\nsamples = 18\nvalue = [7, 11]"] ;
839 -> 840 ;
841 [label="entropy = 0.0\nsamples = 6\nvalue = [0, 6]"] ;
840 -> 841 ;
842 [label="X[0] <= -1607.98\nentropy = 0.98\nsamples = 12\nvalue = [7, 5]"] ;
840 -> 842 ;
843 [label="entropy = 0.0\nsamples = 5\nvalue = [5, 0]"] ;
842 -> 843 ;
844 [label="X[0] <= -1606.271\nentropy = 0.863\nsamples = 7\nvalue = [2, 5]"] ;
842 -> 844 ;
845 [label="entropy = 0.0\nsamples = 5\nvalue = [0, 5]"] ;
844 -> 845 ;
846 [label="entropy = 0.0\nsamples = 2\nvalue = [2, 0]"] ;
844 -> 846 ;
847 [label="X[0] <= -1603.047\nentropy = 0.371\nsamples = 14\nvalue = [1, 13]"] ;
839 -> 847 ;
848 [label="entropy = 0.0\nsamples = 7\nvalue = [0, 7]"] ;
847 -> 848 ;
849 [label="X[0] <= -1602.796\nentropy = 0.592\nsamples = 7\nvalue = [1, 6]"] ;
847 -> 849 ;
850 [label="entropy = 0.0\nsamples = 1\nvalue = [1, 0]"] ;
849 -> 850 ;
851 [label="entropy = 0.0\nsamples = 6\nvalue = [0, 6]"] ;
849 -> 851 ;
852 [label="X[0] <= 1180.272\nentropy = 0.98\nsamples = 5680\nvalue = [3317, 2363]"] ;
0 -> 852 [labeldistance=2.5, labelangle=-45, headlabel="False"] ;
853 [label="X[0] <= -1584.698\nentropy = 0.998\nsamples = 3611\nvalue = [1911, 1700]"] ;
852 -> 853 ;
854 [label="X[0] <= -1600.028\nentropy = 0.381\nsamples = 27\nvalue = [25, 2]"] ;
853 -> 854 ;
855 [label="X[0] <= -1600.97\nentropy = 0.918\nsamples = 3\nvalue = [2, 1]"] ;
854 -> 855 ;
856 [label="entropy = 0.0\nsamples = 2\nvalue = [2, 0]"] ;
855 -> 856 ;
857 [label="entropy = 0.0\nsamples = 1\nvalue = [0, 1]"] ;
855 -> 857 ;
858 [label="X[0] <= -1591.072\nentropy = 0.25\nsamples = 24\nvalue = [23, 1]"] ;
854 -> 858 ;
859 [label="entropy = 0.0\nsamples = 13\nvalue = [13, 0]"] ;
858 -> 859 ;
860 [label="X[0] <= -1590.69\nentropy = 0.439\nsamples = 11\nvalue = [10, 1]"] ;
858 -> 860 ;
861 [label="entropy = 0.0\nsamples = 1\nvalue = [0, 1]"] ;
860 -> 861 ;
862 [label="entropy = 0.0\nsamples = 10\nvalue = [10, 0]"] ;
860 -> 862 ;
863 [label="X[0] <= -803.801\nentropy = 0.998\nsamples = 3584\nvalue = [1886, 1698]"] ;
853 -> 863 ;
864 [label="X[0] <= -855.884\nentropy = 1.0\nsamples = 1680\nvalue = [821, 859]"] ;
863 -> 864 ;
865 [label="X[0] <= -912.302\nentropy = 1.0\nsamples = 1568\nvalue = [786, 782]"] ;
864 -> 865 ;
866 [label="X[0] <= -1579.777\nentropy = 1.0\nsamples = 1482\nvalue = [729, 753]"] ;
865 -> 866 ;
867 [label="X[0] <= -1582.93\nentropy = 0.764\nsamples = 27\nvalue = [6, 21]"] ;
866 -> 867 ;
868 [label="X[0] <= -1583.75\nentropy = 1.0\nsamples = 8\nvalue = [4, 4]"] ;
867 -> 868 ;
869 [label="X[0] <= -1584.379\nentropy = 0.722\nsamples = 5\nvalue = [1, 4]"] ;
868 -> 869 ;
870 [label="entropy = 0.0\nsamples = 2\nvalue = [0, 2]"] ;
869 -> 870 ;
871 [label="X[0] <= -1584.059\nentropy = 0.918\nsamples = 3\nvalue = [1, 2]"] ;
869 -> 871 ;
872 [label="entropy = 0.0\nsamples = 1\nvalue = [1, 0]"] ;
871 -> 872 ;
873 [label="entropy = 0.0\nsamples = 2\nvalue = [0, 2]"] ;
871 -> 873 ;
874 [label="entropy = 0.0\nsamples = 3\nvalue = [3, 0]"] ;
868 -> 874 ;
875 [label="X[0] <= -1581.375\nentropy = 0.485\nsamples = 19\nvalue = [2, 17]"] ;
867 -> 875 ;
876 [label="entropy = 0.0\nsamples = 7\nvalue = [0, 7]"] ;
875 -> 876 ;
877 [label="X[0] <= -1581.023\nentropy = 0.65\nsamples = 12\nvalue = [2, 10]"] ;
875 -> 877 ;
878 [label="entropy = 0.0\nsamples = 1\nvalue = [1, 0]"] ;
877 -> 878 ;
879 [label="X[0] <= -1580.078\nentropy = 0.439\nsamples = 11\nvalue = [1, 10]"] ;
877 -> 879 ;
880 [label="entropy = 0.0\nsamples = 6\nvalue = [0, 6]"] ;
879 -> 880 ;
881 [label="X[0] <= -1579.93\nentropy = 0.722\nsamples = 5\nvalue = [1, 4]"] ;
879 -> 881 ;
882 [label="entropy = 0.0\nsamples = 1\nvalue = [1, 0]"] ;
881 -> 882 ;
883 [label="entropy = 0.0\nsamples = 4\nvalue = [0, 4]"] ;
881 -> 883 ;
884 [label="X[0] <= -1576.421\nentropy = 1.0\nsamples = 1455\nvalue = [723, 732]"] ;
866 -> 884 ;
885 [label="entropy = 0.0\nsamples = 11\nvalue = [11, 0]"] ;
884 -> 885 ;
886 [label="X[0] <= -936.938\nentropy = 1.0\nsamples = 1444\nvalue = [712, 732]"] ;
884 -> 886 ;
887 [label="X[0] <= -947.109\nentropy = 1.0\nsamples = 1373\nvalue = [688, 685]"] ;
886 -> 887 ;
888 [label="X[0] <= -1133.746\nentropy = 1.0\nsamples = 1366\nvalue = [681, 685]"] ;
887 -> 888 ;
889 [label="X[0] <= -1548.747\nentropy = 0.999\nsamples = 1034\nvalue = [494, 540]"] ;
888 -> 889 ;
890 [label="X[0] <= -1571.852\nentropy = 0.911\nsamples = 49\nvalue = [33, 16]"] ;
889 -> 890 ;
891 [label="X[0] <= -1574.947\nentropy = 0.89\nsamples = 13\nvalue = [4, 9]"] ;
890 -> 891 ;
892 [label="entropy = 0.0\nsamples = 2\nvalue = [0, 2]"] ;
891 -> 892 ;
893 [label="X[0] <= -1574.072\nentropy = 0.946\nsamples = 11\nvalue = [4, 7]"] ;
891 -> 893 ;
894 [label="entropy = 0.0\nsamples = 2\nvalue = [2, 0]"] ;
893 -> 894 ;
895 [label="X[0] <= -1573.146\nentropy = 0.764\nsamples = 9\nvalue = [2, 7]"] ;
893 -> 895 ;
896 [label="entropy = 0.0\nsamples = 5\nvalue = [0, 5]"] ;
895 -> 896 ;
897 [label="X[0] <= -1572.214\nentropy = 1.0\nsamples = 4\nvalue = [2, 2]"] ;
895 -> 897 ;
898 [label="entropy = 0.0\nsamples = 2\nvalue = [2, 0]"] ;
897 -> 898 ;
899 [label="entropy = 0.0\nsamples = 2\nvalue = [0, 2]"] ;
897 -> 899 ;
900 [label="X[0] <= -1554.099\nentropy = 0.711\nsamples = 36\nvalue = [29, 7]"] ;
890 -> 900 ;
901 [label="X[0] <= -1555.257\nentropy = 0.84\nsamples = 26\nvalue = [19, 7]"] ;
900 -> 901 ;
902 [label="X[0] <= -1568.074\nentropy = 0.667\nsamples = 23\nvalue = [19, 4]"] ;
901 -> 902 ;
903 [label="entropy = 0.0\nsamples = 6\nvalue = [6, 0]"] ;
902 -> 903 ;
904 [label="X[0] <= -1566.387\nentropy = 0.787\nsamples = 17\nvalue = [13, 4]"] ;
902 -> 904 ;
905 [label="entropy = 0.0\nsamples = 1\nvalue = [0, 1]"] ;
904 -> 905 ;
906 [label="X[0] <= -1559.959\nentropy = 0.696\nsamples = 16\nvalue = [13, 3]"] ;
904 -> 906 ;
907 [label="entropy = 0.0\nsamples = 7\nvalue = [7, 0]"] ;
906 -> 907 ;
908 [label="X[0] <= -1556.827\nentropy = 0.918\nsamples = 9\nvalue = [6, 3]"] ;
906 -> 908 ;
909 [label="X[0] <= -1557.136\nentropy = 0.971\nsamples = 5\nvalue = [2, 3]"] ;
908 -> 909 ;
910 [label="X[0] <= -1559.431\nentropy = 0.918\nsamples = 3\nvalue = [2, 1]"] ;
909 -> 910 ;
911 [label="entropy = 0.0\nsamples = 1\nvalue = [0, 1]"] ;
910 -> 911 ;
912 [label="entropy = 0.0\nsamples = 2\nvalue = [2, 0]"] ;
910 -> 912 ;
913 [label="entropy = 0.0\nsamples = 2\nvalue = [0, 2]"] ;
909 -> 913 ;
914 [label="entropy = 0.0\nsamples = 4\nvalue = [4, 0]"] ;
908 -> 914 ;
915 [label="entropy = 0.0\nsamples = 3\nvalue = [0, 3]"] ;
901 -> 915 ;
916 [label="entropy = 0.0\nsamples = 10\nvalue = [10, 0]"] ;
900 -> 916 ;
917 [label="X[0] <= -1544.934\nentropy = 0.997\nsamples = 985\nvalue = [461, 524]"] ;
889 -> 917 ;
918 [label="X[0] <= -1545.109\nentropy = 0.764\nsamples = 27\nvalue = [6, 21]"] ;
917 -> 918 ;
919 [label="X[0] <= -1546.1\nentropy = 0.863\nsamples = 21\nvalue = [6, 15]"] ;
918 -> 919 ;
920 [label="X[0] <= -1546.361\nentropy = 0.742\nsamples = 19\nvalue = [4, 15]"] ;
919 -> 920 ;
921 [label="X[0] <= -1546.515\nentropy = 0.918\nsamples = 12\nvalue = [4, 8]"] ;
920 -> 921 ;
922 [label="X[0] <= -1546.893\nentropy = 0.845\nsamples = 11\nvalue = [3, 8]"] ;
921 -> 922 ;
923 [label="X[0] <= -1548.273\nentropy = 1.0\nsamples = 6\nvalue = [3, 3]"] ;
922 -> 923 ;
924 [label="entropy = 0.0\nsamples = 2\nvalue = [0, 2]"] ;
923 -> 924 ;
925 [label="X[0] <= -1547.824\nentropy = 0.811\nsamples = 4\nvalue = [3, 1]"] ;
923 -> 925 ;
926 [label="X[0] <= -1547.898\nentropy = 1.0\nsamples = 2\nvalue = [1, 1]"] ;
925 -> 926 ;
927 [label="entropy = 0.0\nsamples = 1\nvalue = [1, 0]"] ;
926 -> 927 ;
928 [label="entropy = 0.0\nsamples = 1\nvalue = [0, 1]"] ;
926 -> 928 ;
929 [label="entropy = 0.0\nsamples = 2\nvalue = [2, 0]"] ;
925 -> 929 ;
930 [label="entropy = 0.0\nsamples = 5\nvalue = [0, 5]"] ;
922 -> 930 ;
931 [label="entropy = 0.0\nsamples = 1\nvalue = [1, 0]"] ;
921 -> 931 ;
932 [label="entropy = 0.0\nsamples = 7\nvalue = [0, 7]"] ;
920 -> 932 ;
933 [label="entropy = 0.0\nsamples = 2\nvalue = [2, 0]"] ;
919 -> 933 ;
934 [label="entropy = 0.0\nsamples = 6\nvalue = [0, 6]"] ;
918 -> 934 ;
935 [label="X[0] <= -1134.794\nentropy = 0.998\nsamples = 958\nvalue = [455, 503]"] ;
917 -> 935 ;
936 [label="X[0] <= -1137.241\nentropy = 0.999\nsamples = 953\nvalue = [455, 498]"] ;
935 -> 936 ;
937 [label="X[0] <= -1230.481\nentropy = 0.998\nsamples = 949\nvalue = [451, 498]"] ;
936 -> 937 ;
938 [label="X[0] <= -1260.384\nentropy = 1.0\nsamples = 729\nvalue = [360, 369]"] ;
937 -> 938 ;
939 [label="X[0] <= -1261.284\nentropy = 0.999\nsamples = 695\nvalue = [332, 363]"] ;
938 -> 939 ;
940 [label="X[0] <= -1263.254\nentropy = 0.999\nsamples = 687\nvalue = [332, 355]"] ;
939 -> 940 ;
941 [label="X[0] <= -1264.682\nentropy = 0.999\nsamples = 684\nvalue = [329, 355]"] ;
940 -> 941 ;
942 [label="X[0] <= -1268.666\nentropy = 0.999\nsamples = 676\nvalue = [329, 347]"] ;
941 -> 942 ;
943 [label="entropy = 0.999\nsamples = 671\nvalue = [324, 347]"] ;
942 -> 943 ;
944 [label="entropy = 0.0\nsamples = 5\nvalue = [5, 0]"] ;
942 -> 944 ;
945 [label="entropy = 0.0\nsamples = 8\nvalue = [0, 8]"] ;
941 -> 945 ;
946 [label="entropy = 0.0\nsamples = 3\nvalue = [3, 0]"] ;
940 -> 946 ;
947 [label="entropy = 0.0\nsamples = 8\nvalue = [0, 8]"] ;
939 -> 947 ;
948 [label="X[0] <= -1237.432\nentropy = 0.672\nsamples = 34\nvalue = [28, 6]"] ;
938 -> 948 ;
949 [label="X[0] <= -1255.72\nentropy = 0.426\nsamples = 23\nvalue = [21, 2]"] ;
948 -> 949 ;
950 [label="X[0] <= -1256.635\nentropy = 0.811\nsamples = 8\nvalue = [6, 2]"] ;
949 -> 950 ;
951 [label="entropy = 0.0\nsamples = 6\nvalue = [6, 0]"] ;
950 -> 951 ;
952 [label="entropy = 0.0\nsamples = 2\nvalue = [0, 2]"] ;
950 -> 952 ;
953 [label="entropy = 0.0\nsamples = 15\nvalue = [15, 0]"] ;
949 -> 953 ;
954 [label="X[0] <= -1236.744\nentropy = 0.946\nsamples = 11\nvalue = [7, 4]"] ;
948 -> 954 ;
955 [label="entropy = 0.0\nsamples = 2\nvalue = [0, 2]"] ;
954 -> 955 ;
956 [label="X[0] <= -1232.207\nentropy = 0.764\nsamples = 9\nvalue = [7, 2]"] ;
954 -> 956 ;
957 [label="entropy = 0.0\nsamples = 4\nvalue = [4, 0]"] ;
956 -> 957 ;
958 [label="X[0] <= -1231.526\nentropy = 0.971\nsamples = 5\nvalue = [3, 2]"] ;
956 -> 958 ;
959 [label="entropy = 0.0\nsamples = 2\nvalue = [0, 2]"] ;
958 -> 959 ;
960 [label="entropy = 0.0\nsamples = 3\nvalue = [3, 0]"] ;
958 -> 960 ;
961 [label="X[0] <= -1202.126\nentropy = 0.978\nsamples = 220\nvalue = [91, 129]"] ;
937 -> 961 ;
962 [label="X[0] <= -1205.121\nentropy = 0.851\nsamples = 83\nvalue = [23, 60]"] ;
961 -> 962 ;
963 [label="X[0] <= -1218.288\nentropy = 0.938\nsamples = 62\nvalue = [22, 40]"] ;
962 -> 963 ;
964 [label="X[0] <= -1219.45\nentropy = 0.764\nsamples = 45\nvalue = [10, 35]"] ;
963 -> 964 ;
965 [label="X[0] <= -1219.782\nentropy = 0.811\nsamples = 40\nvalue = [10, 30]"] ;
964 -> 965 ;
966 [label="entropy = 0.742\nsamples = 38\nvalue = [8, 30]"] ;
965 -> 966 ;
967 [label="entropy = 0.0\nsamples = 2\nvalue = [2, 0]"] ;
965 -> 967 ;
968 [label="entropy = 0.0\nsamples = 5\nvalue = [0, 5]"] ;
964 -> 968 ;
969 [label="X[0] <= -1208.811\nentropy = 0.874\nsamples = 17\nvalue = [12, 5]"] ;
963 -> 969 ;
970 [label="X[0] <= -1212.694\nentropy = 0.98\nsamples = 12\nvalue = [7, 5]"] ;
969 -> 970 ;
971 [label="entropy = 0.65\nsamples = 6\nvalue = [5, 1]"] ;
970 -> 971 ;
972 [label="entropy = 0.918\nsamples = 6\nvalue = [2, 4]"] ;
970 -> 972 ;
973 [label="entropy = 0.0\nsamples = 5\nvalue = [5, 0]"] ;
969 -> 973 ;
974 [label="X[0] <= -1204.095\nentropy = 0.276\nsamples = 21\nvalue = [1, 20]"] ;
962 -> 974 ;
975 [label="entropy = 0.0\nsamples = 11\nvalue = [0, 11]"] ;
974 -> 975 ;
976 [label="X[0] <= -1203.607\nentropy = 0.469\nsamples = 10\nvalue = [1, 9]"] ;
974 -> 976 ;
977 [label="entropy = 0.0\nsamples = 1\nvalue = [1, 0]"] ;
976 -> 977 ;
978 [label="entropy = 0.0\nsamples = 9\nvalue = [0, 9]"] ;
976 -> 978 ;
979 [label="X[0] <= -1182.454\nentropy = 1.0\nsamples = 137\nvalue = [68, 69]"] ;
961 -> 979 ;
980 [label="X[0] <= -1193.024\nentropy = 0.845\nsamples = 33\nvalue = [24, 9]"] ;
979 -> 980 ;
981 [label="X[0] <= -1194.056\nentropy = 0.996\nsamples = 13\nvalue = [7, 6]"] ;
980 -> 981 ;
982 [label="X[0] <= -1199.187\nentropy = 0.764\nsamples = 9\nvalue = [7, 2]"] ;
981 -> 982 ;
983 [label="entropy = 0.971\nsamples = 5\nvalue = [3, 2]"] ;
982 -> 983 ;
984 [label="entropy = 0.0\nsamples = 4\nvalue = [4, 0]"] ;
982 -> 984 ;
985 [label="entropy = 0.0\nsamples = 4\nvalue = [0, 4]"] ;
981 -> 985 ;
986 [label="X[0] <= -1188.256\nentropy = 0.61\nsamples = 20\nvalue = [17, 3]"] ;
980 -> 986 ;
987 [label="entropy = 0.0\nsamples = 8\nvalue = [8, 0]"] ;
986 -> 987 ;
988 [label="X[0] <= -1187.674\nentropy = 0.811\nsamples = 12\nvalue = [9, 3]"] ;
986 -> 988 ;
989 [label="entropy = 0.0\nsamples = 1\nvalue = [0, 1]"] ;
988 -> 989 ;
990 [label="entropy = 0.684\nsamples = 11\nvalue = [9, 2]"] ;
988 -> 990 ;
991 [label="X[0] <= -1144.5\nentropy = 0.983\nsamples = 104\nvalue = [44, 60]"] ;
979 -> 991 ;
992 [label="X[0] <= -1148.128\nentropy = 0.994\nsamples = 88\nvalue = [40, 48]"] ;
991 -> 992 ;
993 [label="X[0] <= -1149.609\nentropy = 0.982\nsamples = 83\nvalue = [35, 48]"] ;
992 -> 993 ;
994 [label="entropy = 0.994\nsamples = 75\nvalue = [34, 41]"] ;
993 -> 994 ;
995 [label="entropy = 0.544\nsamples = 8\nvalue = [1, 7]"] ;
993 -> 995 ;
996 [label="entropy = 0.0\nsamples = 5\nvalue = [5, 0]"] ;
992 -> 996 ;
997 [label="X[0] <= -1144.077\nentropy = 0.811\nsamples = 16\nvalue = [4, 12]"] ;
991 -> 997 ;
998 [label="entropy = 0.0\nsamples = 4\nvalue = [0, 4]"] ;
997 -> 998 ;
999 [label="X[0] <= -1142.962\nentropy = 0.918\nsamples = 12\nvalue = [4, 8]"] ;
997 -> 999 ;
1000 [label="entropy = 0.0\nsamples = 1\nvalue = [1, 0]"] ;
999 -> 1000 ;
1001 [label="entropy = 0.845\nsamples = 11\nvalue = [3, 8]"] ;
999 -> 1001 ;
1002 [label="entropy = 0.0\nsamples = 4\nvalue = [4, 0]"] ;
936 -> 1002 ;
1003 [label="entropy = 0.0\nsamples = 5\nvalue = [0, 5]"] ;
935 -> 1003 ;
1004 [label="X[0] <= -1082.078\nentropy = 0.988\nsamples = 332\nvalue = [187, 145]"] ;
888 -> 1004 ;
1005 [label="X[0] <= -1089.037\nentropy = 0.811\nsamples = 76\nvalue = [57, 19]"] ;
1004 -> 1005 ;
1006 [label="X[0] <= -1092.993\nentropy = 0.86\nsamples = 67\nvalue = [48, 19]"] ;
1005 -> 1006 ;
1007 [label="X[0] <= -1123.258\nentropy = 0.805\nsamples = 61\nvalue = [46, 15]"] ;
1006 -> 1007 ;
1008 [label="X[0] <= -1124.624\nentropy = 0.982\nsamples = 19\nvalue = [11, 8]"] ;
1007 -> 1008 ;
1009 [label="X[0] <= -1130.278\nentropy = 0.65\nsamples = 12\nvalue = [10, 2]"] ;
1008 -> 1009 ;
1010 [label="X[0] <= -1131.481\nentropy = 0.918\nsamples = 6\nvalue = [4, 2]"] ;
1009 -> 1010 ;
1011 [label="entropy = 0.0\nsamples = 4\nvalue = [4, 0]"] ;
1010 -> 1011 ;
1012 [label="entropy = 0.0\nsamples = 2\nvalue = [0, 2]"] ;
1010 -> 1012 ;
1013 [label="entropy = 0.0\nsamples = 6\nvalue = [6, 0]"] ;
1009 -> 1013 ;
1014 [label="X[0] <= -1124.303\nentropy = 0.592\nsamples = 7\nvalue = [1, 6]"] ;
1008 -> 1014 ;
1015 [label="entropy = 0.0\nsamples = 3\nvalue = [0, 3]"] ;
1014 -> 1015 ;
1016 [label="X[0] <= -1123.767\nentropy = 0.811\nsamples = 4\nvalue = [1, 3]"] ;
1014 -> 1016 ;
1017 [label="entropy = 0.0\nsamples = 1\nvalue = [1, 0]"] ;
1016 -> 1017 ;
1018 [label="entropy = 0.0\nsamples = 3\nvalue = [0, 3]"] ;
1016 -> 1018 ;
1019 [label="X[0] <= -1096.662\nentropy = 0.65\nsamples = 42\nvalue = [35, 7]"] ;
1007 -> 1019 ;
1020 [label="X[0] <= -1103.182\nentropy = 0.571\nsamples = 37\nvalue = [32, 5]"] ;
1019 -> 1020 ;
1021 [label="X[0] <= -1104.464\nentropy = 0.677\nsamples = 28\nvalue = [23, 5]"] ;
1020 -> 1021 ;
1022 [label="X[0] <= -1110.719\nentropy = 0.516\nsamples = 26\nvalue = [23, 3]"] ;
1021 -> 1022 ;
1023 [label="X[0] <= -1111.525\nentropy = 0.696\nsamples = 16\nvalue = [13, 3]"] ;
1022 -> 1023 ;
1024 [label="X[0] <= -1117.758\nentropy = 0.567\nsamples = 15\nvalue = [13, 2]"] ;
1023 -> 1024 ;
1025 [label="entropy = 0.0\nsamples = 3\nvalue = [3, 0]"] ;
1024 -> 1025 ;
1026 [label="entropy = 0.65\nsamples = 12\nvalue = [10, 2]"] ;
1024 -> 1026 ;
1027 [label="entropy = 0.0\nsamples = 1\nvalue = [0, 1]"] ;
1023 -> 1027 ;
1028 [label="entropy = 0.0\nsamples = 10\nvalue = [10, 0]"] ;
1022 -> 1028 ;
1029 [label="entropy = 0.0\nsamples = 2\nvalue = [0, 2]"] ;
1021 -> 1029 ;
1030 [label="entropy = 0.0\nsamples = 9\nvalue = [9, 0]"] ;
1020 -> 1030 ;
1031 [label="X[0] <= -1095.444\nentropy = 0.971\nsamples = 5\nvalue = [3, 2]"] ;
1019 -> 1031 ;
1032 [label="entropy = 0.0\nsamples = 2\nvalue = [0, 2]"] ;
1031 -> 1032 ;
1033 [label="entropy = 0.0\nsamples = 3\nvalue = [3, 0]"] ;
1031 -> 1033 ;
1034 [label="X[0] <= -1091.588\nentropy = 0.918\nsamples = 6\nvalue = [2, 4]"] ;
1006 -> 1034 ;
1035 [label="entropy = 0.0\nsamples = 2\nvalue = [0, 2]"] ;
1034 -> 1035 ;
1036 [label="X[0] <= -1091.08\nentropy = 1.0\nsamples = 4\nvalue = [2, 2]"] ;
1034 -> 1036 ;
1037 [label="entropy = 0.0\nsamples = 1\nvalue = [1, 0]"] ;
1036 -> 1037 ;
1038 [label="X[0] <= -1090.996\nentropy = 0.918\nsamples = 3\nvalue = [1, 2]"] ;
1036 -> 1038 ;
1039 [label="entropy = 0.0\nsamples = 1\nvalue = [0, 1]"] ;
1038 -> 1039 ;
1040 [label="X[0] <= -1090.303\nentropy = 1.0\nsamples = 2\nvalue = [1, 1]"] ;
1038 -> 1040 ;
1041 [label="entropy = 0.0\nsamples = 1\nvalue = [1, 0]"] ;
1040 -> 1041 ;
1042 [label="entropy = 0.0\nsamples = 1\nvalue = [0, 1]"] ;
1040 -> 1042 ;
1043 [label="entropy = 0.0\nsamples = 9\nvalue = [9, 0]"] ;
1005 -> 1043 ;
1044 [label="X[0] <= -1078.898\nentropy = 1.0\nsamples = 256\nvalue = [130, 126]"] ;
1004 -> 1044 ;
1045 [label="entropy = 0.0\nsamples = 13\nvalue = [0, 13]"] ;
1044 -> 1045 ;
1046 [label="X[0] <= -1066.938\nentropy = 0.996\nsamples = 243\nvalue = [130, 113]"] ;
1044 -> 1046 ;
1047 [label="X[0] <= -1075.138\nentropy = 0.592\nsamples = 21\nvalue = [18, 3]"] ;
1046 -> 1047 ;
1048 [label="X[0] <= -1075.654\nentropy = 0.779\nsamples = 13\nvalue = [10, 3]"] ;
1047 -> 1048 ;
1049 [label="X[0] <= -1077.036\nentropy = 0.65\nsamples = 12\nvalue = [10, 2]"] ;
1048 -> 1049 ;
1050 [label="X[0] <= -1077.318\nentropy = 0.918\nsamples = 6\nvalue = [4, 2]"] ;
1049 -> 1050 ;
1051 [label="entropy = 0.0\nsamples = 4\nvalue = [4, 0]"] ;
1050 -> 1051 ;
1052 [label="entropy = 0.0\nsamples = 2\nvalue = [0, 2]"] ;
1050 -> 1052 ;
1053 [label="entropy = 0.0\nsamples = 6\nvalue = [6, 0]"] ;
1049 -> 1053 ;
1054 [label="entropy = 0.0\nsamples = 1\nvalue = [0, 1]"] ;
1048 -> 1054 ;
1055 [label="entropy = 0.0\nsamples = 8\nvalue = [8, 0]"] ;
1047 -> 1055 ;
1056 [label="X[0] <= -1066.205\nentropy = 1.0\nsamples = 222\nvalue = [112, 110]"] ;
1046 -> 1056 ;
1057 [label="entropy = 0.0\nsamples = 4\nvalue = [0, 4]"] ;
1056 -> 1057 ;
1058 [label="X[0] <= -995.407\nentropy = 0.999\nsamples = 218\nvalue = [112, 106]"] ;
1056 -> 1058 ;
1059 [label="X[0] <= -1023.368\nentropy = 0.985\nsamples = 131\nvalue = [75, 56]"] ;
1058 -> 1059 ;
1060 [label="X[0] <= -1026.949\nentropy = 1.0\nsamples = 88\nvalue = [43, 45]"] ;
1059 -> 1060 ;
1061 [label="X[0] <= -1030.169\nentropy = 0.997\nsamples = 79\nvalue = [42, 37]"] ;
1060 -> 1061 ;
1062 [label="X[0] <= -1031.445\nentropy = 1.0\nsamples = 73\nvalue = [36, 37]"] ;
1061 -> 1062 ;
1063 [label="X[0] <= -1042.055\nentropy = 0.999\nsamples = 69\nvalue = [36, 33]"] ;
1062 -> 1063 ;
1064 [label="entropy = 0.99\nsamples = 50\nvalue = [22, 28]"] ;
1063 -> 1064 ;
1065 [label="entropy = 0.831\nsamples = 19\nvalue = [14, 5]"] ;
1063 -> 1065 ;
1066 [label="entropy = 0.0\nsamples = 4\nvalue = [0, 4]"] ;
1062 -> 1066 ;
1067 [label="entropy = 0.0\nsamples = 6\nvalue = [6, 0]"] ;
1061 -> 1067 ;
1068 [label="X[0] <= -1025.415\nentropy = 0.503\nsamples = 9\nvalue = [1, 8]"] ;
1060 -> 1068 ;
1069 [label="entropy = 0.0\nsamples = 4\nvalue = [0, 4]"] ;
1068 -> 1069 ;
1070 [label="X[0] <= -1023.918\nentropy = 0.722\nsamples = 5\nvalue = [1, 4]"] ;
1068 -> 1070 ;
1071 [label="entropy = 0.0\nsamples = 1\nvalue = [1, 0]"] ;
1070 -> 1071 ;
1072 [label="entropy = 0.0\nsamples = 4\nvalue = [0, 4]"] ;
1070 -> 1072 ;
1073 [label="X[0] <= -1016.336\nentropy = 0.82\nsamples = 43\nvalue = [32, 11]"] ;
1059 -> 1073 ;
1074 [label="entropy = 0.0\nsamples = 11\nvalue = [11, 0]"] ;
1073 -> 1074 ;
1075 [label="X[0] <= -1015.125\nentropy = 0.928\nsamples = 32\nvalue = [21, 11]"] ;
1073 -> 1075 ;
1076 [label="entropy = 0.0\nsamples = 6\nvalue = [0, 6]"] ;
1075 -> 1076 ;
1077 [label="X[0] <= -999.644\nentropy = 0.706\nsamples = 26\nvalue = [21, 5]"] ;
1075 -> 1077 ;
1078 [label="entropy = 0.0\nsamples = 15\nvalue = [15, 0]"] ;
1077 -> 1078 ;
1079 [label="X[0] <= -998.056\nentropy = 0.994\nsamples = 11\nvalue = [6, 5]"] ;
1077 -> 1079 ;
1080 [label="entropy = 0.0\nsamples = 5\nvalue = [0, 5]"] ;
1079 -> 1080 ;
1081 [label="entropy = 0.0\nsamples = 6\nvalue = [6, 0]"] ;
1079 -> 1081 ;
1082 [label="X[0] <= -979.383\nentropy = 0.984\nsamples = 87\nvalue = [37, 50]"] ;
1058 -> 1082 ;
1083 [label="X[0] <= -986.249\nentropy = 0.811\nsamples = 36\nvalue = [9, 27]"] ;
1082 -> 1083 ;
1084 [label="X[0] <= -994.218\nentropy = 0.998\nsamples = 17\nvalue = [8, 9]"] ;
1083 -> 1084 ;
1085 [label="entropy = 0.0\nsamples = 4\nvalue = [0, 4]"] ;
1084 -> 1085 ;
1086 [label="X[0] <= -992.388\nentropy = 0.961\nsamples = 13\nvalue = [8, 5]"] ;
1084 -> 1086 ;
1087 [label="entropy = 0.0\nsamples = 3\nvalue = [3, 0]"] ;
1086 -> 1087 ;
1088 [label="X[0] <= -991.745\nentropy = 1.0\nsamples = 10\nvalue = [5, 5]"] ;
1086 -> 1088 ;
1089 [label="entropy = 0.0\nsamples = 3\nvalue = [0, 3]"] ;
1088 -> 1089 ;
1090 [label="entropy = 0.863\nsamples = 7\nvalue = [5, 2]"] ;
1088 -> 1090 ;
1091 [label="X[0] <= -981.938\nentropy = 0.297\nsamples = 19\nvalue = [1, 18]"] ;
1083 -> 1091 ;
1092 [label="entropy = 0.0\nsamples = 16\nvalue = [0, 16]"] ;
1091 -> 1092 ;
1093 [label="X[0] <= -980.677\nentropy = 0.918\nsamples = 3\nvalue = [1, 2]"] ;
1091 -> 1093 ;
1094 [label="entropy = 0.0\nsamples = 1\nvalue = [1, 0]"] ;
1093 -> 1094 ;
1095 [label="entropy = 0.0\nsamples = 2\nvalue = [0, 2]"] ;
1093 -> 1095 ;
1096 [label="X[0] <= -974.488\nentropy = 0.993\nsamples = 51\nvalue = [28, 23]"] ;
1082 -> 1096 ;
1097 [label="X[0] <= -977.729\nentropy = 0.469\nsamples = 10\nvalue = [9, 1]"] ;
1096 -> 1097 ;
1098 [label="X[0] <= -978.49\nentropy = 1.0\nsamples = 2\nvalue = [1, 1]"] ;
1097 -> 1098 ;
1099 [label="entropy = 0.0\nsamples = 1\nvalue = [1, 0]"] ;
1098 -> 1099 ;
1100 [label="entropy = 0.0\nsamples = 1\nvalue = [0, 1]"] ;
1098 -> 1100 ;
1101 [label="entropy = 0.0\nsamples = 8\nvalue = [8, 0]"] ;
1097 -> 1101 ;
1102 [label="X[0] <= -973.954\nentropy = 0.996\nsamples = 41\nvalue = [19, 22]"] ;
1096 -> 1102 ;
1103 [label="entropy = 0.0\nsamples = 3\nvalue = [0, 3]"] ;
1102 -> 1103 ;
1104 [label="X[0] <= -957.03\nentropy = 1.0\nsamples = 38\nvalue = [19, 19]"] ;
1102 -> 1104 ;
1105 [label="X[0] <= -962.761\nentropy = 0.9\nsamples = 19\nvalue = [13, 6]"] ;
1104 -> 1105 ;
1106 [label="entropy = 0.996\nsamples = 13\nvalue = [7, 6]"] ;
1105 -> 1106 ;
1107 [label="entropy = 0.0\nsamples = 6\nvalue = [6, 0]"] ;
1105 -> 1107 ;
1108 [label="X[0] <= -956.219\nentropy = 0.9\nsamples = 19\nvalue = [6, 13]"] ;
1104 -> 1108 ;
1109 [label="entropy = 0.0\nsamples = 4\nvalue = [0, 4]"] ;
1108 -> 1109 ;
1110 [label="entropy = 0.971\nsamples = 15\nvalue = [6, 9]"] ;
1108 -> 1110 ;
1111 [label="entropy = 0.0\nsamples = 7\nvalue = [7, 0]"] ;
887 -> 1111 ;
1112 [label="X[0] <= -929.382\nentropy = 0.923\nsamples = 71\nvalue = [24, 47]"] ;
886 -> 1112 ;
1113 [label="X[0] <= -933.671\nentropy = 0.605\nsamples = 27\nvalue = [4, 23]"] ;
1112 -> 1113 ;
1114 [label="X[0] <= -933.919\nentropy = 0.881\nsamples = 10\nvalue = [3, 7]"] ;
1113 -> 1114 ;
1115 [label="X[0] <= -934.949\nentropy = 0.764\nsamples = 9\nvalue = [2, 7]"] ;
1114 -> 1115 ;
1116 [label="X[0] <= -936.261\nentropy = 0.971\nsamples = 5\nvalue = [2, 3]"] ;
1115 -> 1116 ;
1117 [label="entropy = 0.0\nsamples = 3\nvalue = [0, 3]"] ;
1116 -> 1117 ;
1118 [label="entropy = 0.0\nsamples = 2\nvalue = [2, 0]"] ;
1116 -> 1118 ;
1119 [label="entropy = 0.0\nsamples = 4\nvalue = [0, 4]"] ;
1115 -> 1119 ;
1120 [label="entropy = 0.0\nsamples = 1\nvalue = [1, 0]"] ;
1114 -> 1120 ;
1121 [label="X[0] <= -930.88\nentropy = 0.323\nsamples = 17\nvalue = [1, 16]"] ;
1113 -> 1121 ;
1122 [label="entropy = 0.0\nsamples = 9\nvalue = [0, 9]"] ;
1121 -> 1122 ;
1123 [label="X[0] <= -929.912\nentropy = 0.544\nsamples = 8\nvalue = [1, 7]"] ;
1121 -> 1123 ;
1124 [label="entropy = 0.0\nsamples = 1\nvalue = [1, 0]"] ;
1123 -> 1124 ;
1125 [label="entropy = 0.0\nsamples = 7\nvalue = [0, 7]"] ;
1123 -> 1125 ;
1126 [label="X[0] <= -912.656\nentropy = 0.994\nsamples = 44\nvalue = [20, 24]"] ;
1112 -> 1126 ;
1127 [label="X[0] <= -923.814\nentropy = 1.0\nsamples = 39\nvalue = [20, 19]"] ;
1126 -> 1127 ;
1128 [label="X[0] <= -928.572\nentropy = 0.918\nsamples = 15\nvalue = [5, 10]"] ;
1127 -> 1128 ;
1129 [label="entropy = 0.0\nsamples = 2\nvalue = [2, 0]"] ;
1128 -> 1129 ;
1130 [label="X[0] <= -924.636\nentropy = 0.779\nsamples = 13\nvalue = [3, 10]"] ;
1128 -> 1130 ;
1131 [label="X[0] <= -927.875\nentropy = 0.918\nsamples = 9\nvalue = [3, 6]"] ;
1130 -> 1131 ;
1132 [label="entropy = 0.0\nsamples = 3\nvalue = [0, 3]"] ;
1131 -> 1132 ;
1133 [label="X[0] <= -927.31\nentropy = 1.0\nsamples = 6\nvalue = [3, 3]"] ;
1131 -> 1133 ;
1134 [label="entropy = 0.0\nsamples = 2\nvalue = [2, 0]"] ;
1133 -> 1134 ;
1135 [label="X[0] <= -926.125\nentropy = 0.811\nsamples = 4\nvalue = [1, 3]"] ;
1133 -> 1135 ;
1136 [label="entropy = 0.0\nsamples = 3\nvalue = [0, 3]"] ;
1135 -> 1136 ;
1137 [label="entropy = 0.0\nsamples = 1\nvalue = [1, 0]"] ;
1135 -> 1137 ;
1138 [label="entropy = 0.0\nsamples = 4\nvalue = [0, 4]"] ;
1130 -> 1138 ;
1139 [label="X[0] <= -921.23\nentropy = 0.954\nsamples = 24\nvalue = [15, 9]"] ;
1127 -> 1139 ;
1140 [label="entropy = 0.0\nsamples = 6\nvalue = [6, 0]"] ;
1139 -> 1140 ;
1141 [label="X[0] <= -920.67\nentropy = 1.0\nsamples = 18\nvalue = [9, 9]"] ;
1139 -> 1141 ;
1142 [label="entropy = 0.0\nsamples = 2\nvalue = [0, 2]"] ;
1141 -> 1142 ;
1143 [label="X[0] <= -917.561\nentropy = 0.989\nsamples = 16\nvalue = [9, 7]"] ;
1141 -> 1143 ;
1144 [label="entropy = 0.0\nsamples = 5\nvalue = [5, 0]"] ;
1143 -> 1144 ;
1145 [label="X[0] <= -916.221\nentropy = 0.946\nsamples = 11\nvalue = [4, 7]"] ;
1143 -> 1145 ;
1146 [label="entropy = 0.0\nsamples = 5\nvalue = [0, 5]"] ;
1145 -> 1146 ;
1147 [label="X[0] <= -914.076\nentropy = 0.918\nsamples = 6\nvalue = [4, 2]"] ;
1145 -> 1147 ;
1148 [label="entropy = 0.0\nsamples = 2\nvalue = [2, 0]"] ;
1147 -> 1148 ;
1149 [label="X[0] <= -913.24\nentropy = 1.0\nsamples = 4\nvalue = [2, 2]"] ;
1147 -> 1149 ;
1150 [label="entropy = 0.0\nsamples = 2\nvalue = [0, 2]"] ;
1149 -> 1150 ;
1151 [label="entropy = 0.0\nsamples = 2\nvalue = [2, 0]"] ;
1149 -> 1151 ;
1152 [label="entropy = 0.0\nsamples = 5\nvalue = [0, 5]"] ;
1126 -> 1152 ;
1153 [label="X[0] <= -907.809\nentropy = 0.922\nsamples = 86\nvalue = [57, 29]"] ;
865 -> 1153 ;
1154 [label="entropy = 0.0\nsamples = 6\nvalue = [6, 0]"] ;
1153 -> 1154 ;
1155 [label="X[0] <= -906.79\nentropy = 0.945\nsamples = 80\nvalue = [51, 29]"] ;
1153 -> 1155 ;
1156 [label="entropy = 0.0\nsamples = 2\nvalue = [0, 2]"] ;
1155 -> 1156 ;
1157 [label="X[0] <= -865.362\nentropy = 0.931\nsamples = 78\nvalue = [51, 27]"] ;
1155 -> 1157 ;
1158 [label="X[0] <= -867.73\nentropy = 0.956\nsamples = 69\nvalue = [43, 26]"] ;
1157 -> 1158 ;
1159 [label="X[0] <= -876.011\nentropy = 0.923\nsamples = 65\nvalue = [43, 22]"] ;
1158 -> 1159 ;
1160 [label="X[0] <= -877.233\nentropy = 0.954\nsamples = 56\nvalue = [35, 21]"] ;
1159 -> 1160 ;
1161 [label="X[0] <= -879.623\nentropy = 0.936\nsamples = 54\nvalue = [35, 19]"] ;
1160 -> 1161 ;
1162 [label="X[0] <= -880.678\nentropy = 0.958\nsamples = 50\nvalue = [31, 19]"] ;
1161 -> 1162 ;
1163 [label="X[0] <= -882.945\nentropy = 0.894\nsamples = 45\nvalue = [31, 14]"] ;
1162 -> 1163 ;
1164 [label="X[0] <= -889.911\nentropy = 0.934\nsamples = 40\nvalue = [26, 14]"] ;
1163 -> 1164 ;
1165 [label="X[0] <= -893.821\nentropy = 0.837\nsamples = 30\nvalue = [22, 8]"] ;
1164 -> 1165 ;
1166 [label="X[0] <= -894.521\nentropy = 0.89\nsamples = 26\nvalue = [18, 8]"] ;
1165 -> 1166 ;
1167 [label="X[0] <= -898.651\nentropy = 0.811\nsamples = 24\nvalue = [18, 6]"] ;
1166 -> 1167 ;
1168 [label="X[0] <= -898.841\nentropy = 0.918\nsamples = 18\nvalue = [12, 6]"] ;
1167 -> 1168 ;
1169 [label="X[0] <= -903.231\nentropy = 0.811\nsamples = 16\nvalue = [12, 4]"] ;
1168 -> 1169 ;
1170 [label="entropy = 0.544\nsamples = 8\nvalue = [7, 1]"] ;
1169 -> 1170 ;
1171 [label="entropy = 0.954\nsamples = 8\nvalue = [5, 3]"] ;
1169 -> 1171 ;
1172 [label="entropy = 0.0\nsamples = 2\nvalue = [0, 2]"] ;
1168 -> 1172 ;
1173 [label="entropy = 0.0\nsamples = 6\nvalue = [6, 0]"] ;
1167 -> 1173 ;
1174 [label="entropy = 0.0\nsamples = 2\nvalue = [0, 2]"] ;
1166 -> 1174 ;
1175 [label="entropy = 0.0\nsamples = 4\nvalue = [4, 0]"] ;
1165 -> 1175 ;
1176 [label="X[0] <= -886.949\nentropy = 0.971\nsamples = 10\nvalue = [4, 6]"] ;
1164 -> 1176 ;
1177 [label="entropy = 0.0\nsamples = 4\nvalue = [0, 4]"] ;
1176 -> 1177 ;
1178 [label="X[0] <= -883.357\nentropy = 0.918\nsamples = 6\nvalue = [4, 2]"] ;
1176 -> 1178 ;
1179 [label="X[0] <= -884.238\nentropy = 0.722\nsamples = 5\nvalue = [4, 1]"] ;
1178 -> 1179 ;
1180 [label="X[0] <= -885.401\nentropy = 1.0\nsamples = 2\nvalue = [1, 1]"] ;
1179 -> 1180 ;
1181 [label="entropy = 0.0\nsamples = 1\nvalue = [1, 0]"] ;
1180 -> 1181 ;
1182 [label="entropy = 0.0\nsamples = 1\nvalue = [0, 1]"] ;
1180 -> 1182 ;
1183 [label="entropy = 0.0\nsamples = 3\nvalue = [3, 0]"] ;
1179 -> 1183 ;
1184 [label="entropy = 0.0\nsamples = 1\nvalue = [0, 1]"] ;
1178 -> 1184 ;
1185 [label="entropy = 0.0\nsamples = 5\nvalue = [5, 0]"] ;
1163 -> 1185 ;
1186 [label="entropy = 0.0\nsamples = 5\nvalue = [0, 5]"] ;
1162 -> 1186 ;
1187 [label="entropy = 0.0\nsamples = 4\nvalue = [4, 0]"] ;
1161 -> 1187 ;
1188 [label="entropy = 0.0\nsamples = 2\nvalue = [0, 2]"] ;
1160 -> 1188 ;
1189 [label="X[0] <= -871.817\nentropy = 0.503\nsamples = 9\nvalue = [8, 1]"] ;
1159 -> 1189 ;
1190 [label="entropy = 0.0\nsamples = 6\nvalue = [6, 0]"] ;
1189 -> 1190 ;
