digraph Tree {
node [shape=box] ;
0 [label="X[0] <= -2048.489\nentropy = 0.835\nsamples = 5634\nvalue = [4138, 1496]"] ;
1 [label="X[0] <= -2180.456\nentropy = 0.998\nsamples = 1023\nvalue = [539, 484]"] ;
0 -> 1 [labeldistance=2.5, labelangle=45, headlabel="True"] ;
2 [label="X[0] <= -2213.804\nentropy = 0.997\nsamples = 638\nvalue = [299, 339]"] ;
1 -> 2 ;
3 [label="X[0] <= -2260.857\nentropy = 0.979\nsamples = 373\nvalue = [218, 155]"] ;
2 -> 3 ;
4 [label="X[0] <= -2261.26\nentropy = 0.439\nsamples = 22\nvalue = [20, 2]"] ;
3 -> 4 ;
5 [label="entropy = 0.0\nsamples = 11\nvalue = [11, 0]"] ;
4 -> 5 ;
6 [label="X[0] <= -2261.235\nentropy = 0.684\nsamples = 11\nvalue = [9, 2]"] ;
4 -> 6 ;
7 [label="entropy = 0.0\nsamples = 1\nvalue = [0, 1]"] ;
6 -> 7 ;
8 [label="X[0] <= -2260.957\nentropy = 0.469\nsamples = 10\nvalue = [9, 1]"] ;
6 -> 8 ;
9 [label="X[0] <= -2261.008\nentropy = 0.65\nsamples = 6\nvalue = [5, 1]"] ;
8 -> 9 ;
10 [label="entropy = 0.0\nsamples = 3\nvalue = [3, 0]"] ;
9 -> 10 ;
11 [label="entropy = 0.918\nsamples = 3\nvalue = [2, 1]"] ;
9 -> 11 ;
12 [label="entropy = 0.0\nsamples = 4\nvalue = [4, 0]"] ;
8 -> 12 ;
13 [label="X[0] <= -2235.793\nentropy = 0.988\nsamples = 351\nvalue = [198, 153]"] ;
3 -> 13 ;
14 [label="X[0] <= -2240.212\nentropy = 0.96\nsamples = 196\nvalue = [121, 75]"] ;
13 -> 14 ;
15 [label="X[0] <= -2259.243\nentropy = 0.987\nsamples = 164\nvalue = [93, 71]"] ;
14 -> 15 ;
16 [label="X[0] <= -2259.52\nentropy = 0.951\nsamples = 100\nvalue = [63, 37]"] ;
15 -> 16 ;
17 [label="X[0] <= -2259.596\nentropy = 0.967\nsamples = 94\nvalue = [57, 37]"] ;
16 -> 17 ;
18 [label="X[0] <= -2259.747\nentropy = 0.946\nsamples = 88\nvalue = [56, 32]"] ;
17 -> 18 ;
19 [label="X[0] <= -2260.201\nentropy = 0.971\nsamples = 80\nvalue = [48, 32]"] ;
18 -> 19 ;
20 [label="X[0] <= -2260.327\nentropy = 0.881\nsamples = 40\nvalue = [28, 12]"] ;
19 -> 20 ;
21 [label="X[0] <= -2260.503\nentropy = 0.946\nsamples = 33\nvalue = [21, 12]"] ;
20 -> 21 ;
22 [label="X[0] <= -2260.554\nentropy = 0.863\nsamples = 21\nvalue = [15, 6]"] ;
21 -> 22 ;
23 [label="X[0] <= -2260.655\nentropy = 0.971\nsamples = 15\nvalue = [9, 6]"] ;
22 -> 23 ;
24 [label="X[0] <= -2260.73\nentropy = 0.881\nsamples = 10\nvalue = [7, 3]"] ;
23 -> 24 ;
25 [label="X[0] <= -2260.806\nentropy = 0.985\nsamples = 7\nvalue = [4, 3]"] ;
24 -> 25 ;
26 [label="entropy = 0.918\nsamples = 3\nvalue = [2, 1]"] ;
25 -> 26 ;
27 [label="X[0] <= -2260.781\nentropy = 1.0\nsamples = 4\nvalue = [2, 2]"] ;
25 -> 27 ;
28 [label="entropy = 1.0\nsamples = 2\nvalue = [1, 1]"] ;
27 -> 28 ;
29 [label="entropy = 1.0\nsamples = 2\nvalue = [1, 1]"] ;
27 -> 29 ;
30 [label="entropy = 0.0\nsamples = 3\nvalue = [3, 0]"] ;
24 -> 30 ;
31 [label="X[0] <= -2260.604\nentropy = 0.971\nsamples = 5\nvalue = [2, 3]"] ;
23 -> 31 ;
32 [label="entropy = 0.918\nsamples = 3\nvalue = [1, 2]"] ;
31 -> 32 ;
33 [label="entropy = 1.0\nsamples = 2\nvalue = [1, 1]"] ;
31 -> 33 ;
34 [label="entropy = 0.0\nsamples = 6\nvalue = [6, 0]"] ;
22 -> 34 ;
35 [label="X[0] <= -2260.453\nentropy = 1.0\nsamples = 12\nvalue = [6, 6]"] ;
21 -> 35 ;
36 [label="entropy = 0.0\nsamples = 2\nvalue = [0, 2]"] ;
35 -> 36 ;
37 [label="X[0] <= -2260.403\nentropy = 0.971\nsamples = 10\nvalue = [6, 4]"] ;
35 -> 37 ;
38 [label="X[0] <= -2260.428\nentropy = 0.811\nsamples = 4\nvalue = [3, 1]"] ;
37 -> 38 ;
39 [label="entropy = 0.918\nsamples = 3\nvalue = [2, 1]"] ;
38 -> 39 ;
40 [label="entropy = 0.0\nsamples = 1\nvalue = [1, 0]"] ;
38 -> 40 ;
41 [label="X[0] <= -2260.352\nentropy = 1.0\nsamples = 6\nvalue = [3, 3]"] ;
37 -> 41 ;
42 [label="entropy = 1.0\nsamples = 2\nvalue = [1, 1]"] ;
41 -> 42 ;
43 [label="entropy = 1.0\nsamples = 4\nvalue = [2, 2]"] ;
41 -> 43 ;
44 [label="entropy = 0.0\nsamples = 7\nvalue = [7, 0]"] ;
20 -> 44 ;
45 [label="X[0] <= -2259.798\nentropy = 1.0\nsamples = 40\nvalue = [20, 20]"] ;
19 -> 45 ;
46 [label="X[0] <= -2259.848\nentropy = 0.995\nsamples = 35\nvalue = [16, 19]"] ;
45 -> 46 ;
47 [label="X[0] <= -2259.873\nentropy = 0.987\nsamples = 30\nvalue = [13, 17]"] ;
46 -> 47 ;
48 [label="X[0] <= -2260.075\nentropy = 0.999\nsamples = 23\nvalue = [11, 12]"] ;
47 -> 48 ;
49 [label="X[0] <= -2260.151\nentropy = 0.954\nsamples = 8\nvalue = [3, 5]"] ;
48 -> 49 ;
50 [label="entropy = 1.0\nsamples = 6\nvalue = [3, 3]"] ;
49 -> 50 ;
51 [label="entropy = 0.0\nsamples = 2\nvalue = [0, 2]"] ;
49 -> 51 ;
52 [label="X[0] <= -2259.999\nentropy = 0.997\nsamples = 15\nvalue = [8, 7]"] ;
48 -> 52 ;
53 [label="entropy = 0.918\nsamples = 6\nvalue = [4, 2]"] ;
52 -> 53 ;
54 [label="X[0] <= -2259.949\nentropy = 0.991\nsamples = 9\nvalue = [4, 5]"] ;
52 -> 54 ;
55 [label="entropy = 0.0\nsamples = 2\nvalue = [0, 2]"] ;
54 -> 55 ;
56 [label="X[0] <= -2259.898\nentropy = 0.985\nsamples = 7\nvalue = [4, 3]"] ;
54 -> 56 ;
57 [label="entropy = 1.0\nsamples = 4\nvalue = [2, 2]"] ;
56 -> 57 ;
58 [label="entropy = 0.918\nsamples = 3\nvalue = [2, 1]"] ;
56 -> 58 ;
59 [label="entropy = 0.863\nsamples = 7\nvalue = [2, 5]"] ;
47 -> 59 ;
60 [label="entropy = 0.971\nsamples = 5\nvalue = [3, 2]"] ;
46 -> 60 ;
61 [label="X[0] <= -2259.772\nentropy = 0.722\nsamples = 5\nvalue = [4, 1]"] ;
45 -> 61 ;
62 [label="entropy = 0.0\nsamples = 2\nvalue = [2, 0]"] ;
61 -> 62 ;
63 [label="entropy = 0.918\nsamples = 3\nvalue = [2, 1]"] ;
61 -> 63 ;
64 [label="entropy = 0.0\nsamples = 8\nvalue = [8, 0]"] ;
18 -> 64 ;
65 [label="X[0] <= -2259.545\nentropy = 0.65\nsamples = 6\nvalue = [1, 5]"] ;
17 -> 65 ;
66 [label="entropy = 0.811\nsamples = 4\nvalue = [1, 3]"] ;
65 -> 66 ;
67 [label="entropy = 0.0\nsamples = 2\nvalue = [0, 2]"] ;
65 -> 67 ;
68 [label="entropy = 0.0\nsamples = 6\nvalue = [6, 0]"] ;
16 -> 68 ;
69 [label="X[0] <= -2242.579\nentropy = 0.997\nsamples = 64\nvalue = [30, 34]"] ;
15 -> 69 ;
70 [label="X[0] <= -2245.627\nentropy = 0.977\nsamples = 51\nvalue = [21, 30]"] ;
69 -> 70 ;
71 [label="X[0] <= -2249.459\nentropy = 0.994\nsamples = 44\nvalue = [20, 24]"] ;
70 -> 71 ;
72 [label="X[0] <= -2250.065\nentropy = 0.985\nsamples = 42\nvalue = [18, 24]"] ;
71 -> 72 ;
73 [label="X[0] <= -2250.216\nentropy = 0.996\nsamples = 39\nvalue = [18, 21]"] ;
72 -> 73 ;
74 [label="X[0] <= -2259.192\nentropy = 0.987\nsamples = 37\nvalue = [16, 21]"] ;
73 -> 74 ;
75 [label="entropy = 0.0\nsamples = 1\nvalue = [0, 1]"] ;
74 -> 75 ;
76 [label="X[0] <= -2252.233\nentropy = 0.991\nsamples = 36\nvalue = [16, 20]"] ;
74 -> 76 ;
77 [label="X[0] <= -2254.2\nentropy = 0.995\nsamples = 35\nvalue = [16, 19]"] ;
76 -> 77 ;
78 [label="X[0] <= -2254.276\nentropy = 0.99\nsamples = 34\nvalue = [15, 19]"] ;
77 -> 78 ;
79 [label="X[0] <= -2254.679\nentropy = 0.994\nsamples = 33\nvalue = [15, 18]"] ;
78 -> 79 ;
80 [label="X[0] <= -2255.284\nentropy = 0.981\nsamples = 31\nvalue = [13, 18]"] ;
79 -> 80 ;
81 [label="X[0] <= -2255.385\nentropy = 1.0\nsamples = 18\nvalue = [9, 9]"] ;
80 -> 81 ;
82 [label="X[0] <= -2255.612\nentropy = 0.989\nsamples = 16\nvalue = [7, 9]"] ;
81 -> 82 ;
83 [label="X[0] <= -2255.713\nentropy = 1.0\nsamples = 14\nvalue = [7, 7]"] ;
82 -> 83 ;
84 [label="entropy = 0.98\nsamples = 12\nvalue = [5, 7]"] ;
83 -> 84 ;
85 [label="entropy = 0.0\nsamples = 2\nvalue = [2, 0]"] ;
83 -> 85 ;
86 [label="entropy = 0.0\nsamples = 2\nvalue = [0, 2]"] ;
82 -> 86 ;
87 [label="entropy = 0.0\nsamples = 2\nvalue = [2, 0]"] ;
81 -> 87 ;
88 [label="X[0] <= -2255.133\nentropy = 0.89\nsamples = 13\nvalue = [4, 9]"] ;
80 -> 88 ;
89 [label="entropy = 0.0\nsamples = 2\nvalue = [0, 2]"] ;
88 -> 89 ;
90 [label="X[0] <= -2255.007\nentropy = 0.946\nsamples = 11\nvalue = [4, 7]"] ;
88 -> 90 ;
91 [label="entropy = 0.0\nsamples = 1\nvalue = [1, 0]"] ;
90 -> 91 ;
92 [label="X[0] <= -2254.906\nentropy = 0.881\nsamples = 10\nvalue = [3, 7]"] ;
90 -> 92 ;
93 [label="entropy = 0.0\nsamples = 3\nvalue = [0, 3]"] ;
92 -> 93 ;
94 [label="entropy = 0.985\nsamples = 7\nvalue = [3, 4]"] ;
92 -> 94 ;
95 [label="entropy = 0.0\nsamples = 2\nvalue = [2, 0]"] ;
79 -> 95 ;
96 [label="entropy = 0.0\nsamples = 1\nvalue = [0, 1]"] ;
78 -> 96 ;
97 [label="entropy = 0.0\nsamples = 1\nvalue = [1, 0]"] ;
77 -> 97 ;
98 [label="entropy = 0.0\nsamples = 1\nvalue = [0, 1]"] ;
76 -> 98 ;
99 [label="entropy = 0.0\nsamples = 2\nvalue = [2, 0]"] ;
73 -> 99 ;
100 [label="entropy = 0.0\nsamples = 3\nvalue = [0, 3]"] ;
72 -> 100 ;
101 [label="entropy = 0.0\nsamples = 2\nvalue = [2, 0]"] ;
71 -> 101 ;
102 [label="X[0] <= -2244.114\nentropy = 0.592\nsamples = 7\nvalue = [1, 6]"] ;
70 -> 102 ;
103 [label="entropy = 0.0\nsamples = 4\nvalue = [0, 4]"] ;
102 -> 103 ;
104 [label="X[0] <= -2243.761\nentropy = 0.918\nsamples = 3\nvalue = [1, 2]"] ;
102 -> 104 ;
105 [label="entropy = 1.0\nsamples = 2\nvalue = [1, 1]"] ;
104 -> 105 ;
106 [label="entropy = 0.0\nsamples = 1\nvalue = [0, 1]"] ;
104 -> 106 ;
107 [label="X[0] <= -2240.312\nentropy = 0.89\nsamples = 13\nvalue = [9, 4]"] ;
69 -> 107 ;
108 [label="X[0] <= -2241.524\nentropy = 0.811\nsamples = 12\nvalue = [9, 3]"] ;
107 -> 108 ;
109 [label="entropy = 0.0\nsamples = 2\nvalue = [2, 0]"] ;
108 -> 109 ;
110 [label="X[0] <= -2241.423\nentropy = 0.881\nsamples = 10\nvalue = [7, 3]"] ;
108 -> 110 ;
111 [label="entropy = 0.0\nsamples = 1\nvalue = [0, 1]"] ;
110 -> 111 ;
112 [label="X[0] <= -2240.971\nentropy = 0.764\nsamples = 9\nvalue = [7, 2]"] ;
110 -> 112 ;
113 [label="entropy = 0.0\nsamples = 3\nvalue = [3, 0]"] ;
112 -> 113 ;
114 [label="X[0] <= -2240.821\nentropy = 0.918\nsamples = 6\nvalue = [4, 2]"] ;
112 -> 114 ;
115 [label="entropy = 0.0\nsamples = 1\nvalue = [0, 1]"] ;
114 -> 115 ;
116 [label="X[0] <= -2240.469\nentropy = 0.722\nsamples = 5\nvalue = [4, 1]"] ;
114 -> 116 ;
117 [label="entropy = 0.0\nsamples = 3\nvalue = [3, 0]"] ;
116 -> 117 ;
118 [label="entropy = 1.0\nsamples = 2\nvalue = [1, 1]"] ;
116 -> 118 ;
119 [label="entropy = 0.0\nsamples = 1\nvalue = [0, 1]"] ;
107 -> 119 ;
120 [label="X[0] <= -2237.77\nentropy = 0.544\nsamples = 32\nvalue = [28, 4]"] ;
14 -> 120 ;
121 [label="X[0] <= -2239.683\nentropy = 0.276\nsamples = 21\nvalue = [20, 1]"] ;
120 -> 121 ;
122 [label="X[0] <= -2239.784\nentropy = 0.469\nsamples = 10\nvalue = [9, 1]"] ;
121 -> 122 ;
123 [label="entropy = 0.0\nsamples = 9\nvalue = [9, 0]"] ;
122 -> 123 ;
124 [label="entropy = 0.0\nsamples = 1\nvalue = [0, 1]"] ;
122 -> 124 ;
125 [label="entropy = 0.0\nsamples = 11\nvalue = [11, 0]"] ;
121 -> 125 ;
126 [label="X[0] <= -2236.323\nentropy = 0.845\nsamples = 11\nvalue = [8, 3]"] ;
120 -> 126 ;
127 [label="entropy = 0.0\nsamples = 2\nvalue = [0, 2]"] ;
126 -> 127 ;
128 [label="X[0] <= -2235.919\nentropy = 0.503\nsamples = 9\nvalue = [8, 1]"] ;
126 -> 128 ;
129 [label="X[0] <= -2235.97\nentropy = 0.918\nsamples = 3\nvalue = [2, 1]"] ;
128 -> 129 ;
130 [label="entropy = 0.0\nsamples = 2\nvalue = [2, 0]"] ;
129 -> 130 ;
131 [label="entropy = 0.0\nsamples = 1\nvalue = [0, 1]"] ;
129 -> 131 ;
132 [label="entropy = 0.0\nsamples = 6\nvalue = [6, 0]"] ;
128 -> 132 ;
133 [label="X[0] <= -2224.547\nentropy = 1.0\nsamples = 155\nvalue = [77, 78]"] ;
13 -> 133 ;
134 [label="X[0] <= -2225.077\nentropy = 0.977\nsamples = 107\nvalue = [44, 63]"] ;
133 -> 134 ;
135 [label="X[0] <= -2233.599\nentropy = 0.985\nsamples = 103\nvalue = [44, 59]"] ;
134 -> 135 ;
136 [label="X[0] <= -2234.583\nentropy = 0.894\nsamples = 45\nvalue = [14, 31]"] ;
135 -> 136 ;
137 [label="X[0] <= -2234.684\nentropy = 0.988\nsamples = 23\nvalue = [10, 13]"] ;
136 -> 137 ;
138 [label="X[0] <= -2234.86\nentropy = 0.959\nsamples = 21\nvalue = [8, 13]"] ;
137 -> 138 ;
139 [label="X[0] <= -2235.138\nentropy = 0.998\nsamples = 17\nvalue = [8, 9]"] ;
138 -> 139 ;
140 [label="X[0] <= -2235.239\nentropy = 0.961\nsamples = 13\nvalue = [5, 8]"] ;
139 -> 140 ;
141 [label="X[0] <= -2235.365\nentropy = 0.994\nsamples = 11\nvalue = [5, 6]"] ;
140 -> 141 ;
142 [label="X[0] <= -2235.541\nentropy = 0.918\nsamples = 9\nvalue = [3, 6]"] ;
141 -> 142 ;
143 [label="X[0] <= -2235.743\nentropy = 1.0\nsamples = 4\nvalue = [2, 2]"] ;
142 -> 143 ;
144 [label="entropy = 0.0\nsamples = 1\nvalue = [0, 1]"] ;
143 -> 144 ;
145 [label="X[0] <= -2235.642\nentropy = 0.918\nsamples = 3\nvalue = [2, 1]"] ;
143 -> 145 ;
146 [label="entropy = 1.0\nsamples = 2\nvalue = [1, 1]"] ;
145 -> 146 ;
147 [label="entropy = 0.0\nsamples = 1\nvalue = [1, 0]"] ;
145 -> 147 ;
148 [label="X[0] <= -2235.44\nentropy = 0.722\nsamples = 5\nvalue = [1, 4]"] ;
142 -> 148 ;
149 [label="entropy = 0.0\nsamples = 3\nvalue = [0, 3]"] ;
148 -> 149 ;
150 [label="entropy = 1.0\nsamples = 2\nvalue = [1, 1]"] ;
148 -> 150 ;
151 [label="entropy = 0.0\nsamples = 2\nvalue = [2, 0]"] ;
141 -> 151 ;
152 [label="entropy = 0.0\nsamples = 2\nvalue = [0, 2]"] ;
140 -> 152 ;
153 [label="X[0] <= -2235.037\nentropy = 0.811\nsamples = 4\nvalue = [3, 1]"] ;
139 -> 153 ;
154 [label="entropy = 0.0\nsamples = 2\nvalue = [2, 0]"] ;
153 -> 154 ;
155 [label="X[0] <= -2234.936\nentropy = 1.0\nsamples = 2\nvalue = [1, 1]"] ;
153 -> 155 ;
156 [label="entropy = 0.0\nsamples = 1\nvalue = [0, 1]"] ;
155 -> 156 ;
157 [label="entropy = 0.0\nsamples = 1\nvalue = [1, 0]"] ;
155 -> 157 ;
158 [label="entropy = 0.0\nsamples = 4\nvalue = [0, 4]"] ;
138 -> 158 ;
159 [label="entropy = 0.0\nsamples = 2\nvalue = [2, 0]"] ;
137 -> 159 ;
160 [label="X[0] <= -2234.532\nentropy = 0.684\nsamples = 22\nvalue = [4, 18]"] ;
136 -> 160 ;
161 [label="entropy = 0.0\nsamples = 4\nvalue = [0, 4]"] ;
160 -> 161 ;
162 [label="X[0] <= -2234.482\nentropy = 0.764\nsamples = 18\nvalue = [4, 14]"] ;
160 -> 162 ;
163 [label="entropy = 0.0\nsamples = 1\nvalue = [1, 0]"] ;
162 -> 163 ;
164 [label="X[0] <= -2233.953\nentropy = 0.672\nsamples = 17\nvalue = [3, 14]"] ;
162 -> 164 ;
165 [label="X[0] <= -2234.003\nentropy = 0.779\nsamples = 13\nvalue = [3, 10]"] ;
164 -> 165 ;
166 [label="X[0] <= -2234.028\nentropy = 0.65\nsamples = 12\nvalue = [2, 10]"] ;
165 -> 166 ;
167 [label="X[0] <= -2234.079\nentropy = 0.722\nsamples = 10\nvalue = [2, 8]"] ;
166 -> 167 ;
168 [label="X[0] <= -2234.23\nentropy = 0.544\nsamples = 8\nvalue = [1, 7]"] ;
167 -> 168 ;
169 [label="X[0] <= -2234.356\nentropy = 0.918\nsamples = 3\nvalue = [1, 2]"] ;
168 -> 169 ;
170 [label="entropy = 0.0\nsamples = 1\nvalue = [0, 1]"] ;
169 -> 170 ;
171 [label="entropy = 1.0\nsamples = 2\nvalue = [1, 1]"] ;
169 -> 171 ;
172 [label="entropy = 0.0\nsamples = 5\nvalue = [0, 5]"] ;
168 -> 172 ;
173 [label="entropy = 1.0\nsamples = 2\nvalue = [1, 1]"] ;
167 -> 173 ;
174 [label="entropy = 0.0\nsamples = 2\nvalue = [0, 2]"] ;
166 -> 174 ;
175 [label="entropy = 0.0\nsamples = 1\nvalue = [1, 0]"] ;
165 -> 175 ;
176 [label="entropy = 0.0\nsamples = 4\nvalue = [0, 4]"] ;
164 -> 176 ;
177 [label="X[0] <= -2229.565\nentropy = 0.999\nsamples = 58\nvalue = [30, 28]"] ;
135 -> 177 ;
178 [label="X[0] <= -2231.355\nentropy = 0.896\nsamples = 32\nvalue = [22, 10]"] ;
177 -> 178 ;
179 [label="entropy = 0.0\nsamples = 4\nvalue = [4, 0]"] ;
178 -> 179 ;
180 [label="X[0] <= -2229.691\nentropy = 0.94\nsamples = 28\nvalue = [18, 10]"] ;
178 -> 180 ;
181 [label="X[0] <= -2231.28\nentropy = 0.971\nsamples = 25\nvalue = [15, 10]"] ;
180 -> 181 ;
182 [label="entropy = 0.0\nsamples = 1\nvalue = [0, 1]"] ;
181 -> 182 ;
183 [label="X[0] <= -2231.179\nentropy = 0.954\nsamples = 24\nvalue = [15, 9]"] ;
181 -> 183 ;
184 [label="entropy = 0.0\nsamples = 1\nvalue = [1, 0]"] ;
183 -> 184 ;
185 [label="X[0] <= -2231.104\nentropy = 0.966\nsamples = 23\nvalue = [14, 9]"] ;
183 -> 185 ;
186 [label="entropy = 0.0\nsamples = 1\nvalue = [0, 1]"] ;
185 -> 186 ;
187 [label="X[0] <= -2230.953\nentropy = 0.946\nsamples = 22\nvalue = [14, 8]"] ;
185 -> 187 ;
188 [label="entropy = 0.0\nsamples = 2\nvalue = [2, 0]"] ;
187 -> 188 ;
189 [label="X[0] <= -2230.851\nentropy = 0.971\nsamples = 20\nvalue = [12, 8]"] ;
187 -> 189 ;
190 [label="entropy = 0.0\nsamples = 1\nvalue = [0, 1]"] ;
189 -> 190 ;
191 [label="X[0] <= -2230.675\nentropy = 0.949\nsamples = 19\nvalue = [12, 7]"] ;
189 -> 191 ;
192 [label="entropy = 0.0\nsamples = 2\nvalue = [2, 0]"] ;
191 -> 192 ;
193 [label="X[0] <= -2230.549\nentropy = 0.977\nsamples = 17\nvalue = [10, 7]"] ;
191 -> 193 ;
194 [label="entropy = 0.0\nsamples = 1\nvalue = [0, 1]"] ;
193 -> 194 ;
195 [label="X[0] <= -2230.296\nentropy = 0.954\nsamples = 16\nvalue = [10, 6]"] ;
193 -> 195 ;
196 [label="entropy = 0.0\nsamples = 2\nvalue = [2, 0]"] ;
195 -> 196 ;
197 [label="X[0] <= -2230.12\nentropy = 0.985\nsamples = 14\nvalue = [8, 6]"] ;
195 -> 197 ;
198 [label="X[0] <= -2230.221\nentropy = 0.918\nsamples = 3\nvalue = [1, 2]"] ;
197 -> 198 ;
199 [label="entropy = 1.0\nsamples = 2\nvalue = [1, 1]"] ;
198 -> 199 ;
200 [label="entropy = 0.0\nsamples = 1\nvalue = [0, 1]"] ;
198 -> 200 ;
201 [label="X[0] <= -2229.972\nentropy = 0.946\nsamples = 11\nvalue = [7, 4]"] ;
197 -> 201 ;
202 [label="entropy = 0.0\nsamples = 2\nvalue = [2, 0]"] ;
201 -> 202 ;
203 [label="entropy = 0.991\nsamples = 9\nvalue = [5, 4]"] ;
201 -> 203 ;
204 [label="entropy = 0.0\nsamples = 3\nvalue = [3, 0]"] ;
180 -> 204 ;
205 [label="X[0] <= -2229.162\nentropy = 0.89\nsamples = 26\nvalue = [8, 18]"] ;
177 -> 205 ;
206 [label="entropy = 0.0\nsamples = 8\nvalue = [0, 8]"] ;
205 -> 206 ;
207 [label="X[0] <= -2229.061\nentropy = 0.991\nsamples = 18\nvalue = [8, 10]"] ;
205 -> 207 ;
208 [label="entropy = 0.0\nsamples = 3\nvalue = [3, 0]"] ;
207 -> 208 ;
209 [label="X[0] <= -2225.354\nentropy = 0.918\nsamples = 15\nvalue = [5, 10]"] ;
207 -> 209 ;
210 [label="X[0] <= -2228.758\nentropy = 0.779\nsamples = 13\nvalue = [3, 10]"] ;
209 -> 210 ;
211 [label="entropy = 0.0\nsamples = 4\nvalue = [0, 4]"] ;
210 -> 211 ;
212 [label="X[0] <= -2228.582\nentropy = 0.918\nsamples = 9\nvalue = [3, 6]"] ;
210 -> 212 ;
213 [label="entropy = 0.0\nsamples = 1\nvalue = [1, 0]"] ;
212 -> 213 ;
214 [label="X[0] <= -2226.262\nentropy = 0.811\nsamples = 8\nvalue = [2, 6]"] ;
212 -> 214 ;
215 [label="entropy = 0.0\nsamples = 3\nvalue = [0, 3]"] ;
214 -> 215 ;
216 [label="X[0] <= -2225.455\nentropy = 0.971\nsamples = 5\nvalue = [2, 3]"] ;
214 -> 216 ;
217 [label="X[0] <= -2225.657\nentropy = 1.0\nsamples = 4\nvalue = [2, 2]"] ;
216 -> 217 ;
218 [label="X[0] <= -2226.035\nentropy = 0.918\nsamples = 3\nvalue = [1, 2]"] ;
217 -> 218 ;
219 [label="entropy = 1.0\nsamples = 2\nvalue = [1, 1]"] ;
218 -> 219 ;
220 [label="entropy = 0.0\nsamples = 1\nvalue = [0, 1]"] ;
218 -> 220 ;
221 [label="entropy = 0.0\nsamples = 1\nvalue = [1, 0]"] ;
217 -> 221 ;
222 [label="entropy = 0.0\nsamples = 1\nvalue = [0, 1]"] ;
216 -> 222 ;
223 [label="entropy = 0.0\nsamples = 2\nvalue = [2, 0]"] ;
209 -> 223 ;
224 [label="entropy = 0.0\nsamples = 4\nvalue = [0, 4]"] ;
134 -> 224 ;
225 [label="X[0] <= -2224.144\nentropy = 0.896\nsamples = 48\nvalue = [33, 15]"] ;
133 -> 225 ;
226 [label="entropy = 0.0\nsamples = 4\nvalue = [4, 0]"] ;
225 -> 226 ;
227 [label="X[0] <= -2217.583\nentropy = 0.926\nsamples = 44\nvalue = [29, 15]"] ;
225 -> 227 ;
228 [label="X[0] <= -2217.734\nentropy = 0.954\nsamples = 40\nvalue = [25, 15]"] ;
227 -> 228 ;
229 [label="X[0] <= -2219.53\nentropy = 0.942\nsamples = 39\nvalue = [25, 14]"] ;
228 -> 229 ;
230 [label="X[0] <= -2219.845\nentropy = 0.985\nsamples = 28\nvalue = [16, 12]"] ;
229 -> 230 ;
231 [label="X[0] <= -2220.247\nentropy = 0.961\nsamples = 26\nvalue = [16, 10]"] ;
230 -> 231 ;
232 [label="X[0] <= -2220.963\nentropy = 0.994\nsamples = 22\nvalue = [12, 10]"] ;
231 -> 232 ;
233 [label="X[0] <= -2223.141\nentropy = 0.837\nsamples = 15\nvalue = [11, 4]"] ;
232 -> 233 ;
234 [label="X[0] <= -2223.592\nentropy = 0.971\nsamples = 5\nvalue = [2, 3]"] ;
233 -> 234 ;
235 [label="X[0] <= -2223.819\nentropy = 1.0\nsamples = 4\nvalue = [2, 2]"] ;
234 -> 235 ;
236 [label="X[0] <= -2224.018\nentropy = 0.918\nsamples = 3\nvalue = [1, 2]"] ;
235 -> 236 ;
237 [label="entropy = 1.0\nsamples = 2\nvalue = [1, 1]"] ;
236 -> 237 ;
238 [label="entropy = 0.0\nsamples = 1\nvalue = [0, 1]"] ;
236 -> 238 ;
239 [label="entropy = 0.0\nsamples = 1\nvalue = [1, 0]"] ;
235 -> 239 ;
240 [label="entropy = 0.0\nsamples = 1\nvalue = [0, 1]"] ;
234 -> 240 ;
241 [label="X[0] <= -2221.339\nentropy = 0.469\nsamples = 10\nvalue = [9, 1]"] ;
233 -> 241 ;
242 [label="entropy = 0.0\nsamples = 5\nvalue = [5, 0]"] ;
241 -> 242 ;
243 [label="X[0] <= -2221.188\nentropy = 0.722\nsamples = 5\nvalue = [4, 1]"] ;
241 -> 243 ;
244 [label="entropy = 0.918\nsamples = 3\nvalue = [2, 1]"] ;
243 -> 244 ;
245 [label="entropy = 0.0\nsamples = 2\nvalue = [2, 0]"] ;
243 -> 245 ;
246 [label="X[0] <= -2220.525\nentropy = 0.592\nsamples = 7\nvalue = [1, 6]"] ;
232 -> 246 ;
247 [label="entropy = 0.0\nsamples = 3\nvalue = [0, 3]"] ;
246 -> 247 ;
248 [label="X[0] <= -2220.397\nentropy = 0.811\nsamples = 4\nvalue = [1, 3]"] ;
246 -> 248 ;
249 [label="entropy = 0.918\nsamples = 3\nvalue = [1, 2]"] ;
248 -> 249 ;
250 [label="entropy = 0.0\nsamples = 1\nvalue = [0, 1]"] ;
248 -> 250 ;
251 [label="entropy = 0.0\nsamples = 4\nvalue = [4, 0]"] ;
231 -> 251 ;
252 [label="entropy = 0.0\nsamples = 2\nvalue = [0, 2]"] ;
230 -> 252 ;
253 [label="X[0] <= -2218.481\nentropy = 0.684\nsamples = 11\nvalue = [9, 2]"] ;
229 -> 253 ;
254 [label="entropy = 0.0\nsamples = 6\nvalue = [6, 0]"] ;
253 -> 254 ;
255 [label="X[0] <= -2218.064\nentropy = 0.971\nsamples = 5\nvalue = [3, 2]"] ;
253 -> 255 ;
256 [label="X[0] <= -2218.29\nentropy = 0.918\nsamples = 3\nvalue = [1, 2]"] ;
255 -> 256 ;
257 [label="entropy = 1.0\nsamples = 2\nvalue = [1, 1]"] ;
256 -> 257 ;
258 [label="entropy = 0.0\nsamples = 1\nvalue = [0, 1]"] ;
256 -> 258 ;
259 [label="entropy = 0.0\nsamples = 2\nvalue = [2, 0]"] ;
255 -> 259 ;
260 [label="entropy = 0.0\nsamples = 1\nvalue = [0, 1]"] ;
228 -> 260 ;
261 [label="entropy = 0.0\nsamples = 4\nvalue = [4, 0]"] ;
227 -> 261 ;
262 [label="X[0] <= -2209.772\nentropy = 0.888\nsamples = 265\nvalue = [81, 184]"] ;
2 -> 262 ;
263 [label="entropy = 0.0\nsamples = 30\nvalue = [0, 30]"] ;
262 -> 263 ;
264 [label="X[0] <= -2204.107\nentropy = 0.929\nsamples = 235\nvalue = [81, 154]"] ;
262 -> 264 ;
265 [label="X[0] <= -2204.401\nentropy = 0.826\nsamples = 81\nvalue = [21, 60]"] ;
264 -> 265 ;
266 [label="X[0] <= -2204.683\nentropy = 0.852\nsamples = 72\nvalue = [20, 52]"] ;
265 -> 266 ;
267 [label="X[0] <= -2205.233\nentropy = 0.834\nsamples = 68\nvalue = [18, 50]"] ;
266 -> 267 ;
268 [label="X[0] <= -2208.587\nentropy = 0.866\nsamples = 59\nvalue = [17, 42]"] ;
267 -> 268 ;
269 [label="X[0] <= -2208.915\nentropy = 0.792\nsamples = 42\nvalue = [10, 32]"] ;
268 -> 269 ;
270 [label="X[0] <= -2208.965\nentropy = 0.863\nsamples = 35\nvalue = [10, 25]"] ;
269 -> 270 ;
271 [label="X[0] <= -2209.041\nentropy = 0.834\nsamples = 34\nvalue = [9, 25]"] ;
270 -> 271 ;
272 [label="X[0] <= -2209.167\nentropy = 0.784\nsamples = 30\nvalue = [7, 23]"] ;
271 -> 272 ;
273 [label="X[0] <= -2209.192\nentropy = 0.826\nsamples = 27\nvalue = [7, 20]"] ;
272 -> 273 ;
274 [label="X[0] <= -2209.268\nentropy = 0.779\nsamples = 26\nvalue = [6, 20]"] ;
273 -> 274 ;
275 [label="X[0] <= -2209.318\nentropy = 0.828\nsamples = 23\nvalue = [6, 17]"] ;
274 -> 275 ;
276 [label="X[0] <= -2209.419\nentropy = 0.773\nsamples = 22\nvalue = [5, 17]"] ;
275 -> 276 ;
277 [label="X[0] <= -2209.469\nentropy = 0.852\nsamples = 18\nvalue = [5, 13]"] ;
276 -> 277 ;
278 [label="X[0] <= -2209.52\nentropy = 0.787\nsamples = 17\nvalue = [4, 13]"] ;
277 -> 278 ;
279 [label="X[0] <= -2209.696\nentropy = 0.863\nsamples = 14\nvalue = [4, 10]"] ;
278 -> 279 ;
280 [label="X[0] <= -2209.743\nentropy = 0.592\nsamples = 7\nvalue = [1, 6]"] ;
279 -> 280 ;
281 [label="entropy = 0.811\nsamples = 4\nvalue = [1, 3]"] ;
280 -> 281 ;
282 [label="entropy = 0.0\nsamples = 3\nvalue = [0, 3]"] ;
280 -> 282 ;
283 [label="X[0] <= -2209.62\nentropy = 0.985\nsamples = 7\nvalue = [3, 4]"] ;
279 -> 283 ;
284 [label="entropy = 0.918\nsamples = 3\nvalue = [1, 2]"] ;
283 -> 284 ;
285 [label="entropy = 1.0\nsamples = 4\nvalue = [2, 2]"] ;
283 -> 285 ;
286 [label="entropy = 0.0\nsamples = 3\nvalue = [0, 3]"] ;
278 -> 286 ;
287 [label="entropy = 0.0\nsamples = 1\nvalue = [1, 0]"] ;
277 -> 287 ;
288 [label="entropy = 0.0\nsamples = 4\nvalue = [0, 4]"] ;
276 -> 288 ;
289 [label="entropy = 0.0\nsamples = 1\nvalue = [1, 0]"] ;
275 -> 289 ;
290 [label="entropy = 0.0\nsamples = 3\nvalue = [0, 3]"] ;
274 -> 290 ;
291 [label="entropy = 0.0\nsamples = 1\nvalue = [1, 0]"] ;
273 -> 291 ;
292 [label="entropy = 0.0\nsamples = 3\nvalue = [0, 3]"] ;
272 -> 292 ;
293 [label="X[0] <= -2209.015\nentropy = 1.0\nsamples = 4\nvalue = [2, 2]"] ;
271 -> 293 ;
294 [label="entropy = 0.918\nsamples = 3\nvalue = [2, 1]"] ;
293 -> 294 ;
295 [label="entropy = 0.0\nsamples = 1\nvalue = [0, 1]"] ;
293 -> 295 ;
296 [label="entropy = 0.0\nsamples = 1\nvalue = [1, 0]"] ;
270 -> 296 ;
297 [label="entropy = 0.0\nsamples = 7\nvalue = [0, 7]"] ;
269 -> 297 ;
298 [label="X[0] <= -2206.822\nentropy = 0.977\nsamples = 17\nvalue = [7, 10]"] ;
268 -> 298 ;
299 [label="X[0] <= -2208.435\nentropy = 0.811\nsamples = 4\nvalue = [3, 1]"] ;
298 -> 299 ;
300 [label="X[0] <= -2208.511\nentropy = 1.0\nsamples = 2\nvalue = [1, 1]"] ;
299 -> 300 ;
301 [label="entropy = 0.0\nsamples = 1\nvalue = [1, 0]"] ;
300 -> 301 ;
302 [label="entropy = 0.0\nsamples = 1\nvalue = [0, 1]"] ;
300 -> 302 ;
303 [label="entropy = 0.0\nsamples = 2\nvalue = [2, 0]"] ;
299 -> 303 ;
304 [label="X[0] <= -2205.691\nentropy = 0.89\nsamples = 13\nvalue = [4, 9]"] ;
298 -> 304 ;
305 [label="entropy = 0.0\nsamples = 4\nvalue = [0, 4]"] ;
304 -> 305 ;
306 [label="X[0] <= -2205.46\nentropy = 0.991\nsamples = 9\nvalue = [4, 5]"] ;
304 -> 306 ;
307 [label="entropy = 0.0\nsamples = 2\nvalue = [2, 0]"] ;
306 -> 307 ;
308 [label="X[0] <= -2205.334\nentropy = 0.863\nsamples = 7\nvalue = [2, 5]"] ;
306 -> 308 ;
309 [label="entropy = 0.0\nsamples = 2\nvalue = [0, 2]"] ;
308 -> 309 ;
310 [label="X[0] <= -2205.309\nentropy = 0.971\nsamples = 5\nvalue = [2, 3]"] ;
308 -> 310 ;
311 [label="entropy = 0.0\nsamples = 1\nvalue = [1, 0]"] ;
310 -> 311 ;
312 [label="X[0] <= -2205.283\nentropy = 0.811\nsamples = 4\nvalue = [1, 3]"] ;
310 -> 312 ;
313 [label="entropy = 0.0\nsamples = 1\nvalue = [0, 1]"] ;
312 -> 313 ;
314 [label="entropy = 0.918\nsamples = 3\nvalue = [1, 2]"] ;
312 -> 314 ;
315 [label="X[0] <= -2204.811\nentropy = 0.503\nsamples = 9\nvalue = [1, 8]"] ;
267 -> 315 ;
316 [label="entropy = 0.0\nsamples = 6\nvalue = [0, 6]"] ;
315 -> 316 ;
317 [label="X[0] <= -2204.71\nentropy = 0.918\nsamples = 3\nvalue = [1, 2]"] ;
315 -> 317 ;
318 [label="entropy = 0.0\nsamples = 1\nvalue = [1, 0]"] ;
317 -> 318 ;
319 [label="entropy = 0.0\nsamples = 2\nvalue = [0, 2]"] ;
317 -> 319 ;
320 [label="X[0] <= -2204.658\nentropy = 1.0\nsamples = 4\nvalue = [2, 2]"] ;
266 -> 320 ;
321 [label="entropy = 0.0\nsamples = 1\nvalue = [1, 0]"] ;
320 -> 321 ;
322 [label="X[0] <= -2204.578\nentropy = 0.918\nsamples = 3\nvalue = [1, 2]"] ;
320 -> 322 ;
323 [label="entropy = 0.0\nsamples = 1\nvalue = [0, 1]"] ;
322 -> 323 ;
324 [label="entropy = 1.0\nsamples = 2\nvalue = [1, 1]"] ;
322 -> 324 ;
325 [label="X[0] <= -2204.258\nentropy = 0.503\nsamples = 9\nvalue = [1, 8]"] ;
265 -> 325 ;
326 [label="entropy = 0.0\nsamples = 5\nvalue = [0, 5]"] ;
325 -> 326 ;
327 [label="X[0] <= -2204.182\nentropy = 0.811\nsamples = 4\nvalue = [1, 3]"] ;
325 -> 327 ;
328 [label="entropy = 0.918\nsamples = 3\nvalue = [1, 2]"] ;
327 -> 328 ;
329 [label="entropy = 0.0\nsamples = 1\nvalue = [0, 1]"] ;
327 -> 329 ;
330 [label="X[0] <= -2203.972\nentropy = 0.965\nsamples = 154\nvalue = [60, 94]"] ;
264 -> 330 ;
331 [label="entropy = 0.0\nsamples = 4\nvalue = [4, 0]"] ;
330 -> 331 ;
332 [label="X[0] <= -2202.799\nentropy = 0.953\nsamples = 150\nvalue = [56, 94]"] ;
330 -> 332 ;
333 [label="entropy = 0.0\nsamples = 8\nvalue = [0, 8]"] ;
332 -> 333 ;
334 [label="X[0] <= -2200.159\nentropy = 0.968\nsamples = 142\nvalue = [56, 86]"] ;
332 -> 334 ;
335 [label="X[0] <= -2200.335\nentropy = 0.946\nsamples = 22\nvalue = [14, 8]"] ;
334 -> 335 ;
336 [label="X[0] <= -2200.788\nentropy = 0.982\nsamples = 19\nvalue = [11, 8]"] ;
335 -> 336 ;
337 [label="X[0] <= -2201.089\nentropy = 0.845\nsamples = 11\nvalue = [8, 3]"] ;
336 -> 337 ;
338 [label="X[0] <= -2201.189\nentropy = 0.918\nsamples = 9\nvalue = [6, 3]"] ;
337 -> 338 ;
339 [label="X[0] <= -2201.491\nentropy = 0.811\nsamples = 8\nvalue = [6, 2]"] ;
338 -> 339 ;
340 [label="X[0] <= -2201.591\nentropy = 0.918\nsamples = 6\nvalue = [4, 2]"] ;
339 -> 340 ;
341 [label="X[0] <= -2202.245\nentropy = 0.722\nsamples = 5\nvalue = [4, 1]"] ;
340 -> 341 ;
342 [label="X[0] <= -2202.446\nentropy = 1.0\nsamples = 2\nvalue = [1, 1]"] ;
341 -> 342 ;
343 [label="entropy = 0.0\nsamples = 1\nvalue = [1, 0]"] ;
342 -> 343 ;
344 [label="entropy = 0.0\nsamples = 1\nvalue = [0, 1]"] ;
342 -> 344 ;
345 [label="entropy = 0.0\nsamples = 3\nvalue = [3, 0]"] ;
341 -> 345 ;
346 [label="entropy = 0.0\nsamples = 1\nvalue = [0, 1]"] ;
340 -> 346 ;
347 [label="entropy = 0.0\nsamples = 2\nvalue = [2, 0]"] ;
339 -> 347 ;
348 [label="entropy = 0.0\nsamples = 1\nvalue = [0, 1]"] ;
338 -> 348 ;
349 [label="entropy = 0.0\nsamples = 2\nvalue = [2, 0]"] ;
337 -> 349 ;
350 [label="X[0] <= -2200.46\nentropy = 0.954\nsamples = 8\nvalue = [3, 5]"] ;
336 -> 350 ;
351 [label="X[0] <= -2200.636\nentropy = 0.722\nsamples = 5\nvalue = [1, 4]"] ;
350 -> 351 ;
352 [label="X[0] <= -2200.712\nentropy = 1.0\nsamples = 2\nvalue = [1, 1]"] ;
351 -> 352 ;
353 [label="entropy = 0.0\nsamples = 1\nvalue = [0, 1]"] ;
352 -> 353 ;
354 [label="entropy = 0.0\nsamples = 1\nvalue = [1, 0]"] ;
352 -> 354 ;
355 [label="entropy = 0.0\nsamples = 3\nvalue = [0, 3]"] ;
351 -> 355 ;
356 [label="X[0] <= -2200.435\nentropy = 0.918\nsamples = 3\nvalue = [2, 1]"] ;
350 -> 356 ;
357 [label="entropy = 0.0\nsamples = 1\nvalue = [1, 0]"] ;
356 -> 357 ;
358 [label="entropy = 1.0\nsamples = 2\nvalue = [1, 1]"] ;
356 -> 358 ;
359 [label="entropy = 0.0\nsamples = 3\nvalue = [3, 0]"] ;
335 -> 359 ;
360 [label="X[0] <= -2199.857\nentropy = 0.934\nsamples = 120\nvalue = [42, 78]"] ;
334 -> 360 ;
361 [label="entropy = 0.0\nsamples = 6\nvalue = [0, 6]"] ;
360 -> 361 ;
362 [label="X[0] <= -2199.756\nentropy = 0.949\nsamples = 114\nvalue = [42, 72]"] ;
360 -> 362 ;
363 [label="entropy = 0.0\nsamples = 3\nvalue = [3, 0]"] ;
362 -> 363 ;
364 [label="X[0] <= -2181.318\nentropy = 0.935\nsamples = 111\nvalue = [39, 72]"] ;
362 -> 364 ;
365 [label="X[0] <= -2199.48\nentropy = 0.946\nsamples = 107\nvalue = [39, 68]"] ;
364 -> 365 ;
366 [label="entropy = 0.0\nsamples = 3\nvalue = [0, 3]"] ;
365 -> 366 ;
367 [label="X[0] <= -2199.43\nentropy = 0.954\nsamples = 104\nvalue = [39, 65]"] ;
365 -> 367 ;
368 [label="entropy = 0.0\nsamples = 3\nvalue = [3, 0]"] ;
367 -> 368 ;
369 [label="X[0] <= -2199.254\nentropy = 0.94\nsamples = 101\nvalue = [36, 65]"] ;
367 -> 369 ;
370 [label="entropy = 0.0\nsamples = 4\nvalue = [0, 4]"] ;
369 -> 370 ;
371 [label="X[0] <= -2196.445\nentropy = 0.952\nsamples = 97\nvalue = [36, 61]"] ;
369 -> 371 ;
372 [label="X[0] <= -2198.45\nentropy = 0.998\nsamples = 19\nvalue = [10, 9]"] ;
371 -> 372 ;
373 [label="X[0] <= -2199.153\nentropy = 0.881\nsamples = 10\nvalue = [3, 7]"] ;
372 -> 373 ;
374 [label="entropy = 0.0\nsamples = 1\nvalue = [1, 0]"] ;
373 -> 374 ;
375 [label="X[0] <= -2198.575\nentropy = 0.764\nsamples = 9\nvalue = [2, 7]"] ;
373 -> 375 ;
376 [label="X[0] <= -2198.879\nentropy = 0.592\nsamples = 7\nvalue = [1, 6]"] ;
375 -> 376 ;
377 [label="X[0] <= -2199.03\nentropy = 0.918\nsamples = 3\nvalue = [1, 2]"] ;
376 -> 377 ;
378 [label="entropy = 0.0\nsamples = 1\nvalue = [0, 1]"] ;
377 -> 378 ;
379 [label="entropy = 1.0\nsamples = 2\nvalue = [1, 1]"] ;
377 -> 379 ;
380 [label="entropy = 0.0\nsamples = 4\nvalue = [0, 4]"] ;
376 -> 380 ;
381 [label="X[0] <= -2198.476\nentropy = 1.0\nsamples = 2\nvalue = [1, 1]"] ;
375 -> 381 ;
382 [label="entropy = 0.0\nsamples = 1\nvalue = [1, 0]"] ;
381 -> 382 ;
383 [label="entropy = 0.0\nsamples = 1\nvalue = [0, 1]"] ;
381 -> 383 ;
384 [label="X[0] <= -2197.947\nentropy = 0.764\nsamples = 9\nvalue = [7, 2]"] ;
372 -> 384 ;
385 [label="entropy = 0.0\nsamples = 4\nvalue = [4, 0]"] ;
384 -> 385 ;
386 [label="X[0] <= -2197.42\nentropy = 0.971\nsamples = 5\nvalue = [3, 2]"] ;
384 -> 386 ;
387 [label="entropy = 0.0\nsamples = 2\nvalue = [0, 2]"] ;
386 -> 387 ;
388 [label="entropy = 0.0\nsamples = 3\nvalue = [3, 0]"] ;
386 -> 388 ;
389 [label="X[0] <= -2192.643\nentropy = 0.918\nsamples = 78\nvalue = [26, 52]"] ;
371 -> 389 ;
390 [label="X[0] <= -2194.895\nentropy = 0.337\nsamples = 16\nvalue = [1, 15]"] ;
389 -> 390 ;
391 [label="X[0] <= -2194.971\nentropy = 0.722\nsamples = 5\nvalue = [1, 4]"] ;
390 -> 391 ;
392 [label="entropy = 0.0\nsamples = 3\nvalue = [0, 3]"] ;
391 -> 392 ;
393 [label="entropy = 1.0\nsamples = 2\nvalue = [1, 1]"] ;
391 -> 393 ;
394 [label="entropy = 0.0\nsamples = 11\nvalue = [0, 11]"] ;
390 -> 394 ;
395 [label="X[0] <= -2191.763\nentropy = 0.973\nsamples = 62\nvalue = [25, 37]"] ;
389 -> 395 ;
396 [label="entropy = 0.0\nsamples = 2\nvalue = [2, 0]"] ;
395 -> 396 ;
397 [label="X[0] <= -2183.798\nentropy = 0.96\nsamples = 60\nvalue = [23, 37]"] ;
395 -> 397 ;
398 [label="X[0] <= -2186.393\nentropy = 0.931\nsamples = 49\nvalue = [17, 32]"] ;
397 -> 398 ;
399 [label="X[0] <= -2186.804\nentropy = 0.965\nsamples = 41\nvalue = [16, 25]"] ;
398 -> 399 ;
400 [label="X[0] <= -2191.411\nentropy = 0.954\nsamples = 40\nvalue = [15, 25]"] ;
399 -> 400 ;
401 [label="entropy = 0.0\nsamples = 1\nvalue = [0, 1]"] ;
400 -> 401 ;
402 [label="entropy = 0.961\nsamples = 39\nvalue = [15, 24]"] ;
400 -> 402 ;
403 [label="entropy = 0.0\nsamples = 1\nvalue = [1, 0]"] ;
399 -> 403 ;
404 [label="X[0] <= -2184.425\nentropy = 0.544\nsamples = 8\nvalue = [1, 7]"] ;
398 -> 404 ;
405 [label="entropy = 0.0\nsamples = 5\nvalue = [0, 5]"] ;
404 -> 405 ;
406 [label="X[0] <= -2184.375\nentropy = 0.918\nsamples = 3\nvalue = [1, 2]"] ;
404 -> 406 ;
407 [label="entropy = 0.0\nsamples = 1\nvalue = [1, 0]"] ;
406 -> 407 ;
408 [label="entropy = 0.0\nsamples = 2\nvalue = [0, 2]"] ;
406 -> 408 ;
409 [label="X[0] <= -2183.437\nentropy = 0.994\nsamples = 11\nvalue = [6, 5]"] ;
397 -> 409 ;
410 [label="entropy = 0.0\nsamples = 2\nvalue = [2, 0]"] ;
409 -> 410 ;
411 [label="X[0] <= -2182.908\nentropy = 0.991\nsamples = 9\nvalue = [4, 5]"] ;
409 -> 411 ;
412 [label="entropy = 0.0\nsamples = 2\nvalue = [0, 2]"] ;
411 -> 412 ;
413 [label="X[0] <= -2182.257\nentropy = 0.985\nsamples = 7\nvalue = [4, 3]"] ;
411 -> 413 ;
414 [label="entropy = 0.0\nsamples = 2\nvalue = [2, 0]"] ;
413 -> 414 ;
415 [label="entropy = 0.971\nsamples = 5\nvalue = [2, 3]"] ;
413 -> 415 ;
416 [label="entropy = 0.0\nsamples = 4\nvalue = [0, 4]"] ;
364 -> 416 ;
417 [label="X[0] <= -2054.672\nentropy = 0.956\nsamples = 385\nvalue = [240, 145]"] ;
1 -> 417 ;
418 [label="X[0] <= -2056.326\nentropy = 0.941\nsamples = 363\nvalue = [233, 130]"] ;
417 -> 418 ;
419 [label="X[0] <= -2150.894\nentropy = 0.949\nsamples = 351\nvalue = [222, 129]"] ;
418 -> 419 ;
420 [label="X[0] <= -2169.268\nentropy = 0.821\nsamples = 82\nvalue = [61, 21]"] ;
419 -> 420 ;
421 [label="X[0] <= -2174.557\nentropy = 0.959\nsamples = 42\nvalue = [26, 16]"] ;
420 -> 421 ;
422 [label="X[0] <= -2179.717\nentropy = 0.771\nsamples = 31\nvalue = [24, 7]"] ;
421 -> 422 ;
423 [label="entropy = 0.0\nsamples = 4\nvalue = [4, 0]"] ;
422 -> 423 ;
424 [label="X[0] <= -2179.592\nentropy = 0.826\nsamples = 27\nvalue = [20, 7]"] ;
422 -> 424 ;
425 [label="entropy = 0.0\nsamples = 1\nvalue = [0, 1]"] ;
424 -> 425 ;
426 [label="X[0] <= -2179.09\nentropy = 0.779\nsamples = 26\nvalue = [20, 6]"] ;
424 -> 426 ;
427 [label="X[0] <= -2179.209\nentropy = 0.954\nsamples = 8\nvalue = [5, 3]"] ;
426 -> 427 ;
428 [label="X[0] <= -2179.461\nentropy = 0.65\nsamples = 6\nvalue = [5, 1]"] ;
427 -> 428 ;
429 [label="X[0] <= -2179.528\nentropy = 1.0\nsamples = 2\nvalue = [1, 1]"] ;
428 -> 429 ;
430 [label="entropy = 0.0\nsamples = 1\nvalue = [1, 0]"] ;
429 -> 430 ;
431 [label="entropy = 0.0\nsamples = 1\nvalue = [0, 1]"] ;
429 -> 431 ;
432 [label="entropy = 0.0\nsamples = 4\nvalue = [4, 0]"] ;
428 -> 432 ;
433 [label="entropy = 0.0\nsamples = 2\nvalue = [0, 2]"] ;
427 -> 433 ;
434 [label="X[0] <= -2178.066\nentropy = 0.65\nsamples = 18\nvalue = [15, 3]"] ;
426 -> 434 ;
435 [label="entropy = 0.0\nsamples = 6\nvalue = [6, 0]"] ;
434 -> 435 ;
436 [label="X[0] <= -2177.915\nentropy = 0.811\nsamples = 12\nvalue = [9, 3]"] ;
434 -> 436 ;
437 [label="entropy = 0.0\nsamples = 1\nvalue = [0, 1]"] ;
436 -> 437 ;
438 [label="X[0] <= -2176.959\nentropy = 0.684\nsamples = 11\nvalue = [9, 2]"] ;
436 -> 438 ;
439 [label="entropy = 0.0\nsamples = 5\nvalue = [5, 0]"] ;
438 -> 439 ;
440 [label="X[0] <= -2176.853\nentropy = 0.918\nsamples = 6\nvalue = [4, 2]"] ;
438 -> 440 ;
441 [label="entropy = 0.0\nsamples = 1\nvalue = [0, 1]"] ;
440 -> 441 ;
442 [label="X[0] <= -2175.161\nentropy = 0.722\nsamples = 5\nvalue = [4, 1]"] ;
440 -> 442 ;
443 [label="entropy = 0.0\nsamples = 3\nvalue = [3, 0]"] ;
442 -> 443 ;
444 [label="X[0] <= -2174.71\nentropy = 1.0\nsamples = 2\nvalue = [1, 1]"] ;
442 -> 444 ;
445 [label="entropy = 0.0\nsamples = 1\nvalue = [0, 1]"] ;
444 -> 445 ;
446 [label="entropy = 0.0\nsamples = 1\nvalue = [1, 0]"] ;
444 -> 446 ;
447 [label="X[0] <= -2170.723\nentropy = 0.684\nsamples = 11\nvalue = [2, 9]"] ;
421 -> 447 ;
448 [label="X[0] <= -2171.778\nentropy = 0.918\nsamples = 6\nvalue = [2, 4]"] ;
447 -> 448 ;
449 [label="entropy = 0.0\nsamples = 3\nvalue = [0, 3]"] ;
448 -> 449 ;
450 [label="X[0] <= -2171.226\nentropy = 0.918\nsamples = 3\nvalue = [2, 1]"] ;
448 -> 450 ;
451 [label="entropy = 0.0\nsamples = 1\nvalue = [1, 0]"] ;
450 -> 451 ;
452 [label="X[0] <= -2170.925\nentropy = 1.0\nsamples = 2\nvalue = [1, 1]"] ;
450 -> 452 ;
453 [label="entropy = 0.0\nsamples = 1\nvalue = [0, 1]"] ;
452 -> 453 ;
454 [label="entropy = 0.0\nsamples = 1\nvalue = [1, 0]"] ;
452 -> 454 ;
455 [label="entropy = 0.0\nsamples = 5\nvalue = [0, 5]"] ;
447 -> 455 ;
456 [label="X[0] <= -2163.192\nentropy = 0.544\nsamples = 40\nvalue = [35, 5]"] ;
420 -> 456 ;
457 [label="entropy = 0.0\nsamples = 7\nvalue = [7, 0]"] ;
456 -> 457 ;
458 [label="X[0] <= -2163.042\nentropy = 0.614\nsamples = 33\nvalue = [28, 5]"] ;
456 -> 458 ;
459 [label="entropy = 0.0\nsamples = 1\nvalue = [0, 1]"] ;
458 -> 459 ;
460 [label="X[0] <= -2161.606\nentropy = 0.544\nsamples = 32\nvalue = [28, 4]"] ;
458 -> 460 ;
461 [label="entropy = 0.0\nsamples = 7\nvalue = [7, 0]"] ;
460 -> 461 ;
462 [label="X[0] <= -2161.155\nentropy = 0.634\nsamples = 25\nvalue = [21, 4]"] ;
460 -> 462 ;
463 [label="entropy = 0.0\nsamples = 1\nvalue = [0, 1]"] ;
462 -> 463 ;
464 [label="X[0] <= -2156.432\nentropy = 0.544\nsamples = 24\nvalue = [21, 3]"] ;
462 -> 464 ;
465 [label="X[0] <= -2159.438\nentropy = 0.337\nsamples = 16\nvalue = [15, 1]"] ;
464 -> 465 ;
466 [label="X[0] <= -2159.739\nentropy = 0.811\nsamples = 4\nvalue = [3, 1]"] ;
465 -> 466 ;
467 [label="entropy = 0.0\nsamples = 3\nvalue = [3, 0]"] ;
466 -> 467 ;
468 [label="entropy = 0.0\nsamples = 1\nvalue = [0, 1]"] ;
466 -> 468 ;
469 [label="entropy = 0.0\nsamples = 12\nvalue = [12, 0]"] ;
465 -> 469 ;
470 [label="X[0] <= -2156.282\nentropy = 0.811\nsamples = 8\nvalue = [6, 2]"] ;
464 -> 470 ;
471 [label="entropy = 0.0\nsamples = 1\nvalue = [0, 1]"] ;
470 -> 471 ;
472 [label="X[0] <= -2155.72\nentropy = 0.592\nsamples = 7\nvalue = [6, 1]"] ;
470 -> 472 ;
473 [label="entropy = 0.0\nsamples = 3\nvalue = [3, 0]"] ;
472 -> 473 ;
474 [label="X[0] <= -2155.509\nentropy = 0.811\nsamples = 4\nvalue = [3, 1]"] ;
472 -> 474 ;
475 [label="entropy = 0.0\nsamples = 1\nvalue = [0, 1]"] ;
474 -> 475 ;
476 [label="entropy = 0.0\nsamples = 3\nvalue = [3, 0]"] ;
474 -> 476 ;
477 [label="X[0] <= -2148.676\nentropy = 0.972\nsamples = 269\nvalue = [161, 108]"] ;
419 -> 477 ;
478 [label="entropy = 0.0\nsamples = 2\nvalue = [0, 2]"] ;
477 -> 478 ;
479 [label="X[0] <= -2087.119\nentropy = 0.969\nsamples = 267\nvalue = [161, 106]"] ;
477 -> 479 ;
480 [label="X[0] <= -2095.899\nentropy = 0.984\nsamples = 190\nvalue = [109, 81]"] ;
479 -> 480 ;
481 [label="X[0] <= -2104.918\nentropy = 0.966\nsamples = 176\nvalue = [107, 69]"] ;
480 -> 481 ;
482 [label="X[0] <= -2108.341\nentropy = 0.988\nsamples = 145\nvalue = [82, 63]"] ;
481 -> 482 ;
483 [label="X[0] <= -2120.392\nentropy = 0.978\nsamples = 138\nvalue = [81, 57]"] ;
482 -> 483 ;
484 [label="X[0] <= -2127.812\nentropy = 0.952\nsamples = 97\nvalue = [61, 36]"] ;
483 -> 484 ;
485 [label="X[0] <= -2128.248\nentropy = 0.988\nsamples = 71\nvalue = [40, 31]"] ;
484 -> 485 ;
486 [label="X[0] <= -2137.651\nentropy = 0.977\nsamples = 68\nvalue = [40, 28]"] ;
485 -> 486 ;
487 [label="X[0] <= -2138.186\nentropy = 0.996\nsamples = 43\nvalue = [23, 20]"] ;
486 -> 487 ;
488 [label="X[0] <= -2147.172\nentropy = 0.989\nsamples = 41\nvalue = [23, 18]"] ;
487 -> 488 ;
489 [label="entropy = 0.0\nsamples = 1\nvalue = [1, 0]"] ;
488 -> 489 ;
490 [label="X[0] <= -2146.463\nentropy = 0.993\nsamples = 40\nvalue = [22, 18]"] ;
488 -> 490 ;
491 [label="entropy = 0.0\nsamples = 2\nvalue = [0, 2]"] ;
490 -> 491 ;
492 [label="X[0] <= -2145.444\nentropy = 0.982\nsamples = 38\nvalue = [22, 16]"] ;
490 -> 492 ;
493 [label="entropy = 0.0\nsamples = 2\nvalue = [2, 0]"] ;
492 -> 493 ;
494 [label="X[0] <= -2145.111\nentropy = 0.991\nsamples = 36\nvalue = [20, 16]"] ;
492 -> 494 ;
495 [label="entropy = 0.0\nsamples = 1\nvalue = [0, 1]"] ;
494 -> 495 ;
496 [label="X[0] <= -2140.747\nentropy = 0.985\nsamples = 35\nvalue = [20, 15]"] ;
494 -> 496 ;
497 [label="X[0] <= -2141.646\nentropy = 0.89\nsamples = 13\nvalue = [9, 4]"] ;
496 -> 497 ;
498 [label="entropy = 0.971\nsamples = 10\nvalue = [6, 4]"] ;
497 -> 498 ;
499 [label="entropy = 0.0\nsamples = 3\nvalue = [3, 0]"] ;
497 -> 499 ;
500 [label="X[0] <= -2140.413\nentropy = 1.0\nsamples = 22\nvalue = [11, 11]"] ;
496 -> 500 ;
501 [label="entropy = 0.0\nsamples = 1\nvalue = [0, 1]"] ;
500 -> 501 ;
502 [label="entropy = 0.998\nsamples = 21\nvalue = [11, 10]"] ;
500 -> 502 ;
503 [label="entropy = 0.0\nsamples = 2\nvalue = [0, 2]"] ;
487 -> 503 ;
504 [label="X[0] <= -2133.767\nentropy = 0.904\nsamples = 25\nvalue = [17, 8]"] ;
486 -> 504 ;
505 [label="entropy = 0.0\nsamples = 10\nvalue = [10, 0]"] ;
504 -> 505 ;
506 [label="X[0] <= -2130.105\nentropy = 0.997\nsamples = 15\nvalue = [7, 8]"] ;
504 -> 506 ;
507 [label="entropy = 0.0\nsamples = 5\nvalue = [0, 5]"] ;
506 -> 507 ;
508 [label="X[0] <= -2129.376\nentropy = 0.881\nsamples = 10\nvalue = [7, 3]"] ;
506 -> 508 ;
509 [label="entropy = 0.0\nsamples = 4\nvalue = [4, 0]"] ;
508 -> 509 ;
510 [label="X[0] <= -2128.399\nentropy = 1.0\nsamples = 6\nvalue = [3, 3]"] ;
508 -> 510 ;
511 [label="X[0] <= -2128.549\nentropy = 0.971\nsamples = 5\nvalue = [2, 3]"] ;
510 -> 511 ;
512 [label="X[0] <= -2128.65\nentropy = 1.0\nsamples = 4\nvalue = [2, 2]"] ;
511 -> 512 ;
513 [label="X[0] <= -2129.026\nentropy = 0.918\nsamples = 3\nvalue = [1, 2]"] ;
512 -> 513 ;
514 [label="entropy = 1.0\nsamples = 2\nvalue = [1, 1]"] ;
513 -> 514 ;
515 [label="entropy = 0.0\nsamples = 1\nvalue = [0, 1]"] ;
513 -> 515 ;
516 [label="entropy = 0.0\nsamples = 1\nvalue = [1, 0]"] ;
512 -> 516 ;
517 [label="entropy = 0.0\nsamples = 1\nvalue = [0, 1]"] ;
511 -> 517 ;
518 [label="entropy = 0.0\nsamples = 1\nvalue = [1, 0]"] ;
510 -> 518 ;
519 [label="entropy = 0.0\nsamples = 3\nvalue = [0, 3]"] ;
485 -> 519 ;
520 [label="X[0] <= -2120.994\nentropy = 0.706\nsamples = 26\nvalue = [21, 5]"] ;
484 -> 520 ;
521 [label="X[0] <= -2123.026\nentropy = 0.773\nsamples = 22\nvalue = [17, 5]"] ;
520 -> 521 ;
522 [label="X[0] <= -2126.609\nentropy = 0.414\nsamples = 12\nvalue = [11, 1]"] ;
521 -> 522 ;
523 [label="X[0] <= -2127.123\nentropy = 0.811\nsamples = 4\nvalue = [3, 1]"] ;
522 -> 523 ;
524 [label="entropy = 0.0\nsamples = 3\nvalue = [3, 0]"] ;
523 -> 524 ;
525 [label="entropy = 0.0\nsamples = 1\nvalue = [0, 1]"] ;
523 -> 525 ;
526 [label="entropy = 0.0\nsamples = 8\nvalue = [8, 0]"] ;
522 -> 526 ;
527 [label="X[0] <= -2121.194\nentropy = 0.971\nsamples = 10\nvalue = [6, 4]"] ;
521 -> 527 ;
528 [label="X[0] <= -2121.395\nentropy = 0.918\nsamples = 9\nvalue = [6, 3]"] ;
527 -> 528 ;
529 [label="X[0] <= -2121.595\nentropy = 0.954\nsamples = 8\nvalue = [5, 3]"] ;
528 -> 529 ;
530 [label="X[0] <= -2121.955\nentropy = 0.863\nsamples = 7\nvalue = [5, 2]"] ;
529 -> 530 ;
531 [label="X[0] <= -2122.225\nentropy = 0.971\nsamples = 5\nvalue = [3, 2]"] ;
530 -> 531 ;
532 [label="X[0] <= -2122.625\nentropy = 0.811\nsamples = 4\nvalue = [3, 1]"] ;
531 -> 532 ;
533 [label="entropy = 1.0\nsamples = 2\nvalue = [1, 1]"] ;
532 -> 533 ;
534 [label="entropy = 0.0\nsamples = 2\nvalue = [2, 0]"] ;
532 -> 534 ;
535 [label="entropy = 0.0\nsamples = 1\nvalue = [0, 1]"] ;
531 -> 535 ;
536 [label="entropy = 0.0\nsamples = 2\nvalue = [2, 0]"] ;
530 -> 536 ;
537 [label="entropy = 0.0\nsamples = 1\nvalue = [0, 1]"] ;
529 -> 537 ;
538 [label="entropy = 0.0\nsamples = 1\nvalue = [1, 0]"] ;
528 -> 538 ;
539 [label="entropy = 0.0\nsamples = 1\nvalue = [0, 1]"] ;
527 -> 539 ;
540 [label="entropy = 0.0\nsamples = 4\nvalue = [4, 0]"] ;
520 -> 540 ;
541 [label="X[0] <= -2120.041\nentropy = 1.0\nsamples = 41\nvalue = [20, 21]"] ;
483 -> 541 ;
542 [label="entropy = 0.0\nsamples = 4\nvalue = [0, 4]"] ;
541 -> 542 ;
543 [label="X[0] <= -2109.076\nentropy = 0.995\nsamples = 37\nvalue = [20, 17]"] ;
541 -> 543 ;
544 [label="X[0] <= -2119.6\nentropy = 0.999\nsamples = 35\nvalue = [18, 17]"] ;
543 -> 544 ;
545 [label="X[0] <= -2119.772\nentropy = 0.722\nsamples = 5\nvalue = [4, 1]"] ;
544 -> 545 ;
546 [label="X[0] <= -2119.941\nentropy = 1.0\nsamples = 2\nvalue = [1, 1]"] ;
545 -> 546 ;
547 [label="entropy = 0.0\nsamples = 1\nvalue = [1, 0]"] ;
546 -> 547 ;
548 [label="entropy = 0.0\nsamples = 1\nvalue = [0, 1]"] ;
546 -> 548 ;
549 [label="entropy = 0.0\nsamples = 3\nvalue = [3, 0]"] ;
545 -> 549 ;
550 [label="X[0] <= -2118.938\nentropy = 0.997\nsamples = 30\nvalue = [14, 16]"] ;
544 -> 550 ;
551 [label="entropy = 0.0\nsamples = 4\nvalue = [0, 4]"] ;
550 -> 551 ;
552 [label="X[0] <= -2109.87\nentropy = 0.996\nsamples = 26\nvalue = [14, 12]"] ;
550 -> 552 ;
553 [label="X[0] <= -2113.464\nentropy = 0.99\nsamples = 25\nvalue = [14, 11]"] ;
552 -> 553 ;
554 [label="X[0] <= -2114.983\nentropy = 1.0\nsamples = 20\nvalue = [10, 10]"] ;
553 -> 554 ;
555 [label="X[0] <= -2118.036\nentropy = 0.977\nsamples = 17\nvalue = [10, 7]"] ;
554 -> 555 ;
556 [label="X[0] <= -2118.336\nentropy = 0.985\nsamples = 7\nvalue = [3, 4]"] ;
555 -> 556 ;
557 [label="X[0] <= -2118.437\nentropy = 0.971\nsamples = 5\nvalue = [3, 2]"] ;
556 -> 557 ;
558 [label="entropy = 1.0\nsamples = 4\nvalue = [2, 2]"] ;
557 -> 558 ;
559 [label="entropy = 0.0\nsamples = 1\nvalue = [1, 0]"] ;
557 -> 559 ;
560 [label="entropy = 0.0\nsamples = 2\nvalue = [0, 2]"] ;
556 -> 560 ;
561 [label="X[0] <= -2115.743\nentropy = 0.881\nsamples = 10\nvalue = [7, 3]"] ;
555 -> 561 ;
562 [label="X[0] <= -2117.41\nentropy = 0.592\nsamples = 7\nvalue = [6, 1]"] ;
561 -> 562 ;
563 [label="entropy = 0.918\nsamples = 3\nvalue = [2, 1]"] ;
562 -> 563 ;
564 [label="entropy = 0.0\nsamples = 4\nvalue = [4, 0]"] ;
562 -> 564 ;
565 [label="X[0] <= -2115.521\nentropy = 0.918\nsamples = 3\nvalue = [1, 2]"] ;
561 -> 565 ;
566 [label="entropy = 0.0\nsamples = 2\nvalue = [0, 2]"] ;
565 -> 566 ;
567 [label="entropy = 0.0\nsamples = 1\nvalue = [1, 0]"] ;
565 -> 567 ;
568 [label="entropy = 0.0\nsamples = 3\nvalue = [0, 3]"] ;
554 -> 568 ;
569 [label="X[0] <= -2111.364\nentropy = 0.722\nsamples = 5\nvalue = [4, 1]"] ;
553 -> 569 ;
570 [label="entropy = 0.0\nsamples = 3\nvalue = [3, 0]"] ;
569 -> 570 ;
571 [label="X[0] <= -2110.785\nentropy = 1.0\nsamples = 2\nvalue = [1, 1]"] ;
569 -> 571 ;
572 [label="entropy = 0.0\nsamples = 1\nvalue = [0, 1]"] ;
571 -> 572 ;
573 [label="entropy = 0.0\nsamples = 1\nvalue = [1, 0]"] ;
571 -> 573 ;
574 [label="entropy = 0.0\nsamples = 1\nvalue = [0, 1]"] ;
552 -> 574 ;
575 [label="entropy = 0.0\nsamples = 2\nvalue = [2, 0]"] ;
543 -> 575 ;
576 [label="X[0] <= -2107.098\nentropy = 0.592\nsamples = 7\nvalue = [1, 6]"] ;
482 -> 576 ;
577 [label="entropy = 0.0\nsamples = 3\nvalue = [0, 3]"] ;
576 -> 577 ;
578 [label="X[0] <= -2107.048\nentropy = 0.811\nsamples = 4\nvalue = [1, 3]"] ;
576 -> 578 ;
579 [label="entropy = 0.0\nsamples = 1\nvalue = [1, 0]"] ;
578 -> 579 ;
580 [label="entropy = 0.0\nsamples = 3\nvalue = [0, 3]"] ;
578 -> 580 ;
581 [label="X[0] <= -2100.561\nentropy = 0.709\nsamples = 31\nvalue = [25, 6]"] ;
481 -> 581 ;
582 [label="entropy = 0.0\nsamples = 12\nvalue = [12, 0]"] ;
581 -> 582 ;
583 [label="X[0] <= -2099.221\nentropy = 0.9\nsamples = 19\nvalue = [13, 6]"] ;
581 -> 583 ;
584 [label="entropy = 0.0\nsamples = 3\nvalue = [0, 3]"] ;
583 -> 584 ;
585 [label="X[0] <= -2097.766\nentropy = 0.696\nsamples = 16\nvalue = [13, 3]"] ;
583 -> 585 ;
586 [label="entropy = 0.0\nsamples = 6\nvalue = [6, 0]"] ;
585 -> 586 ;
587 [label="X[0] <= -2096.907\nentropy = 0.881\nsamples = 10\nvalue = [7, 3]"] ;
585 -> 587 ;
588 [label="X[0] <= -2097.057\nentropy = 1.0\nsamples = 6\nvalue = [3, 3]"] ;
587 -> 588 ;
589 [label="X[0] <= -2097.2\nentropy = 0.971\nsamples = 5\nvalue = [3, 2]"] ;
588 -> 589 ;
590 [label="X[0] <= -2097.501\nentropy = 1.0\nsamples = 4\nvalue = [2, 2]"] ;
589 -> 590 ;
591 [label="X[0] <= -2097.764\nentropy = 0.918\nsamples = 3\nvalue = [2, 1]"] ;
590 -> 591 ;
592 [label="entropy = 1.0\nsamples = 2\nvalue = [1, 1]"] ;
591 -> 592 ;
593 [label="entropy = 0.0\nsamples = 1\nvalue = [1, 0]"] ;
591 -> 593 ;
594 [label="entropy = 0.0\nsamples = 1\nvalue = [0, 1]"] ;
590 -> 594 ;
595 [label="entropy = 0.0\nsamples = 1\nvalue = [1, 0]"] ;
589 -> 595 ;
596 [label="entropy = 0.0\nsamples = 1\nvalue = [0, 1]"] ;
588 -> 596 ;
597 [label="entropy = 0.0\nsamples = 4\nvalue = [4, 0]"] ;
587 -> 597 ;
598 [label="X[0] <= -2091.628\nentropy = 0.592\nsamples = 14\nvalue = [2, 12]"] ;
480 -> 598 ;
599 [label="entropy = 0.0\nsamples = 3\nvalue = [0, 3]"] ;
598 -> 599 ;
600 [label="X[0] <= -2091.478\nentropy = 0.684\nsamples = 11\nvalue = [2, 9]"] ;
598 -> 600 ;
601 [label="entropy = 0.0\nsamples = 1\nvalue = [1, 0]"] ;
600 -> 601 ;
602 [label="X[0] <= -2088.824\nentropy = 0.469\nsamples = 10\nvalue = [1, 9]"] ;
600 -> 602 ;
603 [label="entropy = 0.0\nsamples = 7\nvalue = [0, 7]"] ;
602 -> 603 ;
604 [label="X[0] <= -2088.239\nentropy = 0.918\nsamples = 3\nvalue = [1, 2]"] ;
602 -> 604 ;
605 [label="entropy = 0.0\nsamples = 1\nvalue = [1, 0]"] ;
604 -> 605 ;
606 [label="entropy = 0.0\nsamples = 2\nvalue = [0, 2]"] ;
604 -> 606 ;
607 [label="X[0] <= -2082.459\nentropy = 0.909\nsamples = 77\nvalue = [52, 25]"] ;
479 -> 607 ;
608 [label="X[0] <= -2085.413\nentropy = 0.414\nsamples = 12\nvalue = [11, 1]"] ;
607 -> 608 ;
609 [label="X[0] <= -2085.749\nentropy = 0.722\nsamples = 5\nvalue = [4, 1]"] ;
608 -> 609 ;
610 [label="entropy = 0.0\nsamples = 4\nvalue = [4, 0]"] ;
609 -> 610 ;
611 [label="entropy = 0.0\nsamples = 1\nvalue = [0, 1]"] ;
609 -> 611 ;
612 [label="entropy = 0.0\nsamples = 7\nvalue = [7, 0]"] ;
608 -> 612 ;
613 [label="X[0] <= -2082.108\nentropy = 0.95\nsamples = 65\nvalue = [41, 24]"] ;
607 -> 613 ;
614 [label="entropy = 0.0\nsamples = 3\nvalue = [0, 3]"] ;
613 -> 614 ;
615 [label="X[0] <= -2079.944\nentropy = 0.924\nsamples = 62\nvalue = [41, 21]"] ;
613 -> 615 ;
616 [label="entropy = 0.0\nsamples = 8\nvalue = [8, 0]"] ;
615 -> 616 ;
617 [label="X[0] <= -2079.555\nentropy = 0.964\nsamples = 54\nvalue = [33, 21]"] ;
615 -> 617 ;
618 [label="entropy = 0.0\nsamples = 2\nvalue = [0, 2]"] ;
617 -> 618 ;
619 [label="X[0] <= -2078.353\nentropy = 0.947\nsamples = 52\nvalue = [33, 19]"] ;
617 -> 619 ;
620 [label="entropy = 0.0\nsamples = 4\nvalue = [4, 0]"] ;
619 -> 620 ;
621 [label="X[0] <= -2068.128\nentropy = 0.968\nsamples = 48\nvalue = [29, 19]"] ;
619 -> 621 ;
622 [label="X[0] <= -2068.586\nentropy = 1.0\nsamples = 26\nvalue = [13, 13]"] ;
621 -> 622 ;
623 [label="X[0] <= -2078.09\nentropy = 0.995\nsamples = 24\nvalue = [13, 11]"] ;
622 -> 623 ;
624 [label="entropy = 0.0\nsamples = 1\nvalue = [0, 1]"] ;
623 -> 624 ;
625 [label="X[0] <= -2076.996\nentropy = 0.988\nsamples = 23\nvalue = [13, 10]"] ;
623 -> 625 ;
626 [label="entropy = 0.0\nsamples = 3\nvalue = [3, 0]"] ;
625 -> 626 ;
627 [label="X[0] <= -2076.796\nentropy = 1.0\nsamples = 20\nvalue = [10, 10]"] ;
625 -> 627 ;
628 [label="entropy = 0.0\nsamples = 1\nvalue = [0, 1]"] ;
627 -> 628 ;
629 [label="X[0] <= -2076.45\nentropy = 0.998\nsamples = 19\nvalue = [10, 9]"] ;
627 -> 629 ;
630 [label="entropy = 0.0\nsamples = 2\nvalue = [2, 0]"] ;
629 -> 630 ;
631 [label="X[0] <= -2076.094\nentropy = 0.998\nsamples = 17\nvalue = [8, 9]"] ;
629 -> 631 ;
632 [label="entropy = 0.0\nsamples = 2\nvalue = [0, 2]"] ;
631 -> 632 ;
633 [label="X[0] <= -2075.986\nentropy = 0.997\nsamples = 15\nvalue = [8, 7]"] ;
631 -> 633 ;
634 [label="entropy = 0.0\nsamples = 1\nvalue = [1, 0]"] ;
633 -> 634 ;
635 [label="X[0] <= -2075.241\nentropy = 1.0\nsamples = 14\nvalue = [7, 7]"] ;
633 -> 635 ;
636 [label="entropy = 0.0\nsamples = 1\nvalue = [0, 1]"] ;
635 -> 636 ;
637 [label="entropy = 0.996\nsamples = 13\nvalue = [7, 6]"] ;
635 -> 637 ;
638 [label="entropy = 0.0\nsamples = 2\nvalue = [0, 2]"] ;
622 -> 638 ;
639 [label="X[0] <= -2063.728\nentropy = 0.845\nsamples = 22\nvalue = [16, 6]"] ;
621 -> 639 ;
640 [label="entropy = 0.0\nsamples = 6\nvalue = [6, 0]"] ;
639 -> 640 ;
641 [label="X[0] <= -2060.276\nentropy = 0.954\nsamples = 16\nvalue = [10, 6]"] ;
639 -> 641 ;
642 [label="X[0] <= -2063.193\nentropy = 0.811\nsamples = 4\nvalue = [1, 3]"] ;
641 -> 642 ;
643 [label="X[0] <= -2063.453\nentropy = 1.0\nsamples = 2\nvalue = [1, 1]"] ;
642 -> 643 ;
644 [label="entropy = 0.0\nsamples = 1\nvalue = [0, 1]"] ;
643 -> 644 ;
645 [label="entropy = 0.0\nsamples = 1\nvalue = [1, 0]"] ;
643 -> 645 ;
646 [label="entropy = 0.0\nsamples = 2\nvalue = [0, 2]"] ;
642 -> 646 ;
647 [label="X[0] <= -2057.53\nentropy = 0.811\nsamples = 12\nvalue = [9, 3]"] ;
641 -> 647 ;
648 [label="entropy = 0.0\nsamples = 7\nvalue = [7, 0]"] ;
647 -> 648 ;
649 [label="X[0] <= -2057.276\nentropy = 0.971\nsamples = 5\nvalue = [2, 3]"] ;
647 -> 649 ;
650 [label="entropy = 0.0\nsamples = 1\nvalue = [0, 1]"] ;
649 -> 650 ;
651 [label="X[0] <= -2057.051\nentropy = 1.0\nsamples = 4\nvalue = [2, 2]"] ;
649 -> 651 ;
652 [label="entropy = 0.0\nsamples = 1\nvalue = [1, 0]"] ;
651 -> 652 ;
653 [label="X[0] <= -2056.776\nentropy = 0.918\nsamples = 3\nvalue = [1, 2]"] ;
651 -> 653 ;
654 [label="entropy = 0.0\nsamples = 1\nvalue = [0, 1]"] ;
653 -> 654 ;
655 [label="X[0] <= -2056.55\nentropy = 1.0\nsamples = 2\nvalue = [1, 1]"] ;
653 -> 655 ;
656 [label="entropy = 0.0\nsamples = 1\nvalue = [1, 0]"] ;
655 -> 656 ;
657 [label="entropy = 0.0\nsamples = 1\nvalue = [0, 1]"] ;
655 -> 657 ;
658 [label="X[0] <= -2055.473\nentropy = 0.414\nsamples = 12\nvalue = [11, 1]"] ;
418 -> 658 ;
659 [label="entropy = 0.0\nsamples = 7\nvalue = [7, 0]"] ;
658 -> 659 ;
660 [label="X[0] <= -2055.198\nentropy = 0.722\nsamples = 5\nvalue = [4, 1]"] ;
658 -> 660 ;
661 [label="entropy = 1.0\nsamples = 2\nvalue = [1, 1]"] ;
660 -> 661 ;
662 [label="entropy = 0.0\nsamples = 3\nvalue = [3, 0]"] ;
660 -> 662 ;
663 [label="X[0] <= -2054.222\nentropy = 0.902\nsamples = 22\nvalue = [7, 15]"] ;
417 -> 663 ;
664 [label="entropy = 0.0\nsamples = 3\nvalue = [0, 3]"] ;
663 -> 664 ;
665 [label="X[0] <= -2054.147\nentropy = 0.949\nsamples = 19\nvalue = [7, 12]"] ;
663 -> 665 ;
666 [label="entropy = 0.0\nsamples = 1\nvalue = [1, 0]"] ;
665 -> 666 ;
667 [label="X[0] <= -2049.165\nentropy = 0.918\nsamples = 18\nvalue = [6, 12]"] ;
665 -> 667 ;
668 [label="X[0] <= -2051.31\nentropy = 0.954\nsamples = 16\nvalue = [6, 10]"] ;
667 -> 668 ;
669 [label="X[0] <= -2052.512\nentropy = 0.811\nsamples = 12\nvalue = [3, 9]"] ;
668 -> 669 ;
670 [label="X[0] <= -2052.964\nentropy = 0.985\nsamples = 7\nvalue = [3, 4]"] ;
669 -> 670 ;
671 [label="X[0] <= -2054.046\nentropy = 0.918\nsamples = 6\nvalue = [2, 4]"] ;
670 -> 671 ;
672 [label="entropy = 0.0\nsamples = 1\nvalue = [0, 1]"] ;
671 -> 672 ;
673 [label="X[0] <= -2053.895\nentropy = 0.971\nsamples = 5\nvalue = [2, 3]"] ;
671 -> 673 ;
674 [label="entropy = 0.0\nsamples = 1\nvalue = [1, 0]"] ;
673 -> 674 ;
675 [label="X[0] <= -2053.572\nentropy = 0.811\nsamples = 4\nvalue = [1, 3]"] ;
673 -> 675 ;
676 [label="entropy = 0.0\nsamples = 2\nvalue = [0, 2]"] ;
675 -> 676 ;
677 [label="X[0] <= -2053.244\nentropy = 1.0\nsamples = 2\nvalue = [1, 1]"] ;
675 -> 677 ;
678 [label="entropy = 0.0\nsamples = 1\nvalue = [1, 0]"] ;
677 -> 678 ;
679 [label="entropy = 0.0\nsamples = 1\nvalue = [0, 1]"] ;
677 -> 679 ;
680 [label="entropy = 0.0\nsamples = 1\nvalue = [1, 0]"] ;
670 -> 680 ;
681 [label="entropy = 0.0\nsamples = 5\nvalue = [0, 5]"] ;
669 -> 681 ;
682 [label="X[0] <= -2050.386\nentropy = 0.811\nsamples = 4\nvalue = [3, 1]"] ;
668 -> 682 ;
683 [label="entropy = 0.0\nsamples = 2\nvalue = [2, 0]"] ;
682 -> 683 ;
684 [label="X[0] <= -2049.715\nentropy = 1.0\nsamples = 2\nvalue = [1, 1]"] ;
682 -> 684 ;
685 [label="entropy = 0.0\nsamples = 1\nvalue = [0, 1]"] ;
684 -> 685 ;
686 [label="entropy = 0.0\nsamples = 1\nvalue = [1, 0]"] ;
684 -> 686 ;
687 [label="entropy = 0.0\nsamples = 2\nvalue = [0, 2]"] ;
667 -> 687 ;
688 [label="X[0] <= 909.729\nentropy = 0.759\nsamples = 4611\nvalue = [3599, 1012]"] ;
0 -> 688 [labeldistance=2.5, labelangle=-45, headlabel="False"] ;
689 [label="X[0] <= -1383.451\nentropy = 0.821\nsamples = 2950\nvalue = [2194, 756]"] ;
688 -> 689 ;
690 [label="X[0] <= -2044.948\nentropy = 0.87\nsamples = 1157\nvalue = [820, 337]"] ;
689 -> 690 ;
691 [label="entropy = 0.0\nsamples = 8\nvalue = [8, 0]"] ;
690 -> 691 ;
692 [label="X[0] <= -2043.831\nentropy = 0.873\nsamples = 1149\nvalue = [812, 337]"] ;
690 -> 692 ;
693 [label="entropy = 0.0\nsamples = 3\nvalue = [0, 3]"] ;
692 -> 693 ;
694 [label="X[0] <= -1384.692\nentropy = 0.871\nsamples = 1146\nvalue = [812, 334]"] ;
692 -> 694 ;
695 [label="X[0] <= -2000.057\nentropy = 0.869\nsamples = 1144\nvalue = [812, 332]"] ;
694 -> 695 ;
696 [label="X[0] <= -2004.919\nentropy = 0.762\nsamples = 104\nvalue = [81, 23]"] ;
695 -> 696 ;
697 [label="X[0] <= -2004.959\nentropy = 0.803\nsamples = 94\nvalue = [71, 23]"] ;
696 -> 697 ;
698 [label="X[0] <= -2042.103\nentropy = 0.789\nsamples = 93\nvalue = [71, 22]"] ;
697 -> 698 ;
699 [label="entropy = 0.0\nsamples = 4\nvalue = [4, 0]"] ;
698 -> 699 ;
700 [label="X[0] <= -2040.937\nentropy = 0.807\nsamples = 89\nvalue = [67, 22]"] ;
698 -> 700 ;
701 [label="entropy = 0.0\nsamples = 2\nvalue = [0, 2]"] ;
700 -> 701 ;
702 [label="X[0] <= -2039.323\nentropy = 0.778\nsamples = 87\nvalue = [67, 20]"] ;
700 -> 702 ;
703 [label="entropy = 0.0\nsamples = 6\nvalue = [6, 0]"] ;
702 -> 703 ;
704 [label="X[0] <= -2039.023\nentropy = 0.806\nsamples = 81\nvalue = [61, 20]"] ;
702 -> 704 ;
705 [label="entropy = 0.0\nsamples = 1\nvalue = [0, 1]"] ;
704 -> 705 ;
706 [label="X[0] <= -2038.457\nentropy = 0.791\nsamples = 80\nvalue = [61, 19]"] ;
704 -> 706 ;
707 [label="entropy = 0.0\nsamples = 3\nvalue = [3, 0]"] ;
706 -> 707 ;
708 [label="X[0] <= -2038.272\nentropy = 0.806\nsamples = 77\nvalue = [58, 19]"] ;
706 -> 708 ;
709 [label="entropy = 0.0\nsamples = 2\nvalue = [0, 2]"] ;
708 -> 709 ;
710 [label="X[0] <= -2033.948\nentropy = 0.772\nsamples = 75\nvalue = [58, 17]"] ;
708 -> 710 ;
711 [label="X[0] <= -2038.083\nentropy = 0.391\nsamples = 13\nvalue = [12, 1]"] ;
710 -> 711 ;
712 [label="X[0] <= -2038.154\nentropy = 1.0\nsamples = 2\nvalue = [1, 1]"] ;
711 -> 712 ;
713 [label="entropy = 0.0\nsamples = 1\nvalue = [1, 0]"] ;
712 -> 713 ;
714 [label="entropy = 0.0\nsamples = 1\nvalue = [0, 1]"] ;
712 -> 714 ;
715 [label="entropy = 0.0\nsamples = 11\nvalue = [11, 0]"] ;
711 -> 715 ;
716 [label="X[0] <= -2033.305\nentropy = 0.824\nsamples = 62\nvalue = [46, 16]"] ;
710 -> 716 ;
717 [label="entropy = 0.0\nsamples = 2\nvalue = [0, 2]"] ;
716 -> 717 ;
718 [label="X[0] <= -2028.568\nentropy = 0.784\nsamples = 60\nvalue = [46, 14]"] ;
716 -> 718 ;
719 [label="entropy = 0.0\nsamples = 7\nvalue = [7, 0]"] ;
718 -> 719 ;
720 [label="X[0] <= -2027.603\nentropy = 0.833\nsamples = 53\nvalue = [39, 14]"] ;
718 -> 720 ;
721 [label="entropy = 0.0\nsamples = 2\nvalue = [0, 2]"] ;
720 -> 721 ;
722 [label="X[0] <= -2026.966\nentropy = 0.787\nsamples = 51\nvalue = [39, 12]"] ;
720 -> 722 ;
723 [label="entropy = 0.0\nsamples = 3\nvalue = [3, 0]"] ;
722 -> 723 ;
724 [label="X[0] <= -2026.705\nentropy = 0.811\nsamples = 48\nvalue = [36, 12]"] ;
722 -> 724 ;
725 [label="entropy = 0.0\nsamples = 1\nvalue = [0, 1]"] ;
724 -> 725 ;
726 [label="entropy = 0.785\nsamples = 47\nvalue = [36, 11]"] ;
724 -> 726 ;
727 [label="entropy = 0.0\nsamples = 1\nvalue = [0, 1]"] ;
697 -> 727 ;
728 [label="entropy = 0.0\nsamples = 10\nvalue = [10, 0]"] ;
696 -> 728 ;
729 [label="X[0] <= -1960.8\nentropy = 0.878\nsamples = 1040\nvalue = [731, 309]"] ;
695 -> 729 ;
730 [label="X[0] <= -1966.066\nentropy = 0.994\nsamples = 95\nvalue = [52, 43]"] ;
729 -> 730 ;
731 [label="X[0] <= -1967.439\nentropy = 0.985\nsamples = 84\nvalue = [48, 36]"] ;
730 -> 731 ;
732 [label="X[0] <= -1968.601\nentropy = 0.991\nsamples = 81\nvalue = [45, 36]"] ;
731 -> 732 ;
733 [label="X[0] <= -1972.758\nentropy = 0.983\nsamples = 78\nvalue = [45, 33]"] ;
732 -> 733 ;
734 [label="X[0] <= -1999.356\nentropy = 0.993\nsamples = 71\nvalue = [39, 32]"] ;
733 -> 734 ;
735 [label="entropy = 0.0\nsamples = 1\nvalue = [0, 1]"] ;
734 -> 735 ;
736 [label="X[0] <= -1973.532\nentropy = 0.991\nsamples = 70\nvalue = [39, 31]"] ;
734 -> 736 ;
737 [label="X[0] <= -1974.72\nentropy = 0.988\nsamples = 69\nvalue = [39, 30]"] ;
736 -> 737 ;
738 [label="X[0] <= -1975.068\nentropy = 0.992\nsamples = 67\nvalue = [37, 30]"] ;
737 -> 738 ;
739 [label="X[0] <= -1975.278\nentropy = 0.986\nsamples = 65\nvalue = [37, 28]"] ;
738 -> 739 ;
740 [label="X[0] <= -1976.649\nentropy = 0.991\nsamples = 63\nvalue = [35, 28]"] ;
739 -> 740 ;
741 [label="X[0] <= -1979.963\nentropy = 0.984\nsamples = 61\nvalue = [35, 26]"] ;
740 -> 741 ;
742 [label="X[0] <= -1980.475\nentropy = 0.998\nsamples = 53\nvalue = [28, 25]"] ;
741 -> 742 ;
743 [label="X[0] <= -1982.215\nentropy = 0.99\nsamples = 50\nvalue = [28, 22]"] ;
742 -> 743 ;
744 [label="entropy = 0.976\nsamples = 44\nvalue = [26, 18]"] ;
743 -> 744 ;
745 [label="entropy = 0.918\nsamples = 6\nvalue = [2, 4]"] ;
743 -> 745 ;
746 [label="entropy = 0.0\nsamples = 3\nvalue = [0, 3]"] ;
742 -> 746 ;
747 [label="X[0] <= -1978.33\nentropy = 0.544\nsamples = 8\nvalue = [7, 1]"] ;
741 -> 747 ;
748 [label="entropy = 0.0\nsamples = 4\nvalue = [4, 0]"] ;
747 -> 748 ;
749 [label="X[0] <= -1977.589\nentropy = 0.811\nsamples = 4\nvalue = [3, 1]"] ;
747 -> 749 ;
750 [label="entropy = 0.0\nsamples = 1\nvalue = [0, 1]"] ;
749 -> 750 ;
751 [label="entropy = 0.0\nsamples = 3\nvalue = [3, 0]"] ;
749 -> 751 ;
752 [label="entropy = 0.0\nsamples = 2\nvalue = [0, 2]"] ;
740 -> 752 ;
753 [label="entropy = 0.0\nsamples = 2\nvalue = [2, 0]"] ;
739 -> 753 ;
754 [label="entropy = 0.0\nsamples = 2\nvalue = [0, 2]"] ;
738 -> 754 ;
755 [label="entropy = 0.0\nsamples = 2\nvalue = [2, 0]"] ;
737 -> 755 ;
756 [label="entropy = 0.0\nsamples = 1\nvalue = [0, 1]"] ;
736 -> 756 ;
757 [label="X[0] <= -1969.812\nentropy = 0.592\nsamples = 7\nvalue = [6, 1]"] ;
733 -> 757 ;
758 [label="entropy = 0.0\nsamples = 5\nvalue = [5, 0]"] ;
757 -> 758 ;
759 [label="X[0] <= -1969.144\nentropy = 1.0\nsamples = 2\nvalue = [1, 1]"] ;
757 -> 759 ;
760 [label="entropy = 0.0\nsamples = 1\nvalue = [0, 1]"] ;
759 -> 760 ;
761 [label="entropy = 0.0\nsamples = 1\nvalue = [1, 0]"] ;
759 -> 761 ;
762 [label="entropy = 0.0\nsamples = 3\nvalue = [0, 3]"] ;
732 -> 762 ;
763 [label="entropy = 0.0\nsamples = 3\nvalue = [3, 0]"] ;
731 -> 763 ;
764 [label="X[0] <= -1964.063\nentropy = 0.946\nsamples = 11\nvalue = [4, 7]"] ;
730 -> 764 ;
765 [label="entropy = 0.0\nsamples = 4\nvalue = [0, 4]"] ;
764 -> 765 ;
766 [label="X[0] <= -1963.76\nentropy = 0.985\nsamples = 7\nvalue = [4, 3]"] ;
764 -> 766 ;
767 [label="entropy = 0.0\nsamples = 3\nvalue = [3, 0]"] ;
766 -> 767 ;
768 [label="X[0] <= -1963.217\nentropy = 0.811\nsamples = 4\nvalue = [1, 3]"] ;
766 -> 768 ;
769 [label="entropy = 0.0\nsamples = 2\nvalue = [0, 2]"] ;
768 -> 769 ;
770 [label="X[0] <= -1962.39\nentropy = 1.0\nsamples = 2\nvalue = [1, 1]"] ;
768 -> 770 ;
771 [label="entropy = 0.0\nsamples = 1\nvalue = [1, 0]"] ;
770 -> 771 ;
772 [label="entropy = 0.0\nsamples = 1\nvalue = [0, 1]"] ;
770 -> 772 ;
773 [label="X[0] <= -1958.249\nentropy = 0.857\nsamples = 945\nvalue = [679, 266]"] ;
729 -> 773 ;
774 [label="entropy = 0.0\nsamples = 10\nvalue = [10, 0]"] ;
773 -> 774 ;
775 [label="X[0] <= -1955.506\nentropy = 0.861\nsamples = 935\nvalue = [669, 266]"] ;
773 -> 775 ;
776 [label="X[0] <= -1956.954\nentropy = 0.863\nsamples = 7\nvalue = [2, 5]"] ;
775 -> 776 ;
777 [label="X[0] <= -1958.038\nentropy = 0.918\nsamples = 3\nvalue = [2, 1]"] ;
776 -> 777 ;
778 [label="entropy = 0.0\nsamples = 1\nvalue = [0, 1]"] ;
777 -> 778 ;
779 [label="entropy = 0.0\nsamples = 2\nvalue = [2, 0]"] ;
777 -> 779 ;
780 [label="entropy = 0.0\nsamples = 4\nvalue = [0, 4]"] ;
776 -> 780 ;
781 [label="X[0] <= -1944.701\nentropy = 0.857\nsamples = 928\nvalue = [667, 261]"] ;
775 -> 781 ;
782 [label="entropy = 0.0\nsamples = 17\nvalue = [17, 0]"] ;
781 -> 782 ;
783 [label="X[0] <= -1935.501\nentropy = 0.864\nsamples = 911\nvalue = [650, 261]"] ;
781 -> 783 ;
784 [label="X[0] <= -1937.155\nentropy = 0.94\nsamples = 14\nvalue = [5, 9]"] ;
783 -> 784 ;
785 [label="X[0] <= -1938.427\nentropy = 0.994\nsamples = 11\nvalue = [5, 6]"] ;
784 -> 785 ;
786 [label="X[0] <= -1942.86\nentropy = 0.918\nsamples = 9\nvalue = [3, 6]"] ;
785 -> 786 ;
787 [label="entropy = 0.0\nsamples = 2\nvalue = [0, 2]"] ;
786 -> 787 ;
788 [label="X[0] <= -1941.757\nentropy = 0.985\nsamples = 7\nvalue = [3, 4]"] ;
786 -> 788 ;
789 [label="entropy = 0.0\nsamples = 1\nvalue = [1, 0]"] ;
788 -> 789 ;
790 [label="X[0] <= -1940.853\nentropy = 0.918\nsamples = 6\nvalue = [2, 4]"] ;
788 -> 790 ;
791 [label="entropy = 0.0\nsamples = 2\nvalue = [0, 2]"] ;
790 -> 791 ;
792 [label="X[0] <= -1940.559\nentropy = 1.0\nsamples = 4\nvalue = [2, 2]"] ;
790 -> 792 ;
793 [label="entropy = 0.0\nsamples = 1\nvalue = [1, 0]"] ;
792 -> 793 ;
794 [label="X[0] <= -1939.709\nentropy = 0.918\nsamples = 3\nvalue = [1, 2]"] ;
792 -> 794 ;
795 [label="entropy = 0.0\nsamples = 1\nvalue = [0, 1]"] ;
794 -> 795 ;
796 [label="X[0] <= -1939.002\nentropy = 1.0\nsamples = 2\nvalue = [1, 1]"] ;
794 -> 796 ;
797 [label="entropy = 0.0\nsamples = 1\nvalue = [1, 0]"] ;
796 -> 797 ;
798 [label="entropy = 0.0\nsamples = 1\nvalue = [0, 1]"] ;
796 -> 798 ;
799 [label="entropy = 0.0\nsamples = 2\nvalue = [2, 0]"] ;
785 -> 799 ;
800 [label="entropy = 0.0\nsamples = 3\nvalue = [0, 3]"] ;
784 -> 800 ;
801 [label="X[0] <= -1387.589\nentropy = 0.857\nsamples = 897\nvalue = [645, 252]"] ;
783 -> 801 ;
802 [label="X[0] <= -1394.797\nentropy = 0.858\nsamples = 893\nvalue = [641, 252]"] ;
801 -> 802 ;
803 [label="X[0] <= -1398.45\nentropy = 0.852\nsamples = 879\nvalue = [635, 244]"] ;
802 -> 803 ;
804 [label="X[0] <= -1399.218\nentropy = 0.854\nsamples = 874\nvalue = [630, 244]"] ;
803 -> 804 ;
805 [label="X[0] <= -1931.284\nentropy = 0.853\nsamples = 873\nvalue = [630, 243]"] ;
804 -> 805 ;
806 [label="X[0] <= -1932.89\nentropy = 0.439\nsamples = 11\nvalue = [10, 1]"] ;
805 -> 806 ;
807 [label="X[0] <= -1932.964\nentropy = 0.811\nsamples = 4\nvalue = [3, 1]"] ;
806 -> 807 ;
808 [label="entropy = 0.0\nsamples = 3\nvalue = [3, 0]"] ;
807 -> 808 ;
809 [label="entropy = 0.0\nsamples = 1\nvalue = [0, 1]"] ;
807 -> 809 ;
810 [label="entropy = 0.0\nsamples = 7\nvalue = [7, 0]"] ;
806 -> 810 ;
811 [label="X[0] <= -1929.452\nentropy = 0.856\nsamples = 862\nvalue = [620, 242]"] ;
805 -> 811 ;
812 [label="X[0] <= -1930.487\nentropy = 0.722\nsamples = 5\nvalue = [1, 4]"] ;
811 -> 812 ;
813 [label="entropy = 0.0\nsamples = 2\nvalue = [0, 2]"] ;
812 -> 813 ;
814 [label="X[0] <= -1929.757\nentropy = 0.918\nsamples = 3\nvalue = [1, 2]"] ;
812 -> 814 ;
815 [label="entropy = 0.0\nsamples = 1\nvalue = [1, 0]"] ;
814 -> 815 ;
816 [label="entropy = 0.0\nsamples = 2\nvalue = [0, 2]"] ;
814 -> 816 ;
817 [label="X[0] <= -1690.695\nentropy = 0.852\nsamples = 857\nvalue = [619, 238]"] ;
811 -> 817 ;
818 [label="X[0] <= -1704.568\nentropy = 0.82\nsamples = 434\nvalue = [323, 111]"] ;
817 -> 818 ;
819 [label="X[0] <= -1705.293\nentropy = 0.835\nsamples = 418\nvalue = [307, 111]"] ;
818 -> 819 ;
820 [label="entropy = 0.832\nsamples = 417\nvalue = [307, 110]"] ;
819 -> 820 ;
821 [label="entropy = 0.0\nsamples = 1\nvalue = [0, 1]"] ;
819 -> 821 ;
822 [label="entropy = 0.0\nsamples = 16\nvalue = [16, 0]"] ;
818 -> 822 ;
823 [label="X[0] <= -1689.685\nentropy = 0.882\nsamples = 423\nvalue = [296, 127]"] ;
817 -> 823 ;
824 [label="entropy = 0.0\nsamples = 3\nvalue = [0, 3]"] ;
823 -> 824 ;
825 [label="X[0] <= -1687.797\nentropy = 0.875\nsamples = 420\nvalue = [296, 124]"] ;
823 -> 825 ;
826 [label="entropy = 0.0\nsamples = 6\nvalue = [6, 0]"] ;
825 -> 826 ;
827 [label="entropy = 0.881\nsamples = 414\nvalue = [290, 124]"] ;
825 -> 827 ;
828 [label="entropy = 0.0\nsamples = 1\nvalue = [0, 1]"] ;
804 -> 828 ;
829 [label="entropy = 0.0\nsamples = 5\nvalue = [5, 0]"] ;
803 -> 829 ;
830 [label="X[0] <= -1394.412\nentropy = 0.985\nsamples = 14\nvalue = [6, 8]"] ;
802 -> 830 ;
831 [label="entropy = 0.0\nsamples = 2\nvalue = [0, 2]"] ;
830 -> 831 ;
832 [label="X[0] <= -1388.005\nentropy = 1.0\nsamples = 12\nvalue = [6, 6]"] ;
830 -> 832 ;
833 [label="X[0] <= -1389.788\nentropy = 0.971\nsamples = 10\nvalue = [6, 4]"] ;
832 -> 833 ;
834 [label="X[0] <= -1394.137\nentropy = 1.0\nsamples = 8\nvalue = [4, 4]"] ;
833 -> 834 ;
835 [label="entropy = 0.0\nsamples = 1\nvalue = [1, 0]"] ;
834 -> 835 ;
836 [label="X[0] <= -1392.396\nentropy = 0.985\nsamples = 7\nvalue = [3, 4]"] ;
834 -> 836 ;
837 [label="entropy = 0.0\nsamples = 2\nvalue = [0, 2]"] ;
836 -> 837 ;
838 [label="X[0] <= -1390.663\nentropy = 0.971\nsamples = 5\nvalue = [3, 2]"] ;
836 -> 838 ;
839 [label="X[0] <= -1390.97\nentropy = 0.811\nsamples = 4\nvalue = [3, 1]"] ;
838 -> 839 ;
840 [label="entropy = 1.0\nsamples = 2\nvalue = [1, 1]"] ;
839 -> 840 ;
841 [label="entropy = 0.0\nsamples = 2\nvalue = [2, 0]"] ;
839 -> 841 ;
842 [label="entropy = 0.0\nsamples = 1\nvalue = [0, 1]"] ;
838 -> 842 ;
843 [label="entropy = 0.0\nsamples = 2\nvalue = [2, 0]"] ;
833 -> 843 ;
844 [label="entropy = 0.0\nsamples = 2\nvalue = [0, 2]"] ;
832 -> 844 ;
845 [label="entropy = 0.0\nsamples = 4\nvalue = [4, 0]"] ;
801 -> 845 ;
846 [label="entropy = 0.0\nsamples = 2\nvalue = [0, 2]"] ;
694 -> 846 ;
847 [label="X[0] <= -196.61\nentropy = 0.784\nsamples = 1793\nvalue = [1374, 419]"] ;
689 -> 847 ;
848 [label="X[0] <= -1055.003\nentropy = 0.726\nsamples = 1198\nvalue = [956, 242]"] ;
847 -> 848 ;
849 [label="X[0] <= -1106.216\nentropy = 0.819\nsamples = 412\nvalue = [307, 105]"] ;
848 -> 849 ;
850 [label="X[0] <= -1374.935\nentropy = 0.773\nsamples = 343\nvalue = [265, 78]"] ;
849 -> 850 ;
851 [label="entropy = 0.0\nsamples = 7\nvalue = [7, 0]"] ;
850 -> 851 ;
852 [label="X[0] <= -1115.853\nentropy = 0.782\nsamples = 336\nvalue = [258, 78]"] ;
850 -> 852 ;
853 [label="X[0] <= -1118.04\nentropy = 0.789\nsamples = 330\nvalue = [252, 78]"] ;
852 -> 853 ;
854 [label="X[0] <= -1374.602\nentropy = 0.781\nsamples = 328\nvalue = [252, 76]"] ;
853 -> 854 ;
855 [label="entropy = 0.0\nsamples = 1\nvalue = [0, 1]"] ;
854 -> 855 ;
856 [label="X[0] <= -1317.29\nentropy = 0.777\nsamples = 327\nvalue = [252, 75]"] ;
854 -> 856 ;
857 [label="X[0] <= -1325.424\nentropy = 0.645\nsamples = 85\nvalue = [71, 14]"] ;
856 -> 857 ;
858 [label="X[0] <= -1325.971\nentropy = 0.689\nsamples = 76\nvalue = [62, 14]"] ;
857 -> 858 ;
859 [label="X[0] <= -1327.345\nentropy = 0.665\nsamples = 75\nvalue = [62, 13]"] ;
858 -> 859 ;
860 [label="X[0] <= -1327.62\nentropy = 0.692\nsamples = 70\nvalue = [57, 13]"] ;
859 -> 860 ;
861 [label="X[0] <= -1329.203\nentropy = 0.667\nsamples = 69\nvalue = [57, 12]"] ;
860 -> 861 ;
862 [label="X[0] <= -1331.101\nentropy = 0.702\nsamples = 63\nvalue = [51, 12]"] ;
861 -> 862 ;
863 [label="X[0] <= -1339.345\nentropy = 0.61\nsamples = 60\nvalue = [51, 9]"] ;
862 -> 863 ;
864 [label="X[0] <= -1343.291\nentropy = 0.696\nsamples = 48\nvalue = [39, 9]"] ;
863 -> 864 ;
865 [label="X[0] <= -1361.051\nentropy = 0.583\nsamples = 43\nvalue = [37, 6]"] ;
864 -> 865 ;
866 [label="X[0] <= -1361.894\nentropy = 0.722\nsamples = 20\nvalue = [16, 4]"] ;
865 -> 866 ;
867 [label="entropy = 0.629\nsamples = 19\nvalue = [16, 3]"] ;
866 -> 867 ;
868 [label="entropy = 0.0\nsamples = 1\nvalue = [0, 1]"] ;
866 -> 868 ;
869 [label="X[0] <= -1354.789\nentropy = 0.426\nsamples = 23\nvalue = [21, 2]"] ;
865 -> 869 ;
870 [label="entropy = 0.0\nsamples = 9\nvalue = [9, 0]"] ;
869 -> 870 ;
871 [label="entropy = 0.592\nsamples = 14\nvalue = [12, 2]"] ;
869 -> 871 ;
872 [label="X[0] <= -1341.919\nentropy = 0.971\nsamples = 5\nvalue = [2, 3]"] ;
864 -> 872 ;
873 [label="entropy = 0.0\nsamples = 1\nvalue = [0, 1]"] ;
872 -> 873 ;
874 [label="X[0] <= -1341.434\nentropy = 1.0\nsamples = 4\nvalue = [2, 2]"] ;
872 -> 874 ;
875 [label="entropy = 0.0\nsamples = 1\nvalue = [1, 0]"] ;
874 -> 875 ;
876 [label="entropy = 0.918\nsamples = 3\nvalue = [1, 2]"] ;
874 -> 876 ;
877 [label="entropy = 0.0\nsamples = 12\nvalue = [12, 0]"] ;
863 -> 877 ;
878 [label="entropy = 0.0\nsamples = 3\nvalue = [0, 3]"] ;
862 -> 878 ;
879 [label="entropy = 0.0\nsamples = 6\nvalue = [6, 0]"] ;
861 -> 879 ;
880 [label="entropy = 0.0\nsamples = 1\nvalue = [0, 1]"] ;
860 -> 880 ;
881 [label="entropy = 0.0\nsamples = 5\nvalue = [5, 0]"] ;
859 -> 881 ;
882 [label="entropy = 0.0\nsamples = 1\nvalue = [0, 1]"] ;
858 -> 882 ;
883 [label="entropy = 0.0\nsamples = 9\nvalue = [9, 0]"] ;
857 -> 883 ;
884 [label="X[0] <= -1166.536\nentropy = 0.815\nsamples = 242\nvalue = [181, 61]"] ;
856 -> 884 ;
885 [label="X[0] <= -1167.914\nentropy = 0.859\nsamples = 177\nvalue = [127, 50]"] ;
884 -> 885 ;
886 [label="X[0] <= -1170.994\nentropy = 0.848\nsamples = 175\nvalue = [127, 48]"] ;
885 -> 886 ;
887 [label="X[0] <= -1187.226\nentropy = 0.859\nsamples = 170\nvalue = [122, 48]"] ;
886 -> 887 ;
888 [label="X[0] <= -1201.74\nentropy = 0.809\nsamples = 145\nvalue = [109, 36]"] ;
887 -> 888 ;
889 [label="X[0] <= -1316.554\nentropy = 0.842\nsamples = 133\nvalue = [97, 36]"] ;
888 -> 889 ;
890 [label="entropy = 0.0\nsamples = 1\nvalue = [0, 1]"] ;
889 -> 890 ;
891 [label="X[0] <= -1204.468\nentropy = 0.834\nsamples = 132\nvalue = [97, 35]"] ;
889 -> 891 ;
892 [label="X[0] <= -1292.3\nentropy = 0.826\nsamples = 131\nvalue = [97, 34]"] ;
891 -> 892 ;
893 [label="X[0] <= -1294.701\nentropy = 0.937\nsamples = 34\nvalue = [22, 12]"] ;
892 -> 893 ;
894 [label="X[0] <= -1300.581\nentropy = 0.837\nsamples = 30\nvalue = [22, 8]"] ;
893 -> 894 ;
895 [label="entropy = 0.904\nsamples = 25\nvalue = [17, 8]"] ;
894 -> 895 ;
896 [label="entropy = 0.0\nsamples = 5\nvalue = [5, 0]"] ;
894 -> 896 ;
897 [label="entropy = 0.0\nsamples = 4\nvalue = [0, 4]"] ;
893 -> 897 ;
898 [label="X[0] <= -1245.733\nentropy = 0.772\nsamples = 97\nvalue = [75, 22]"] ;
892 -> 898 ;
899 [label="X[0] <= -1264.894\nentropy = 0.627\nsamples = 51\nvalue = [43, 8]"] ;
898 -> 899 ;
900 [label="entropy = 0.824\nsamples = 31\nvalue = [23, 8]"] ;
899 -> 900 ;
901 [label="entropy = 0.0\nsamples = 20\nvalue = [20, 0]"] ;
899 -> 901 ;
902 [label="X[0] <= -1244.565\nentropy = 0.887\nsamples = 46\nvalue = [32, 14]"] ;
898 -> 902 ;
903 [label="entropy = 0.0\nsamples = 2\nvalue = [0, 2]"] ;
902 -> 903 ;
904 [label="entropy = 0.845\nsamples = 44\nvalue = [32, 12]"] ;
902 -> 904 ;
905 [label="entropy = 0.0\nsamples = 1\nvalue = [0, 1]"] ;
891 -> 905 ;
906 [label="entropy = 0.0\nsamples = 12\nvalue = [12, 0]"] ;
888 -> 906 ;
907 [label="X[0] <= -1179.688\nentropy = 0.999\nsamples = 25\nvalue = [13, 12]"] ;
887 -> 907 ;
908 [label="X[0] <= -1184.599\nentropy = 0.845\nsamples = 11\nvalue = [3, 8]"] ;
907 -> 908 ;
909 [label="X[0] <= -1186.588\nentropy = 1.0\nsamples = 4\nvalue = [2, 2]"] ;
908 -> 909 ;
910 [label="entropy = 0.0\nsamples = 1\nvalue = [0, 1]"] ;
909 -> 910 ;
911 [label="X[0] <= -1185.605\nentropy = 0.918\nsamples = 3\nvalue = [2, 1]"] ;
909 -> 911 ;
912 [label="entropy = 0.0\nsamples = 1\nvalue = [1, 0]"] ;
911 -> 912 ;
913 [label="X[0] <= -1184.875\nentropy = 1.0\nsamples = 2\nvalue = [1, 1]"] ;
911 -> 913 ;
914 [label="entropy = 0.0\nsamples = 1\nvalue = [0, 1]"] ;
913 -> 914 ;
915 [label="entropy = 0.0\nsamples = 1\nvalue = [1, 0]"] ;
913 -> 915 ;
916 [label="X[0] <= -1181.212\nentropy = 0.592\nsamples = 7\nvalue = [1, 6]"] ;
908 -> 916 ;
917 [label="entropy = 0.0\nsamples = 4\nvalue = [0, 4]"] ;
916 -> 917 ;
918 [label="X[0] <= -1180.254\nentropy = 0.918\nsamples = 3\nvalue = [1, 2]"] ;
916 -> 918 ;
919 [label="entropy = 0.0\nsamples = 1\nvalue = [1, 0]"] ;
918 -> 919 ;
920 [label="entropy = 0.0\nsamples = 2\nvalue = [0, 2]"] ;
918 -> 920 ;
921 [label="X[0] <= -1171.553\nentropy = 0.863\nsamples = 14\nvalue = [10, 4]"] ;
907 -> 921 ;
922 [label="X[0] <= -1174.049\nentropy = 0.779\nsamples = 13\nvalue = [10, 3]"] ;
921 -> 922 ;
923 [label="X[0] <= -1174.433\nentropy = 0.918\nsamples = 9\nvalue = [6, 3]"] ;
922 -> 923 ;
924 [label="X[0] <= -1178.887\nentropy = 0.811\nsamples = 8\nvalue = [6, 2]"] ;
923 -> 924 ;
925 [label="entropy = 0.0\nsamples = 2\nvalue = [2, 0]"] ;
924 -> 925 ;
926 [label="X[0] <= -1178.189\nentropy = 0.918\nsamples = 6\nvalue = [4, 2]"] ;
924 -> 926 ;
927 [label="entropy = 0.0\nsamples = 1\nvalue = [0, 1]"] ;
926 -> 927 ;
928 [label="entropy = 0.722\nsamples = 5\nvalue = [4, 1]"] ;
926 -> 928 ;
929 [label="entropy = 0.0\nsamples = 1\nvalue = [0, 1]"] ;
923 -> 929 ;
930 [label="entropy = 0.0\nsamples = 4\nvalue = [4, 0]"] ;
922 -> 930 ;
931 [label="entropy = 0.0\nsamples = 1\nvalue = [0, 1]"] ;
921 -> 931 ;
932 [label="entropy = 0.0\nsamples = 5\nvalue = [5, 0]"] ;
886 -> 932 ;
933 [label="entropy = 0.0\nsamples = 2\nvalue = [0, 2]"] ;
885 -> 933 ;
934 [label="X[0] <= -1162.993\nentropy = 0.656\nsamples = 65\nvalue = [54, 11]"] ;
884 -> 934 ;
935 [label="entropy = 0.0\nsamples = 4\nvalue = [4, 0]"] ;
934 -> 935 ;
936 [label="X[0] <= -1162.64\nentropy = 0.681\nsamples = 61\nvalue = [50, 11]"] ;
934 -> 936 ;
937 [label="entropy = 0.0\nsamples = 1\nvalue = [0, 1]"] ;
936 -> 937 ;
938 [label="X[0] <= -1158.092\nentropy = 0.65\nsamples = 60\nvalue = [50, 10]"] ;
936 -> 938 ;
939 [label="entropy = 0.0\nsamples = 8\nvalue = [8, 0]"] ;
938 -> 939 ;
940 [label="X[0] <= -1157.114\nentropy = 0.706\nsamples = 52\nvalue = [42, 10]"] ;
938 -> 940 ;
941 [label="entropy = 0.0\nsamples = 1\nvalue = [0, 1]"] ;
940 -> 941 ;
942 [label="X[0] <= -1127.556\nentropy = 0.672\nsamples = 51\nvalue = [42, 9]"] ;
940 -> 942 ;
943 [label="X[0] <= -1129.963\nentropy = 0.601\nsamples = 41\nvalue = [35, 6]"] ;
942 -> 943 ;
944 [label="X[0] <= -1130.894\nentropy = 0.65\nsamples = 36\nvalue = [30, 6]"] ;
943 -> 944 ;
945 [label="X[0] <= -1134.555\nentropy = 0.592\nsamples = 35\nvalue = [30, 5]"] ;
944 -> 945 ;
946 [label="X[0] <= -1139.473\nentropy = 0.691\nsamples = 27\nvalue = [22, 5]"] ;
945 -> 946 ;
947 [label="entropy = 0.544\nsamples = 24\nvalue = [21, 3]"] ;
946 -> 947 ;
948 [label="entropy = 0.918\nsamples = 3\nvalue = [1, 2]"] ;
946 -> 948 ;
949 [label="entropy = 0.0\nsamples = 8\nvalue = [8, 0]"] ;
945 -> 949 ;
950 [label="entropy = 0.0\nsamples = 1\nvalue = [0, 1]"] ;
944 -> 950 ;
951 [label="entropy = 0.0\nsamples = 5\nvalue = [5, 0]"] ;
943 -> 951 ;
952 [label="X[0] <= -1126.333\nentropy = 0.881\nsamples = 10\nvalue = [7, 3]"] ;
942 -> 952 ;
953 [label="entropy = 0.0\nsamples = 2\nvalue = [0, 2]"] ;
952 -> 953 ;
954 [label="X[0] <= -1122.106\nentropy = 0.544\nsamples = 8\nvalue = [7, 1]"] ;
952 -> 954 ;
955 [label="entropy = 0.0\nsamples = 5\nvalue = [5, 0]"] ;
954 -> 955 ;
956 [label="X[0] <= -1120.776\nentropy = 0.918\nsamples = 3\nvalue = [2, 1]"] ;
954 -> 956 ;
957 [label="entropy = 0.0\nsamples = 1\nvalue = [0, 1]"] ;
956 -> 957 ;
958 [label="entropy = 0.0\nsamples = 2\nvalue = [2, 0]"] ;
956 -> 958 ;
959 [label="entropy = 0.0\nsamples = 2\nvalue = [0, 2]"] ;
853 -> 959 ;
960 [label="entropy = 0.0\nsamples = 6\nvalue = [6, 0]"] ;
852 -> 960 ;
961 [label="X[0] <= -1102.777\nentropy = 0.966\nsamples = 69\nvalue = [42, 27]"] ;
849 -> 961 ;
962 [label="entropy = 0.0\nsamples = 3\nvalue = [0, 3]"] ;
961 -> 962 ;
963 [label="X[0] <= -1058.102\nentropy = 0.946\nsamples = 66\nvalue = [42, 24]"] ;
961 -> 963 ;
964 [label="X[0] <= -1102.22\nentropy = 0.928\nsamples = 64\nvalue = [42, 22]"] ;
963 -> 964 ;
965 [label="entropy = 0.0\nsamples = 3\nvalue = [3, 0]"] ;
964 -> 965 ;
966 [label="X[0] <= -1061.866\nentropy = 0.943\nsamples = 61\nvalue = [39, 22]"] ;
964 -> 966 ;
967 [label="X[0] <= -1101.414\nentropy = 0.958\nsamples = 58\nvalue = [36, 22]"] ;
966 -> 967 ;
968 [label="entropy = 0.0\nsamples = 1\nvalue = [0, 1]"] ;
967 -> 968 ;
969 [label="X[0] <= -1063.703\nentropy = 0.949\nsamples = 57\nvalue = [36, 21]"] ;
967 -> 969 ;
970 [label="X[0] <= -1076.399\nentropy = 0.94\nsamples = 56\nvalue = [36, 20]"] ;
969 -> 970 ;
971 [label="X[0] <= -1097.992\nentropy = 0.982\nsamples = 38\nvalue = [22, 16]"] ;
970 -> 971 ;
972 [label="entropy = 0.0\nsamples = 2\nvalue = [2, 0]"] ;
971 -> 972 ;
973 [label="X[0] <= -1097.435\nentropy = 0.991\nsamples = 36\nvalue = [20, 16]"] ;
971 -> 973 ;
974 [label="entropy = 0.0\nsamples = 1\nvalue = [0, 1]"] ;
973 -> 974 ;
975 [label="X[0] <= -1096.369\nentropy = 0.985\nsamples = 35\nvalue = [20, 15]"] ;
973 -> 975 ;
976 [label="entropy = 0.0\nsamples = 2\nvalue = [2, 0]"] ;
975 -> 976 ;
977 [label="X[0] <= -1092.523\nentropy = 0.994\nsamples = 33\nvalue = [18, 15]"] ;
975 -> 977 ;
978 [label="X[0] <= -1095.399\nentropy = 0.811\nsamples = 4\nvalue = [1, 3]"] ;
977 -> 978 ;
979 [label="X[0] <= -1095.944\nentropy = 1.0\nsamples = 2\nvalue = [1, 1]"] ;
978 -> 979 ;
980 [label="entropy = 0.0\nsamples = 1\nvalue = [0, 1]"] ;
979 -> 980 ;
981 [label="entropy = 0.0\nsamples = 1\nvalue = [1, 0]"] ;
979 -> 981 ;
982 [label="entropy = 0.0\nsamples = 2\nvalue = [0, 2]"] ;
978 -> 982 ;
983 [label="X[0] <= -1083.415\nentropy = 0.978\nsamples = 29\nvalue = [17, 12]"] ;
977 -> 983 ;
984 [label="X[0] <= -1085.943\nentropy = 0.874\nsamples = 17\nvalue = [12, 5]"] ;
983 -> 984 ;
985 [label="X[0] <= -1086.369\nentropy = 0.94\nsamples = 14\nvalue = [9, 5]"] ;
984 -> 985 ;
986 [label="X[0] <= -1087.092\nentropy = 0.89\nsamples = 13\nvalue = [9, 4]"] ;
985 -> 986 ;
987 [label="entropy = 0.971\nsamples = 10\nvalue = [6, 4]"] ;
986 -> 987 ;
988 [label="entropy = 0.0\nsamples = 3\nvalue = [3, 0]"] ;
986 -> 988 ;
989 [label="entropy = 0.0\nsamples = 1\nvalue = [0, 1]"] ;
985 -> 989 ;
990 [label="entropy = 0.0\nsamples = 3\nvalue = [3, 0]"] ;
984 -> 990 ;
991 [label="X[0] <= -1082.712\nentropy = 0.98\nsamples = 12\nvalue = [5, 7]"] ;
983 -> 991 ;
992 [label="entropy = 0.0\nsamples = 3\nvalue = [0, 3]"] ;
991 -> 992 ;
993 [label="X[0] <= -1076.911\nentropy = 0.991\nsamples = 9\nvalue = [5, 4]"] ;
991 -> 993 ;
994 [label="X[0] <= -1082.209\nentropy = 0.954\nsamples = 8\nvalue = [5, 3]"] ;
993 -> 994 ;
995 [label="entropy = 0.0\nsamples = 1\nvalue = [1, 0]"] ;
994 -> 995 ;
996 [label="entropy = 0.985\nsamples = 7\nvalue = [4, 3]"] ;
994 -> 996 ;
997 [label="entropy = 0.0\nsamples = 1\nvalue = [0, 1]"] ;
993 -> 997 ;
998 [label="X[0] <= -1074.479\nentropy = 0.764\nsamples = 18\nvalue = [14, 4]"] ;
970 -> 998 ;
999 [label="entropy = 0.0\nsamples = 6\nvalue = [6, 0]"] ;
998 -> 999 ;
1000 [label="X[0] <= -1073.767\nentropy = 0.918\nsamples = 12\nvalue = [8, 4]"] ;
998 -> 1000 ;
1001 [label="entropy = 0.0\nsamples = 1\nvalue = [0, 1]"] ;
1000 -> 1001 ;
1002 [label="X[0] <= -1072.215\nentropy = 0.845\nsamples = 11\nvalue = [8, 3]"] ;
1000 -> 1002 ;
1003 [label="entropy = 0.0\nsamples = 3\nvalue = [3, 0]"] ;
1002 -> 1003 ;
1004 [label="X[0] <= -1069.981\nentropy = 0.954\nsamples = 8\nvalue = [5, 3]"] ;
1002 -> 1004 ;
1005 [label="entropy = 0.0\nsamples = 2\nvalue = [0, 2]"] ;
1004 -> 1005 ;
1006 [label="X[0] <= -1066.622\nentropy = 0.65\nsamples = 6\nvalue = [5, 1]"] ;
1004 -> 1006 ;
1007 [label="entropy = 0.0\nsamples = 3\nvalue = [3, 0]"] ;
1006 -> 1007 ;
1008 [label="X[0] <= -1065.836\nentropy = 0.918\nsamples = 3\nvalue = [2, 1]"] ;
1006 -> 1008 ;
1009 [label="entropy = 0.0\nsamples = 1\nvalue = [0, 1]"] ;
1008 -> 1009 ;
1010 [label="entropy = 0.0\nsamples = 2\nvalue = [2, 0]"] ;
1008 -> 1010 ;
1011 [label="entropy = 0.0\nsamples = 1\nvalue = [0, 1]"] ;
969 -> 1011 ;
1012 [label="entropy = 0.0\nsamples = 3\nvalue = [3, 0]"] ;
966 -> 1012 ;
1013 [label="entropy = 0.0\nsamples = 2\nvalue = [0, 2]"] ;
963 -> 1013 ;
1014 [label="X[0] <= -227.678\nentropy = 0.667\nsamples = 786\nvalue = [649, 137]"] ;
848 -> 1014 ;
1015 [label="X[0] <= -1043.782\nentropy = 0.677\nsamples = 762\nvalue = [626, 136]"] ;
1014 -> 1015 ;
1016 [label="entropy = 0.0\nsamples = 10\nvalue = [10, 0]"] ;
1015 -> 1016 ;
1017 [label="X[0] <= -1043.698\nentropy = 0.682\nsamples = 752\nvalue = [616, 136]"] ;
1015 -> 1017 ;
1018 [label="entropy = 0.0\nsamples = 1\nvalue = [0, 1]"] ;
1017 -> 1018 ;
1019 [label="X[0] <= -1033.988\nentropy = 0.68\nsamples = 751\nvalue = [616, 135]"] ;
1017 -> 1019 ;
1020 [label="entropy = 0.0\nsamples = 12\nvalue = [12, 0]"] ;
1019 -> 1020 ;
1021 [label="X[0] <= -1032.968\nentropy = 0.686\nsamples = 739\nvalue = [604, 135]"] ;
1019 -> 1021 ;
1022 [label="entropy = 0.0\nsamples = 1\nvalue = [0, 1]"] ;
1021 -> 1022 ;
1023 [label="X[0] <= -228.401\nentropy = 0.684\nsamples = 738\nvalue = [604, 134]"] ;
1021 -> 1023 ;
1024 [label="X[0] <= -1024.717\nentropy = 0.681\nsamples = 737\nvalue = [604, 133]"] ;
1023 -> 1024 ;
1025 [label="entropy = 0.0\nsamples = 6\nvalue = [6, 0]"] ;
1024 -> 1025 ;
1026 [label="X[0] <= -1022.857\nentropy = 0.684\nsamples = 731\nvalue = [598, 133]"] ;
1024 -> 1026 ;
1027 [label="X[0] <= -1023.769\nentropy = 0.918\nsamples = 3\nvalue = [1, 2]"] ;
1026 -> 1027 ;
1028 [label="entropy = 0.0\nsamples = 1\nvalue = [0, 1]"] ;
1027 -> 1028 ;
1029 [label="X[0] <= -1023.068\nentropy = 1.0\nsamples = 2\nvalue = [1, 1]"] ;
1027 -> 1029 ;
1030 [label="entropy = 0.0\nsamples = 1\nvalue = [1, 0]"] ;
1029 -> 1030 ;
1031 [label="entropy = 0.0\nsamples = 1\nvalue = [0, 1]"] ;
1029 -> 1031 ;
1032 [label="X[0] <= -238.375\nentropy = 0.68\nsamples = 728\nvalue = [597, 131]"] ;
1026 -> 1032 ;
1033 [label="X[0] <= -241.887\nentropy = 0.683\nsamples = 723\nvalue = [592, 131]"] ;
1032 -> 1033 ;
1034 [label="X[0] <= -246.497\nentropy = 0.68\nsamples = 722\nvalue = [592, 130]"] ;
1033 -> 1034 ;
1035 [label="X[0] <= -250.827\nentropy = 0.683\nsamples = 716\nvalue = [586, 130]"] ;
1034 -> 1035 ;
1036 [label="X[0] <= -282.043\nentropy = 0.681\nsamples = 715\nvalue = [586, 129]"] ;
1035 -> 1036 ;
1037 [label="X[0] <= -282.978\nentropy = 0.684\nsamples = 709\nvalue = [580, 129]"] ;
1036 -> 1037 ;
1038 [label="X[0] <= -299.268\nentropy = 0.682\nsamples = 708\nvalue = [580, 128]"] ;
1037 -> 1038 ;
1039 [label="X[0] <= -302.32\nentropy = 0.686\nsamples = 700\nvalue = [572, 128]"] ;
1038 -> 1039 ;
1040 [label="entropy = 0.679\nsamples = 697\nvalue = [572, 125]"] ;
1039 -> 1040 ;
1041 [label="entropy = 0.0\nsamples = 3\nvalue = [0, 3]"] ;
1039 -> 1041 ;
1042 [label="entropy = 0.0\nsamples = 8\nvalue = [8, 0]"] ;
1038 -> 1042 ;
1043 [label="entropy = 0.0\nsamples = 1\nvalue = [0, 1]"] ;
1037 -> 1043 ;
1044 [label="entropy = 0.0\nsamples = 6\nvalue = [6, 0]"] ;
1036 -> 1044 ;
1045 [label="entropy = 0.0\nsamples = 1\nvalue = [0, 1]"] ;
1035 -> 1045 ;
1046 [label="entropy = 0.0\nsamples = 6\nvalue = [6, 0]"] ;
1034 -> 1046 ;
1047 [label="entropy = 0.0\nsamples = 1\nvalue = [0, 1]"] ;
1033 -> 1047 ;
1048 [label="entropy = 0.0\nsamples = 5\nvalue = [5, 0]"] ;
1032 -> 1048 ;
1049 [label="entropy = 0.0\nsamples = 1\nvalue = [0, 1]"] ;
1023 -> 1049 ;
1050 [label="X[0] <= -208.442\nentropy = 0.25\nsamples = 24\nvalue = [23, 1]"] ;
1014 -> 1050 ;
1051 [label="entropy = 0.0\nsamples = 14\nvalue = [14, 0]"] ;
1050 -> 1051 ;
1052 [label="X[0] <= -207.414\nentropy = 0.469\nsamples = 10\nvalue = [9, 1]"] ;
1050 -> 1052 ;
1053 [label="entropy = 0.0\nsamples = 1\nvalue = [0, 1]"] ;
1052 -> 1053 ;
1054 [label="entropy = 0.0\nsamples = 9\nvalue = [9, 0]"] ;
1052 -> 1054 ;
1055 [label="X[0] <= -194.607\nentropy = 0.878\nsamples = 595\nvalue = [418, 177]"] ;
847 -> 1055 ;
1056 [label="entropy = 0.0\nsamples = 2\nvalue = [0, 2]"] ;
1055 -> 1056 ;
1057 [label="X[0] <= 905.923\nentropy = 0.875\nsamples = 593\nvalue = [418, 175]"] ;
1055 -> 1057 ;
1058 [label="X[0] <= -24.988\nentropy = 0.872\nsamples = 591\nvalue = [418, 173]"] ;
1057 -> 1058 ;
1059 [label="X[0] <= -63.557\nentropy = 0.936\nsamples = 105\nvalue = [68, 37]"] ;
1058 -> 1059 ;
1060 [label="X[0] <= -96.764\nentropy = 0.868\nsamples = 83\nvalue = [59, 24]"] ;
1059 -> 1060 ;
1061 [label="X[0] <= -111.598\nentropy = 0.941\nsamples = 53\nvalue = [34, 19]"] ;
1060 -> 1061 ;
1062 [label="X[0] <= -149.126\nentropy = 0.863\nsamples = 42\nvalue = [30, 12]"] ;
1061 -> 1062 ;
1063 [label="X[0] <= -163.393\nentropy = 0.976\nsamples = 22\nvalue = [13, 9]"] ;
1062 -> 1063 ;
1064 [label="X[0] <= -186.842\nentropy = 0.874\nsamples = 17\nvalue = [12, 5]"] ;
1063 -> 1064 ;
1065 [label="entropy = 0.0\nsamples = 3\nvalue = [3, 0]"] ;
1064 -> 1065 ;
1066 [label="X[0] <= -168.604\nentropy = 0.94\nsamples = 14\nvalue = [9, 5]"] ;
1064 -> 1066 ;
1067 [label="X[0] <= -185.4\nentropy = 0.994\nsamples = 11\nvalue = [6, 5]"] ;
1066 -> 1067 ;
1068 [label="entropy = 0.0\nsamples = 1\nvalue = [0, 1]"] ;
1067 -> 1068 ;
1069 [label="X[0] <= -183.221\nentropy = 0.971\nsamples = 10\nvalue = [6, 4]"] ;
1067 -> 1069 ;
1070 [label="entropy = 0.0\nsamples = 2\nvalue = [2, 0]"] ;
1069 -> 1070 ;
1071 [label="X[0] <= -181.803\nentropy = 1.0\nsamples = 8\nvalue = [4, 4]"] ;
1069 -> 1071 ;
1072 [label="entropy = 0.0\nsamples = 1\nvalue = [0, 1]"] ;
1071 -> 1072 ;
1073 [label="X[0] <= -173.204\nentropy = 0.985\nsamples = 7\nvalue = [4, 3]"] ;
1071 -> 1073 ;
1074 [label="entropy = 0.0\nsamples = 2\nvalue = [2, 0]"] ;
1073 -> 1074 ;
1075 [label="X[0] <= -172.096\nentropy = 0.971\nsamples = 5\nvalue = [2, 3]"] ;
1073 -> 1075 ;
1076 [label="entropy = 0.0\nsamples = 1\nvalue = [0, 1]"] ;
1075 -> 1076 ;
1077 [label="X[0] <= -171.25\nentropy = 1.0\nsamples = 4\nvalue = [2, 2]"] ;
1075 -> 1077 ;
1078 [label="entropy = 0.0\nsamples = 1\nvalue = [1, 0]"] ;
1077 -> 1078 ;
1079 [label="X[0] <= -170.025\nentropy = 0.918\nsamples = 3\nvalue = [1, 2]"] ;
1077 -> 1079 ;
1080 [label="entropy = 0.0\nsamples = 1\nvalue = [0, 1]"] ;
1079 -> 1080 ;
1081 [label="entropy = 1.0\nsamples = 2\nvalue = [1, 1]"] ;
1079 -> 1081 ;
1082 [label="entropy = 0.0\nsamples = 3\nvalue = [3, 0]"] ;
1066 -> 1082 ;
1083 [label="X[0] <= -151.032\nentropy = 0.722\nsamples = 5\nvalue = [1, 4]"] ;
1063 -> 1083 ;
1084 [label="entropy = 0.0\nsamples = 3\nvalue = [0, 3]"] ;
1083 -> 1084 ;
1085 [label="X[0] <= -149.776\nentropy = 1.0\nsamples = 2\nvalue = [1, 1]"] ;
1083 -> 1085 ;
1086 [label="entropy = 0.0\nsamples = 1\nvalue = [1, 0]"] ;
1085 -> 1086 ;
1087 [label="entropy = 0.0\nsamples = 1\nvalue = [0, 1]"] ;
1085 -> 1087 ;
1088 [label="X[0] <= -133.198\nentropy = 0.61\nsamples = 20\nvalue = [17, 3]"] ;
1062 -> 1088 ;
1089 [label="entropy = 0.0\nsamples = 7\nvalue = [7, 0]"] ;
1088 -> 1089 ;
1090 [label="X[0] <= -132.473\nentropy = 0.779\nsamples = 13\nvalue = [10, 3]"] ;
1088 -> 1090 ;
1091 [label="entropy = 0.0\nsamples = 1\nvalue = [0, 1]"] ;
1090 -> 1091 ;
1092 [label="X[0] <= -125.065\nentropy = 0.65\nsamples = 12\nvalue = [10, 2]"] ;
1090 -> 1092 ;
1093 [label="entropy = 0.0\nsamples = 6\nvalue = [6, 0]"] ;
1092 -> 1093 ;
1094 [label="X[0] <= -122.217\nentropy = 0.918\nsamples = 6\nvalue = [4, 2]"] ;
1092 -> 1094 ;
1095 [label="entropy = 0.0\nsamples = 1\nvalue = [0, 1]"] ;
1094 -> 1095 ;
1096 [label="X[0] <= -120.774\nentropy = 0.722\nsamples = 5\nvalue = [4, 1]"] ;
1094 -> 1096 ;
1097 [label="entropy = 0.0\nsamples = 2\nvalue = [2, 0]"] ;
1096 -> 1097 ;
1098 [label="X[0] <= -120.074\nentropy = 0.918\nsamples = 3\nvalue = [2, 1]"] ;
1096 -> 1098 ;
1099 [label="entropy = 0.0\nsamples = 1\nvalue = [0, 1]"] ;
1098 -> 1099 ;
1100 [label="entropy = 0.0\nsamples = 2\nvalue = [2, 0]"] ;
1098 -> 1100 ;
1101 [label="X[0] <= -106.095\nentropy = 0.946\nsamples = 11\nvalue = [4, 7]"] ;
1061 -> 1101 ;
1102 [label="entropy = 0.0\nsamples = 2\nvalue = [0, 2]"] ;
1101 -> 1102 ;
1103 [label="X[0] <= -97.515\nentropy = 0.991\nsamples = 9\nvalue = [4, 5]"] ;
1101 -> 1103 ;
1104 [label="X[0] <= -105.583\nentropy = 0.985\nsamples = 7\nvalue = [4, 3]"] ;
1103 -> 1104 ;
1105 [label="entropy = 0.0\nsamples = 1\nvalue = [1, 0]"] ;
1104 -> 1105 ;
1106 [label="X[0] <= -104.762\nentropy = 1.0\nsamples = 6\nvalue = [3, 3]"] ;
1104 -> 1106 ;
1107 [label="entropy = 0.0\nsamples = 1\nvalue = [0, 1]"] ;
1106 -> 1107 ;
1108 [label="X[0] <= -103.144\nentropy = 0.971\nsamples = 5\nvalue = [3, 2]"] ;
1106 -> 1108 ;
1109 [label="entropy = 0.0\nsamples = 1\nvalue = [1, 0]"] ;
1108 -> 1109 ;
1110 [label="X[0] <= -101.95\nentropy = 1.0\nsamples = 4\nvalue = [2, 2]"] ;
1108 -> 1110 ;
1111 [label="entropy = 0.0\nsamples = 1\nvalue = [0, 1]"] ;
1110 -> 1111 ;
1112 [label="X[0] <= -100.712\nentropy = 0.918\nsamples = 3\nvalue = [2, 1]"] ;
1110 -> 1112 ;
1113 [label="entropy = 0.0\nsamples = 1\nvalue = [1, 0]"] ;
1112 -> 1113 ;
1114 [label="X[0] <= -98.542\nentropy = 1.0\nsamples = 2\nvalue = [1, 1]"] ;
1112 -> 1114 ;
1115 [label="entropy = 0.0\nsamples = 1\nvalue = [0, 1]"] ;
1114 -> 1115 ;
1116 [label="entropy = 0.0\nsamples = 1\nvalue = [1, 0]"] ;
1114 -> 1116 ;
1117 [label="entropy = 0.0\nsamples = 2\nvalue = [0, 2]"] ;
1103 -> 1117 ;
1118 [label="X[0] <= -90.813\nentropy = 0.65\nsamples = 30\nvalue = [25, 5]"] ;
1060 -> 1118 ;
1119 [label="entropy = 0.0\nsamples = 8\nvalue = [8, 0]"] ;
1118 -> 1119 ;
1120 [label="X[0] <= -89.262\nentropy = 0.773\nsamples = 22\nvalue = [17, 5]"] ;
1118 -> 1120 ;
1121 [label="entropy = 0.0\nsamples = 1\nvalue = [0, 1]"] ;
1120 -> 1121 ;
1122 [label="X[0] <= -69.575\nentropy = 0.702\nsamples = 21\nvalue = [17, 4]"] ;
1120 -> 1122 ;
1123 [label="X[0] <= -71.878\nentropy = 0.811\nsamples = 16\nvalue = [12, 4]"] ;
1122 -> 1123 ;
1124 [label="X[0] <= -79.296\nentropy = 0.592\nsamples = 14\nvalue = [12, 2]"] ;
1123 -> 1124 ;
1125 [label="X[0] <= -87.298\nentropy = 0.811\nsamples = 8\nvalue = [6, 2]"] ;
1124 -> 1125 ;
1126 [label="entropy = 0.0\nsamples = 4\nvalue = [4, 0]"] ;
1125 -> 1126 ;
1127 [label="X[0] <= -85.656\nentropy = 1.0\nsamples = 4\nvalue = [2, 2]"] ;
1125 -> 1127 ;
1128 [label="entropy = 0.0\nsamples = 1\nvalue = [0, 1]"] ;
1127 -> 1128 ;
1129 [label="X[0] <= -82.055\nentropy = 0.918\nsamples = 3\nvalue = [2, 1]"] ;
1127 -> 1129 ;
1130 [label="entropy = 0.0\nsamples = 2\nvalue = [2, 0]"] ;
1129 -> 1130 ;
1131 [label="entropy = 0.0\nsamples = 1\nvalue = [0, 1]"] ;
1129 -> 1131 ;
1132 [label="entropy = 0.0\nsamples = 6\nvalue = [6, 0]"] ;
1124 -> 1132 ;
1133 [label="entropy = 0.0\nsamples = 2\nvalue = [0, 2]"] ;
1123 -> 1133 ;
1134 [label="entropy = 0.0\nsamples = 5\nvalue = [5, 0]"] ;
1122 -> 1134 ;
1135 [label="X[0] <= -51.593\nentropy = 0.976\nsamples = 22\nvalue = [9, 13]"] ;
1059 -> 1135 ;
1136 [label="entropy = 0.0\nsamples = 3\nvalue = [0, 3]"] ;
1135 -> 1136 ;
1137 [label="X[0] <= -51.237\nentropy = 0.998\nsamples = 19\nvalue = [9, 10]"] ;
1135 -> 1137 ;
1138 [label="entropy = 0.0\nsamples = 1\nvalue = [1, 0]"] ;
1137 -> 1138 ;
1139 [label="X[0] <= -50.318\nentropy = 0.991\nsamples = 18\nvalue = [8, 10]"] ;
1137 -> 1139 ;
1140 [label="entropy = 0.0\nsamples = 2\nvalue = [0, 2]"] ;
1139 -> 1140 ;
1141 [label="X[0] <= -49.803\nentropy = 1.0\nsamples = 16\nvalue = [8, 8]"] ;
1139 -> 1141 ;
1142 [label="entropy = 0.0\nsamples = 1\nvalue = [1, 0]"] ;
1141 -> 1142 ;
1143 [label="X[0] <= -48.62\nentropy = 0.997\nsamples = 15\nvalue = [7, 8]"] ;
1141 -> 1143 ;
1144 [label="entropy = 0.0\nsamples = 1\nvalue = [0, 1]"] ;
1143 -> 1144 ;
1145 [label="X[0] <= -47.587\nentropy = 1.0\nsamples = 14\nvalue = [7, 7]"] ;
1143 -> 1145 ;
1146 [label="entropy = 0.0\nsamples = 1\nvalue = [1, 0]"] ;
1145 -> 1146 ;
1147 [label="X[0] <= -47.473\nentropy = 0.996\nsamples = 13\nvalue = [6, 7]"] ;
1145 -> 1147 ;
1148 [label="entropy = 0.0\nsamples = 2\nvalue = [0, 2]"] ;
1147 -> 1148 ;
1149 [label="X[0] <= -43.991\nentropy = 0.994\nsamples = 11\nvalue = [6, 5]"] ;
1147 -> 1149 ;
1150 [label="entropy = 0.0\nsamples = 2\nvalue = [2, 0]"] ;
1149 -> 1150 ;
1151 [label="X[0] <= -40.972\nentropy = 0.991\nsamples = 9\nvalue = [4, 5]"] ;
1149 -> 1151 ;
1152 [label="entropy = 0.0\nsamples = 1\nvalue = [0, 1]"] ;
1151 -> 1152 ;
1153 [label="X[0] <= -39.746\nentropy = 1.0\nsamples = 8\nvalue = [4, 4]"] ;
1151 -> 1153 ;
1154 [label="entropy = 0.0\nsamples = 1\nvalue = [1, 0]"] ;
1153 -> 1154 ;
1155 [label="X[0] <= -38.246\nentropy = 0.985\nsamples = 7\nvalue = [3, 4]"] ;
1153 -> 1155 ;
1156 [label="entropy = 0.0\nsamples = 1\nvalue = [0, 1]"] ;
1155 -> 1156 ;
1157 [label="X[0] <= -36.971\nentropy = 1.0\nsamples = 6\nvalue = [3, 3]"] ;
1155 -> 1157 ;
1158 [label="entropy = 0.0\nsamples = 1\nvalue = [1, 0]"] ;
1157 -> 1158 ;
1159 [label="X[0] <= -34.108\nentropy = 0.971\nsamples = 5\nvalue = [2, 3]"] ;
1157 -> 1159 ;
1160 [label="entropy = 0.0\nsamples = 2\nvalue = [0, 2]"] ;
1159 -> 1160 ;
1161 [label="entropy = 0.918\nsamples = 3\nvalue = [2, 1]"] ;
1159 -> 1161 ;
1162 [label="X[0] <= -11.359\nentropy = 0.855\nsamples = 486\nvalue = [350, 136]"] ;
1058 -> 1162 ;
1163 [label="entropy = 0.0\nsamples = 7\nvalue = [7, 0]"] ;
1162 -> 1163 ;
1164 [label="X[0] <= -9.538\nentropy = 0.861\nsamples = 479\nvalue = [343, 136]"] ;
1162 -> 1164 ;
1165 [label="entropy = 0.0\nsamples = 1\nvalue = [0, 1]"] ;
1164 -> 1165 ;
1166 [label="X[0] <= 1.958\nentropy = 0.859\nsamples = 478\nvalue = [343, 135]"] ;
1164 -> 1166 ;
1167 [label="entropy = 0.0\nsamples = 4\nvalue = [4, 0]"] ;
1166 -> 1167 ;
1168 [label="X[0] <= 3.75\nentropy = 0.862\nsamples = 474\nvalue = [339, 135]"] ;
1166 -> 1168 ;
1169 [label="entropy = 0.0\nsamples = 1\nvalue = [0, 1]"] ;
1168 -> 1169 ;
1170 [label="X[0] <= 617.318\nentropy = 0.86\nsamples = 473\nvalue = [339, 134]"] ;
1168 -> 1170 ;
1171 [label="X[0] <= 599.722\nentropy = 0.882\nsamples = 323\nvalue = [226, 97]"] ;
1170 -> 1171 ;
1172 [label="X[0] <= 594.978\nentropy = 0.873\nsamples = 317\nvalue = [224, 93]"] ;
1171 -> 1172 ;
1173 [label="X[0] <= 590.437\nentropy = 0.877\nsamples = 314\nvalue = [221, 93]"] ;
1172 -> 1173 ;
1174 [label="X[0] <= 582.801\nentropy = 0.874\nsamples = 313\nvalue = [221, 92]"] ;
1173 -> 1174 ;
1175 [label="X[0] <= 576.84\nentropy = 0.877\nsamples = 310\nvalue = [218, 92]"] ;
1174 -> 1175 ;
1176 [label="X[0] <= 563.701\nentropy = 0.872\nsamples = 308\nvalue = [218, 90]"] ;
1175 -> 1176 ;
1177 [label="X[0] <= 535.59\nentropy = 0.879\nsamples = 302\nvalue = [212, 90]"] ;
1176 -> 1177 ;
1178 [label="X[0] <= 508.255\nentropy = 0.86\nsamples = 286\nvalue = [205, 81]"] ;
1177 -> 1178 ;
1179 [label="X[0] <= 501.214\nentropy = 0.876\nsamples = 274\nvalue = [193, 81]"] ;
1178 -> 1179 ;
1180 [label="entropy = 0.869\nsamples = 272\nvalue = [193, 79]"] ;
1179 -> 1180 ;
1181 [label="entropy = 0.0\nsamples = 2\nvalue = [0, 2]"] ;
1179 -> 1181 ;
1182 [label="entropy = 0.0\nsamples = 12\nvalue = [12, 0]"] ;
1178 -> 1182 ;
1183 [label="X[0] <= 544.917\nentropy = 0.989\nsamples = 16\nvalue = [7, 9]"] ;
1177 -> 1183 ;
1184 [label="X[0] <= 541.117\nentropy = 0.722\nsamples = 5\nvalue = [1, 4]"] ;
1183 -> 1184 ;
1185 [label="entropy = 1.0\nsamples = 2\nvalue = [1, 1]"] ;
1184 -> 1185 ;
1186 [label="entropy = 0.0\nsamples = 3\nvalue = [0, 3]"] ;
1184 -> 1186 ;
1187 [label="X[0] <= 550.758\nentropy = 0.994\nsamples = 11\nvalue = [6, 5]"] ;
1183 -> 1187 ;
1188 [label="entropy = 0.722\nsamples = 5\nvalue = [4, 1]"] ;
1187 -> 1188 ;
1189 [label="entropy = 0.918\nsamples = 6\nvalue = [2, 4]"] ;
1187 -> 1189 ;
1190 [label="entropy = 0.0\nsamples = 6\nvalue = [6, 0]"] ;
1176 -> 1190 ;
1191 [label="entropy = 0.0\nsamples = 2\nvalue = [0, 2]"] ;
1175 -> 1191 ;
1192 [label="entropy = 0.0\nsamples = 3\nvalue = [3, 0]"] ;
1174 -> 1192 ;
1193 [label="entropy = 0.0\nsamples = 1\nvalue = [0, 1]"] ;
1173 -> 1193 ;
